53 300
đến -0.095757 0.092567 0.254858 0.120650 -0.288254 -0.206941 0.666732 0.466250 -0.272965 -0.167699 0.046579 0.016396 -0.033475 0.173497 0.132186 -0.240680 0.719171 -0.145483 0.141574 0.390885 0.226330 -0.237401 0.057714 0.132969 0.103870 -0.238040 -0.462566 -0.098581 -0.411738 0.031248 -0.294422 -0.205488 0.598193 0.446215 0.108079 -0.356121 0.305371 -0.233794 0.004346 0.355623 0.191248 0.439186 0.070641 0.144831 -0.094483 0.251131 -0.066526 0.041647 -0.175057 -0.173491 0.296205 0.148653 -0.259535 0.069861 0.254562 -0.091977 0.004296 -0.082410 0.270699 0.025601 -0.321147 -0.114742 0.335935 -0.496684 0.432229 0.179028 0.406862 -0.306690 0.432592 0.387429 0.243511 -0.201430 0.563973 0.149780 0.399938 0.368920 0.286501 0.303626 0.329944 -0.525060 0.090908 0.463212 -0.422636 -0.136481 0.234516 -0.053733 -0.100416 -0.285451 -0.468251 0.189205 -0.319527 -0.219573 -0.232444 -0.573460 0.179222 -0.184827 0.620021 -0.138907 0.129141 0.053276 0.409092 0.167975 0.238342 -0.062525 0.236069 0.170967 0.321498 0.157507 -0.102373 -0.293673 -0.462569 -0.104558 -0.213290 0.371644 -0.148293 0.122960 -0.006166 -0.150560 0.296480 0.672169 -0.300344 -0.088206 0.179194 -0.326721 -0.135021 -0.109189 -0.075951 -0.091088 -0.521557 -0.084366 0.494547 -0.747131 0.313967 -0.218928 -0.243763 0.332554 -0.476643 -0.210006 -0.444536 0.277056 -0.014819 -0.111968 0.537856 0.185507 -0.465406 0.200447 -0.247825 -0.684400 -0.196478 0.525302 0.018970 -0.130604 -0.601566 0.130235 0.118461 0.013077 -0.010856 0.369854 -0.130841 -0.022794 -0.252151 -0.526551 -0.080514 -0.320736 -0.209031 0.683632 -0.139783 0.572592 -0.454736 -0.286342 0.268318 -0.283480 -0.053433 -0.396891 -0.325053 -0.186725 -0.183531 -0.303904 0.398223 0.070468 0.087354 0.064079 -0.238972 0.115977 -0.112356 -0.601515 -0.186148 0.032871 -0.418660 -0.129201 -0.044345 0.053813 0.256847 0.593037 0.242194 0.352008 0.383270 0.178977 -0.588893 0.205931 -0.084838 -0.152309 0.140782 0.084155 0.088278 0.267986 -0.145789 0.006706 0.000600 0.823768 -0.008555 0.229596 -0.287457 0.016652 0.318639 0.242407 -0.188843 0.200704 0.040472 0.420845 -0.621500 -0.246864 -0.146389 -0.469611 0.030470 0.052875 -0.108627 -0.389752 0.225150 -0.123957 -0.280369 -0.352049 -0.165589 0.352118 -0.119275 0.099983 0.305213 -0.122951 0.679941 -0.445499 0.117650 0.064995 -0.092786 0.655657 0.782649 -0.425903 0.243286 0.079036 0.122122 0.021498 -0.087645 -0.043388 0.107562 -0.190536 0.603279 -0.069714 0.325068 0.263439 0.670990 -0.639735 -0.186158 -0.012490 -0.179449 -0.003420 -0.370582 0.458020 0.124309 0.084621 -0.115863 -0.109261 0.417370 0.109562 0.181238 0.119429 0.331230 0.426774 -0.490843 0.094898 0.151239 0.026906 0.320400 0.167421 0.185682 -0.078065 0.114057 -0.091157 0.054133 0.479915 -0.056820 0.078788 -0.068030 0.111471 -0.061460 -0.227316 -0.112635 0.229026 0.090645 -0.659748 -0.106436 -0.209863
đi 0.077313 -0.233427 0.070266 -0.377802 -0.432752 -0.115948 -0.104798 -0.046985 0.375788 -0.134209 -0.322047 0.271089 0.036598 -0.379907 0.647551 0.110004 -0.202944 -0.154753 -0.179008 -0.079887 -0.247000 -0.396971 0.310151 0.322302 0.237997 -0.113596 0.159096 0.089030 0.383000 0.225080 -0.390557 0.409604 -0.576700 0.112183 -0.055356 -0.287576 -0.332048 -0.464568 -0.393914 0.164012 -0.501110 -0.178588 -0.311121 0.229756 -0.082583 -0.096506 -0.046293 -0.035957 0.213393 -0.362804 0.068101 0.374394 -0.274500 0.022968 -0.295536 -0.636035 0.108232 -0.007075 -0.491628 -0.306536 -0.194271 0.424080 0.332325 -0.302431 0.138534 0.377974 -0.480198 0.362812 0.147269 0.204741 0.090879 0.017197 -0.058593 -0.172276 -0.292157 -0.160489 -0.275712 0.013679 0.103349 0.481383 0.421290 -0.248580 0.297702 -0.343930 0.448220 0.042220 0.389244 0.533132 0.147318 -0.668766 0.537860 -0.223724 -0.536985 0.108502 0.077123 -0.318297 0.061219 -0.199639 0.231703 -0.117935 -0.233743 0.306022 -0.683323 -0.293811 -0.370485 -0.293502 -0.208450 -0.475179 -0.137547 -0.365683 0.484692 0.171954 0.135489 -0.620899 -0.161304 -0.170448 0.505966 -0.181198 0.085778 -0.306206 0.333821 0.333778 -0.351420 0.379784 0.185032 -0.027563 -0.075087 -0.029189 0.443287 0.126413 0.007966 0.236038 -0.104228 -0.393275 -0.153641 -0.267766 0.135289 -0.255665 0.189135 -0.094467 0.059919 0.005394 -0.596314 -0.331141 -0.210097 0.431479 -0.176595 0.336474 -0.206937 -0.418937 0.335763 0.112731 -0.319766 0.113861 -0.039540 -0.056622 -0.000629 -0.445360 -0.358612 0.153697 0.243737 -0.254946 0.151440 0.436737 0.360722 0.260012 0.035549 0.179094 0.240604 -0.060170 0.007674 -0.448310 -0.364763 -0.269983 0.017064 0.152117 0.011503 -0.102260 -0.373805 0.252419 -0.054099 -0.079463 0.261835 0.230772 0.539024 0.410344 -0.359998 0.082910 0.119878 0.048970 0.339417 -0.545930 -0.091495 -0.515009 -0.165218 0.014926 0.037957 -0.184962 -0.004170 -0.158751 -0.593682 -0.454437 -0.156416 -0.010167 0.201970 0.102254 0.411065 -0.285370 -0.158064 -0.039930 0.033817 0.004498 0.130301 -0.233653 0.484630 -0.250907 0.087057 0.486175 -0.139114 -0.337384 0.314559 0.163892 0.027098 0.552211 -0.178542 0.048833 0.252718 -0.056440 -0.041179 -0.630044 0.645937 -0.076445 0.046126 -0.164836 -0.008052 -0.027459 0.112263 -0.216062 -0.230132 -0.006092 -0.280311 -0.110515 -0.166073 -0.223825 -0.284802 -0.325919 -0.634220 0.541753 0.581787 -0.018021 0.136380 0.111438 -0.123547 0.196201 -0.083046 0.559929 0.498799 -0.056793 -0.631430 0.308903 0.066043 0.042359 0.246855 -0.172727 -0.029916 -0.072014 -0.225981 -0.091422 -0.232509 0.055156 -0.129510 0.324640 -0.110933 -0.313987 -0.049388 -0.115974 -0.075700 0.692690 0.288433 -0.420065 -0.132153 -0.410795 -0.480622 -0.007924 0.175817 0.275934 0.038807 -0.308653 0.052679 -0.410925 0.145405 0.427314 -0.010392 -0.081474 0.444667 0.190322 -0.141789 -0.062448 -0.825858 0.050460
ở 0.130591 0.289891 -0.542807 -0.321446 -0.262593 -0.272232 0.073796 0.444265 -0.447513 -0.228938 0.457695 0.103222 -0.302225 -0.643762 -0.083386 -0.106358 0.493180 0.091895 -0.136494 0.218765 -0.407213 -0.313635 0.397546 -0.410716 0.302947 -0.003929 0.042315 -0.289658 -0.419813 -0.313924 0.485167 -0.184981 -0.324906 0.202772 -0.219480 -0.186588 0.047720 0.071440 -0.011498 0.128870 -0.032896 0.132836 0.310021 -0.216679 -0.508719 0.416874 -0.480374 -0.166193 0.384835 -0.293220 0.143980 -0.026975 0.267246 0.318459 0.097994 -0.258252 0.130521 -0.339301 -0.029210 -0.020774 -0.261750 0.393929 -0.102428 -0.009331 -0.234091 0.202743 -0.658159 -0.017725 0.057038 -0.010045 -0.054693 -0.063749 0.545270 0.636537 0.501080 0.203249 -0.322892 -0.385068 0.106573 -0.034769 -0.128402 0.136221 -0.050106 -0.420396 0.038559 -0.009450 -0.172602 -0.236626 -0.009611 -0.138738 0.139861 0.315719 0.337978 0.252820 -0.400929 -0.013906 -0.337413 0.221126 -0.040592 -0.261364 0.036683 0.804625 -0.214521 -0.018612 -0.050584 -0.212019 -0.142020 0.209986 -0.019514 0.102970 0.399712 -0.506798 -0.081116 0.206386 0.308069 -0.195906 0.403813 -0.471951 -0.401877 -0.175967 -0.411128 0.171005 -0.391982 0.425261 0.553763 -0.366946 0.000549 -0.080856 -0.341350 -0.111226 0.087740 -0.264771 0.108514 0.327597 -0.751978 -0.279140 -0.069815 0.086786 -0.108848 0.192883 0.415430 -0.246610 0.128681 0.784127 -0.217525 0.303747 0.375926 0.216229 -0.079219 0.378276 0.604633 0.667638 -0.250305 -0.253576 -0.528138 0.610269 -0.326084 -0.125592 0.173311 0.327775 -0.020400 0.220176 0.247593 -0.115907 -0.342877 0.332822 -0.475665 -0.123157 0.125562 0.046707 0.471248 -0.040235 0.142975 -0.812243 -0.226571 0.586137 0.333724 0.057339 0.052381 0.449990 -0.271187 -0.234859 0.176890 -0.264469 -0.039143 -0.713665 -0.341320 -0.187058 0.047579 0.549281 0.367724 0.676253 -0.114757 0.133274 0.200421 0.216464 0.313965 0.382845 0.001727 -0.331684 -0.219683 0.109017 -0.462665 -0.612120 0.607218 -0.293208 -0.093408 -0.348387 0.071574 -0.240552 -0.161549 -0.129856 0.234203 0.269856 -0.008623 -0.004964 -0.326331 0.118101 -0.158161 0.135597 0.380895 0.524429 -0.570568 -0.069963 -0.038643 -0.194365 0.052793 0.149272 -0.388826 0.014851 -0.015938 -0.175062 0.248677 -0.112958 0.427332 -0.000012 -0.528553 -0.114668 -0.588045 -0.551332 0.060638 0.203911 0.149092 0.681898 0.757976 0.382833 -0.288960 -0.143349 0.389648 0.124843 -0.538513 0.052535 0.143969 -0.851331 -0.500915 0.408751 0.190713 0.327889 0.200846 0.246991 0.501504 0.391927 0.041798 0.333747 0.108567 -0.549494 -0.494823 -0.127465 -0.043250 0.037443 0.363070 -0.257575 -0.207156 -0.261423 0.185254 0.085340 -0.675185 -0.029368 0.430277 0.042198 0.347039 0.475165 -0.245556 -0.060980 -0.395229 0.137123 0.458945 0.189112 -0.366293 0.147459 -0.077451 0.516423 -0.391983 -0.240617 -0.051283 0.281593 0.127369 -0.259976 -0.384757 0.323617
đâu -0.041664 -0.001650 0.693221 0.815280 0.162416 0.218204 -0.537339 0.395194 0.781008 -0.153540 -0.000983 -0.022411 0.192668 -0.483753 -0.032739 -0.155467 0.274445 0.221466 0.179990 -0.574746 0.257286 -0.020360 0.415315 0.090956 0.590425 0.314461 -0.285492 0.254349 -0.562883 -0.164618 -0.197427 -0.642454 -0.010161 -0.290878 0.320885 -0.279470 0.185687 -0.124396 -0.063803 -0.222770 -0.358698 0.228301 -0.289423 -0.131236 -0.243816 -0.572693 0.089385 0.432623 -0.040279 -0.096668 0.039590 0.502267 0.104621 -0.726163 -0.561830 -0.354313 -0.158081 -0.183211 0.145711 -0.324047 0.513966 0.411235 -0.243055 -0.016090 0.245892 0.058334 0.145152 -0.588744 0.126904 0.018232 0.361918 0.507373 0.074570 0.195578 0.174494 -0.265712 0.473580 -0.033872 0.317755 -0.000078 0.156572 -0.153068 -0.563643 0.097781 -0.003112 0.332563 0.228120 0.203511 -0.313118 -0.059315 -0.009094 0.221873 -0.308184 0.451789 0.193379 -0.265319 0.013494 0.228560 0.576886 -0.437182 -0.079637 -0.094515 -0.285912 -0.075390 -0.173282 0.093049 -0.018495 -0.357269 -0.067386 -0.230313 0.310117 -0.421813 0.464473 -0.281658 -0.035386 0.476483 -0.406477 -0.028818 -0.141256 0.495360 -0.133810 0.264628 0.459738 -0.144418 -0.127974 0.061516 0.023839 0.366035 0.442406 0.439307 0.381402 0.016204 0.427940 -0.698752 -0.111989 0.053365 -0.552547 -0.403354 0.423396 0.822816 -0.001387 0.171738 0.060687 -0.029180 -0.294066 -0.039606 -0.174765 0.243313 -0.336759 0.357429 -0.119931 -0.425817 -0.379420 -0.336587 0.020065 0.114222 -0.247925 -0.387467 -0.024636 0.137423 -0.290216 -0.017437 0.166662 0.131230 0.286034 0.112511 0.226085 0.339184 0.122733 0.526409 -0.162751 -0.219153 -0.497480 0.006909 0.409727 0.070539 -0.400873 -0.202319 -0.074649 0.038569 0.235762 0.671525 0.256542 0.157568 -0.185397 0.219924 0.097059 0.057183 0.082911 -0.017463 -0.325135 0.107141 0.006410 0.203128 -0.152599 0.093814 -0.033829 -0.498258 -0.210016 -0.135943 -0.388878 0.021885 0.028951 0.180326 0.498188 0.266009 -0.519906 0.330572 0.281807 0.176162 -0.217337 -0.012306 -0.185381 -0.172253 0.313015 0.434237 -0.124937 -0.375136 0.227790 -0.417495 -0.031229 0.013888 -0.044923 0.230459 -0.374294 0.542696 0.133249 -0.374602 0.073847 0.149486 0.326743 0.446609 0.227183 0.552553 -0.358580 0.067164 0.363162 0.262175 0.597640 -0.474994 -0.182928 -0.205063 0.200008 0.130287 -0.206088 0.101312 -0.339250 0.141097 0.035904 0.184816 -0.421168 0.110690 0.077568 0.134892 -0.340544 0.443625 -0.270545 -0.597543 0.291241 0.052198 -0.188193 0.358395 0.427985 -0.069000 0.034152 -0.151054 0.109914 0.073774 0.278510 -0.376050 -0.432801 -0.319768 -0.438522 0.048799 0.379643 -0.094816 0.170827 -0.200557 0.391327 -0.130815 -0.173231 0.018758 -0.629086 0.187330 0.069921 -0.434287 0.073742 0.089005 -0.483849 0.337766 -0.407002 0.437732 0.380501 -0.426365 0.013625 -0.085876 -0.722675 -0.271858 0.529134 -0.156228
? 0.111449 -0.083420 -0.088031 -0.024059 -0.377492 0.535241 -0.146333 0.201699 -0.395725 0.323421 -0.420906 0.469161 0.195219 -0.187842 0.252178 0.070178 -0.175032 0.286161 -0.133461 -0.410513 0.183240 0.306397 -0.145878 0.508754 -0.195687 0.151577 0.124247 -0.392802 -0.040860 0.281536 -0.507703 -0.390340 -0.101440 -0.369102 -0.153717 0.229871 -0.271341 0.496205 0.014212 0.055569 -0.016237 -0.050087 0.022195 0.146611 0.013704 0.183877 0.185535 -0.103303 0.402920 0.276500 0.506526 -0.298251 -0.394347 -0.037210 0.172698 0.362737 -0.488500 -0.204928 -0.356756 0.265831 -0.582758 -0.171846 0.032135 0.355450 -0.310056 0.207568 -0.028930 0.217868 -0.078288 0.592576 -0.185780 -0.043687 -0.357056 0.167306 0.055208 0.482075 0.179123 0.120063 -0.274558 0.108717 -0.145394 0.050843 0.181857 -0.014285 0.203222 0.031846 0.723143 0.728824 0.127420 -0.273020 0.246454 -0.370308 0.029623 -0.216068 0.309456 0.457938 0.514259 -0.012480 -0.006947 0.064549 0.437066 0.103365 0.355834 0.293620 -0.051251 0.182018 -0.207254 -0.210224 -0.385908 -0.072274 -0.110267 0.412061 0.260509 0.261242 -0.189074 0.338906 0.211104 -0.009580 -0.343162 -0.030464 0.445441 0.464341 0.003158 0.248939 0.246139 -0.148852 -0.161500 -0.207220 -0.384621 -0.109855 -0.353128 0.128852 0.669650 0.215576 -0.018472 0.177743 -0.148484 0.463156 -0.144901 -0.037112 -0.404330 -0.670983 -0.452328 0.011414 -0.903951 0.074749 0.087820 -0.508414 0.381596 -0.121055 0.502038 -0.035818 0.095683 -0.373865 -0.340483 -0.284446 0.550502 0.184149 -0.329911 0.060753 0.409635 -0.110876 -0.028257 -0.388145 0.477292 0.266835 -0.271673 -0.042951 -0.079744 0.248463 0.025395 -0.620087 0.331684 0.131724 -0.078328 -0.215271 0.226494 -0.335295 -0.150280 -0.651108 -0.227756 0.173462 -0.470542 0.136587 -0.191439 -0.535983 -0.158762 -0.047651 -0.048855 -0.170198 -0.060158 0.411483 0.621903 0.517529 -0.483014 -0.004714 0.306478 0.180527 0.548073 0.334012 -0.022992 -0.259261 -0.113092 0.008975 -0.047766 0.306958 -0.045008 -0.559365 0.129425 0.312830 -0.251224 0.204038 0.348148 -0.429530 0.090615 -0.403149 0.214604 0.408676 -0.570750 0.242389 -0.372425 -0.341190 -0.008965 -0.365873 0.099106 -0.300841 0.044292 -0.073328 0.006732 -0.674157 0.559326 -0.242401 0.267896 0.081398 0.283255 -0.224244 -0.413816 0.456333 0.145081 0.066041 0.079788 0.473825 -0.345253 -0.352387 -0.200407 -0.282050 -0.037264 0.295477 0.273994 0.077879 0.113783 -0.234169 0.288194 -0.006338 0.155985 -0.352526 0.197229 0.588493 -0.329867 -0.239441 0.674823 -0.266388 0.338053 -0.250187 -0.086471 0.011907 0.125931 0.339520 0.282029 0.272606 -0.016962 -0.272129 0.326449 0.325828 -0.120084 0.015102 -0.100628 -0.518689 -0.139116 -0.850106 -0.079541 -0.336631 -0.021659 0.360154 -0.069237 -0.138562 0.194407 0.318267 0.018265 0.113670 0.161615 0.274699 0.316170 -0.146024 0.341312 -0.091924 -0.035069 -0.358994 -0.396995 -0.037867
Sandra 0.192428 -0.084492 -0.057946 0.344379 0.173745 0.344731 -0.278115 -0.160906 0.069818 -0.013396 -0.157702 0.046974 -0.026288 0.075460 -0.154709 0.047606 -0.124885 0.314042 -0.030320 -0.078983 0.101365 0.169863 -0.029630 -0.049945 0.028452 -0.023406 0.235528 -0.002610 -0.204661 0.053187 0.183536 -0.023241 0.038496 -0.134992 0.101094 0.156106 0.185889 -0.039565 0.272967 -0.145899 -0.063825 -0.167692 0.157321 0.204988 0.049850 0.155794 0.170292 -0.038634 -0.166435 -0.236079 -0.070061 -0.164347 0.262079 -0.217712 -0.043092 0.163986 -0.301809 -0.268465 0.048123 -0.122250 0.005899 -0.000038 0.047900 0.250743 -0.345791 -0.100409 -0.108677 0.221386 -0.183804 0.008882 0.111525 -0.210190 -0.082246 0.490110 0.082708 0.218591 -0.003125 -0.355475 0.039077 0.421999 -0.279726 -0.162748 -0.064123 -0.084442 -0.030164 0.083248 -0.064362 0.016163 0.101001 0.079752 0.273041 -0.156455 -0.101308 0.122875 -0.069736 0.128722 0.138973 -0.041984 -0.170004 0.069670 -0.129646 -0.093734 -0.054797 0.207203 -0.297582 -0.073390 0.299347 -0.030310 0.047965 0.029467 0.247448 -0.225585 0.392111 -0.143447 -0.147785 0.238662 0.046793 0.029487 -0.070807 -0.324986 -0.265944 0.026295 0.189530 0.048513 -0.046697 0.034327 0.400941 0.267660 0.142758 0.117428 0.104128 0.241166 0.140997 -0.025544 0.016970 -0.240082 0.205240 0.151205 -0.025489 0.467343 -0.399782 -0.197620 0.024454 0.494116 -0.152756 -0.130496 0.358348 -0.172312 0.066883 0.495507 0.271314 0.069982 0.223002 -0.149188 0.177885 -0.005159 -0.120057 -0.157850 -0.054881 0.358114 0.303097 0.339418 -0.070958 0.234070 0.059907 -0.006366 -0.045461 0.099321 0.060724 -0.174721 0.101141 -0.094413 0.062297 -0.035393 -0.137310 0.260735 0.170570 -0.015960 -0.072996 -0.000418 -0.110080 0.122988 0.083029 0.084942 -0.228911 -0.341866 0.182088 0.017135 0.276262 0.165215 0.309540 0.049610 0.357192 0.199650 -0.008574 -0.081416 0.015552 0.147693 0.126234 0.085674 -0.017317 -0.044782 0.028465 -0.047513 -0.005843 0.264112 -0.140157 -0.219357 0.075716 -0.042185 0.076102 0.135551 0.076124 0.123016 -0.124869 -0.221066 -0.116788 -0.314835 -0.053015 -0.071282 -0.054972 0.324769 -0.222482 -0.136259 -0.259246 -0.187942 0.220243 0.121499 0.020956 -0.003729 0.329271 -0.003271 0.197334 0.263292 0.154167 0.121827 0.024186 0.034287 0.160421 -0.010971 0.065431 -0.050701 0.111499 0.045492 -0.028014 -0.133224 -0.095614 0.197477 0.070400 -0.126281 -0.203696 -0.179732 0.275045 -0.045281 0.057971 0.010128 0.030926 -0.191197 0.199468 -0.192844 0.079521 0.130621 0.183197 0.155183 0.201235 0.099436 -0.173904 -0.100436 0.196820 -0.132581 0.073265 -0.552102 0.258000 -0.081126 -0.059299 -0.581157 0.074481 -0.061078 0.153229 -0.080988 -0.140941 0.272262 -0.140775 0.132206 -0.351097 0.144522 0.399812 0.236981 -0.438935 0.272392 0.059423 -0.069932 0.169378 -0.087259 -0.215732 -0.085391 -0.066530 -0.092293 -0.081733 -0.199997
Daniel 0.322192 -0.025668 0.056657 0.214311 0.197491 0.354678 -0.276371 0.034157 -0.143735 0.141455 -0.121525 0.071833 -0.059533 -0.163462 -0.112717 0.032204 -0.119322 0.258212 0.038219 0.293924 0.148410 0.219772 0.103585 -0.239900 0.011586 0.087013 0.175502 -0.126582 -0.312934 -0.032728 0.225732 -0.120800 0.001576 -0.246311 0.140771 0.241276 0.168895 -0.150677 0.344676 0.022017 0.131552 0.044996 -0.006625 -0.051162 -0.057593 -0.068639 0.173802 0.077952 -0.206224 -0.053054 0.101370 0.024318 0.544699 -0.298470 0.141561 0.264887 -0.095360 -0.291133 0.032565 -0.300986 -0.036278 -0.062798 0.194545 0.173563 -0.423597 -0.068485 -0.077912 0.159529 -0.020816 0.040928 0.102514 -0.439014 -0.266250 0.494308 0.029636 0.008106 0.222749 -0.354767 0.002391 0.256381 -0.252912 -0.030254 -0.267197 -0.024064 0.269339 0.233101 0.009958 0.139152 0.178365 0.088183 0.266646 -0.393414 -0.025007 -0.023367 -0.061691 0.151899 0.014242 -0.067630 -0.149521 0.000361 -0.149901 -0.189087 -0.118853 0.170509 -0.167243 0.224864 0.272003 0.014966 -0.004590 0.052888 0.045761 -0.292859 0.172168 0.036360 -0.260684 0.130198 -0.008795 0.130039 -0.392871 -0.050508 -0.307383 -0.078141 0.030020 0.085106 -0.165841 0.107070 0.270066 0.097739 0.041797 0.081933 0.160654 -0.052694 0.074512 0.077581 -0.092246 -0.190477 0.028074 -0.022092 -0.194461 0.433514 -0.191787 0.084662 0.073893 0.288827 -0.061308 -0.260745 0.403658 -0.084484 0.132685 0.451640 0.167051 0.116178 0.202575 0.083068 0.181861 -0.312612 -0.220019 -0.083314 0.078705 0.281444 0.341499 0.221533 -0.099922 0.090180 -0.101755 -0.059861 -0.176237 0.213632 0.212566 0.115049 -0.031332 -0.262446 -0.107718 0.274344 -0.170985 -0.021057 -0.028183 0.039830 -0.130477 0.060559 -0.227633 0.058591 -0.046620 0.295950 -0.067101 -0.139022 0.250706 0.164378 0.161935 -0.107315 0.033890 0.156534 0.229340 0.199870 -0.085760 0.108168 -0.087337 0.109464 0.219876 -0.097272 0.090439 -0.058757 -0.048701 -0.214171 -0.149688 0.101302 -0.223813 -0.323976 0.261438 -0.205712 0.066286 -0.005810 -0.163364 -0.082610 -0.019550 -0.397068 -0.353227 -0.187002 -0.051756 0.065042 -0.063188 0.137055 -0.288982 -0.359035 -0.133836 -0.210323 0.007070 0.062359 -0.146056 -0.200436 0.042060 0.051723 0.117950 0.503123 0.224043 0.085573 -0.270214 -0.110234 0.118619 -0.159497 0.094850 -0.063617 -0.194429 0.170675 -0.054164 -0.005977 -0.083084 -0.144640 -0.181764 -0.169892 -0.149325 -0.064106 0.070908 -0.333342 0.074482 0.059221 -0.293018 -0.165674 0.246989 0.008808 0.119828 -0.022639 0.122678 -0.184048 0.014926 0.115970 -0.646907 -0.069198 0.320014 -0.297637 -0.007212 -0.614737 0.124652 -0.118661 0.068028 -0.189549 -0.222189 -0.009052 0.228420 -0.138991 0.082000 0.341764 -0.066189 0.358008 -0.298236 0.322151 0.205748 0.218610 -0.212020 0.282167 0.113754 -0.295597 0.346430 -0.112573 -0.181259 -0.074416 -0.026743 -0.090661 0.137118 -0.186991
Mary 0.220904 -0.079195 -0.154001 0.302038 0.100521 0.391068 -0.277788 -0.091914 0.107355 -0.075428 -0.192798 0.066272 0.102819 -0.029360 -0.027743 0.031545 -0.131068 0.356868 -0.005521 -0.049718 0.157926 0.227202 0.028174 -0.000611 -0.034495 -0.055339 0.259857 0.024561 -0.220236 0.168770 0.024429 -0.028443 -0.087262 -0.316121 0.097284 0.119509 0.217128 0.025423 0.302749 -0.202116 -0.112903 -0.095350 0.036517 0.146566 0.069787 -0.020594 0.271982 0.005966 -0.205529 -0.194249 0.040782 -0.064095 0.121620 -0.290184 -0.084808 0.142466 -0.357331 -0.299161 -0.024326 -0.163750 0.074947 -0.125117 0.016148 0.225077 -0.276734 -0.096412 -0.120301 0.198638 -0.224166 0.074820 0.119482 -0.176416 -0.036694 0.560900 0.076520 0.097564 0.067920 -0.357872 0.021941 0.390206 -0.295022 -0.187643 0.058730 -0.097892 -0.027473 0.136187 -0.017474 0.003561 -0.022332 0.005321 0.355577 -0.112002 -0.115107 0.126927 -0.115175 0.235086 0.201369 -0.047939 -0.137514 -0.009075 -0.167002 -0.016881 -0.029651 0.198238 -0.396059 -0.087355 0.339167 0.086928 0.069230 -0.031999 0.152201 -0.205595 0.352110 -0.144592 -0.144257 0.270774 -0.036041 -0.039741 -0.114494 -0.271156 -0.177620 -0.017046 0.217951 0.064749 -0.117995 0.038227 0.430599 0.299455 0.115292 0.220554 0.026942 0.139677 0.104569 -0.117344 -0.045777 -0.172320 0.140770 0.129146 -0.050515 0.466558 -0.390056 -0.208116 0.130245 0.403631 -0.128477 -0.161655 0.249290 -0.131068 0.182088 0.385165 0.256088 -0.001705 0.102231 -0.197922 0.155161 0.094886 -0.008862 -0.274366 -0.128146 0.293435 0.362640 0.356896 -0.119164 0.277884 0.201965 0.034369 0.014977 0.049652 0.118424 -0.185973 0.051178 -0.104619 0.084042 -0.074754 -0.109678 0.216364 0.139198 -0.105731 -0.118831 0.022487 -0.148277 0.148720 0.063125 0.151073 -0.118591 -0.320654 0.144978 -0.078132 0.193707 0.128105 0.193960 -0.035035 0.446189 0.175593 0.067906 -0.070777 0.123913 0.110150 0.091299 0.060909 0.023055 -0.074187 -0.073372 -0.049912 0.090087 0.316934 -0.087761 -0.303699 0.142623 0.056156 0.084742 0.179459 -0.012039 -0.012961 -0.113486 -0.287699 -0.066640 -0.247783 -0.120715 -0.071141 -0.050750 0.218210 -0.227736 -0.106019 -0.399549 -0.144553 0.135729 0.175957 0.049380 -0.007356 0.438265 -0.036315 0.358719 0.308198 0.237426 0.065518 -0.027408 0.081510 0.252494 -0.114194 0.067930 -0.016685 0.085961 0.085431 0.010922 -0.188027 -0.118373 0.131761 0.110425 -0.090876 -0.270466 -0.079129 0.322863 -0.146214 0.059686 -0.010347 -0.006563 -0.100788 0.217475 -0.203423 0.232905 0.101045 0.314025 0.024364 0.184285 0.133501 -0.130949 -0.176463 0.331790 -0.149092 0.069441 -0.502729 0.255696 -0.187921 -0.038497 -0.553272 0.108824 -0.086967 0.095894 -0.022738 -0.234110 0.207493 -0.167408 0.140554 -0.415739 0.041685 0.330021 0.096511 -0.522131 0.350381 0.095815 -0.100888 0.201361 -0.160813 -0.188312 -0.134131 -0.113724 -0.141883 -0.098156 -0.236639
phòng 0.152611 0.380350 -0.175614 -0.162108 -0.432460 0.104690 -0.562595 -0.087584 -0.355871 -0.215465 0.018305 -0.055579 0.026831 0.121818 0.323987 -0.549454 0.310741 -0.600593 0.336540 -0.474226 -0.174899 0.046722 -0.158076 -0.197341 0.228279 -0.269757 -0.110444 -0.543960 0.065023 -0.615983 0.600691 -0.416395 -0.021965 -0.236003 -0.420105 -0.109092 0.348690 0.196941 0.291642 -0.104894 -0.115172 -0.236878 -0.349780 -0.269133 -0.084432 0.255924 0.205376 0.168875 -0.068357 0.044644 -0.310515 0.016149 -0.364224 -0.540710 -0.304469 -0.007793 0.008607 -0.336292 -0.142801 0.164395 0.199680 -0.353840 -0.155068 0.863998 0.389505 -0.469959 -0.238965 0.173322 -0.616618 0.176200 -0.446027 0.154898 0.350420 0.133938 -0.322940 0.139152 0.210239 0.381678 0.092808 0.368106 -0.480233 -0.198012 0.050497 -0.163923 -0.169401 -0.109584 0.001359 0.254583 0.234337 -0.253936 0.553778 0.656340 0.265125 0.126427 0.176686 0.452646 0.385098 0.075546 0.016255 0.331125 -0.178385 0.195101 0.416159 0.457953 -0.336429 0.244868 0.268677 0.512657 -0.540390 0.197841 0.718623 0.059921 0.426555 0.264366 0.305241 0.404526 -0.533752 -0.074665 -0.175205 -0.275125 0.376088 0.475277 0.078078 0.166527 0.064706 -0.326321 -0.108334 0.423910 0.471690 0.387511 -0.647152 0.426214 0.378106 -0.460040 -0.108489 0.018526 -0.494007 0.118643 0.114583 -0.410591 0.118865 -0.407168 -0.431878 -0.095295 0.222856 -0.525110 0.418193 0.174458 0.284440 -0.495609 -0.118716 0.001714 -0.071578 -0.350477 -0.074188 0.480012 0.307282 -0.236310 0.687946 0.388272 0.442968 0.841199 -0.598732 0.046418 0.320119 0.174861 -0.166152 0.124124 0.487012 0.183968 0.174181 0.306754 -0.054179 -0.293212 0.467543 -0.136934 0.256891 0.240628 -0.172132 0.141430 -0.077384 0.379013 0.027101 -0.289445 0.202220 0.015053 0.424861 -0.017602 0.202115 -0.512583 -0.064397 0.363397 -0.013483 0.397131 -0.158785 -0.249310 0.009393 -0.287799 -0.104393 -0.274107 0.162604 0.488540 -0.399819 -0.166471 0.507265 0.554766 0.196995 -0.148541 -0.274946 -0.798330 0.190101 -0.395333 0.538311 0.354136 -0.131624 -0.163736 -0.010089 0.286611 -0.084749 0.361539 0.295631 0.257137 -0.043596 -0.052574 0.301804 -0.457577 0.089038 -0.394283 -0.102168 -0.345455 0.390011 0.068894 0.434606 0.300064 0.362534 -0.138792 -0.278324 -0.033562 -0.390827 -0.223735 -0.081418 0.091938 0.189742 -0.580134 0.469670 0.419643 -0.086360 0.167519 0.089250 0.905807 -0.363120 -0.224389 -0.141051 0.098848 0.189974 0.241766 -0.174182 0.037418 -0.138644 0.150054 -0.065731 0.337022 -0.262528 0.273208 -0.076734 -0.197515 0.054366 0.056282 0.689785 0.181384 0.652635 0.177118 0.055642 -0.251632 -0.185660 -0.382777 0.794938 -0.443443 0.163632 0.185413 -0.337199 -0.179870 -0.529737 -0.208678 -0.099466 -0.425994 0.698260 -0.232805 -0.547591 0.376956 0.510002 -0.423965 0.224245 -0.867079 0.233779 -0.547747 -0.535076 -0.250261 0.364985 0.105103
John 0.173835 -0.080220 -0.005763 0.346722 0.179771 0.356021 -0.160520 -0.098255 0.060419 0.003166 -0.199276 0.134486 0.020229 -0.049518 -0.046509 0.180311 -0.162102 0.258624 0.184642 0.025750 0.177593 0.227359 -0.026175 -0.053860 0.027773 -0.071968 0.403751 -0.042297 -0.051675 -0.012046 0.117333 0.028935 -0.114383 -0.324628 0.187419 0.191228 0.149760 -0.106360 0.079789 -0.085372 -0.125205 -0.143438 0.057452 0.111528 0.011840 -0.108095 0.359187 0.097497 -0.138924 -0.142000 -0.067464 0.028125 0.151998 -0.236140 -0.007609 0.101597 -0.322035 -0.372327 0.102844 -0.210445 -0.014417 -0.190273 0.054510 0.212818 -0.469499 -0.034030 -0.183779 0.262423 -0.204278 -0.014335 0.237403 -0.241916 -0.163838 0.416228 -0.054832 0.074900 0.051635 -0.412083 -0.125978 0.338373 -0.237781 -0.034943 0.059948 -0.144615 0.097170 0.313002 0.089086 0.051145 0.190756 -0.104034 0.353509 -0.407362 -0.040194 -0.061924 0.064686 0.110087 -0.038885 -0.034606 -0.101702 0.016971 -0.207147 -0.073826 -0.074404 0.099293 -0.348337 -0.129819 0.427684 0.133013 -0.020781 -0.062797 0.157515 -0.245826 0.184628 -0.163008 -0.142338 0.112271 0.094637 -0.047642 -0.119473 -0.309587 -0.292910 0.042321 0.089671 0.021436 0.042561 0.111785 0.456300 0.233836 0.040524 0.182593 0.062487 0.196856 0.119546 -0.045164 -0.059872 -0.248506 0.247654 0.168781 -0.050436 0.414175 -0.271393 -0.044303 0.083689 0.419493 -0.070994 -0.272833 0.333986 -0.198352 0.161608 0.321983 0.246699 0.031857 0.098467 -0.102905 0.143949 -0.173818 -0.179903 -0.295116 -0.126711 0.380387 0.222062 0.309183 0.027787 0.162453 0.243522 -0.039276 -0.101869 0.097399 0.113873 -0.082479 0.133013 -0.228061 -0.021612 0.141054 -0.013283 0.187352 0.092096 -0.208537 -0.152268 -0.105979 -0.210084 0.093685 0.042741 0.138884 0.001417 -0.246378 0.021425 -0.055082 0.235848 0.146768 0.172071 0.112221 0.332253 0.093294 0.078999 -0.017269 0.045490 0.093312 0.032711 -0.023061 0.043682 -0.139853 -0.116115 -0.063774 -0.007061 0.214537 -0.011174 -0.286553 0.281437 -0.046206 -0.004801 0.021375 -0.095210 0.113082 -0.177469 -0.411874 -0.035622 -0.171014 -0.103361 -0.008830 0.079893 0.283265 -0.235754 -0.099435 -0.222587 -0.091319 0.114920 0.284583 -0.126969 -0.031601 0.390966 -0.036251 0.195417 0.338200 0.199269 0.085143 -0.209995 -0.050595 0.265853 -0.058688 0.015710 0.100986 -0.154710 0.150082 -0.063336 -0.254378 -0.133533 -0.020524 0.150748 -0.079834 -0.074934 -0.001455 0.280612 -0.321613 0.119630 -0.092944 -0.024299 -0.014261 0.160634 -0.131806 0.126665 -0.048508 0.181889 0.030408 0.226043 0.122094 -0.383862 -0.180102 0.345602 -0.135205 0.066422 -0.484190 0.202332 -0.191862 0.031405 -0.356762 -0.081517 0.076724 0.181415 -0.151777 -0.088412 0.186008 -0.092607 0.240809 -0.379102 0.176064 0.248906 0.237211 -0.324070 0.334761 0.072285 -0.070414 0.206065 -0.166988 -0.223773 0.097832 -0.047320 -0.156221 -0.165098 -0.178615
ngủ -0.027215 -0.340292 0.171997 -0.043130 0.239115 -0.076787 -0.080167 -0.068877 -0.037379 0.118001 -0.619837 0.086855 0.430137 -0.545838 0.154117 0.599375 0.207787 0.270434 0.041580 -0.242039 0.336688 0.387366 0.049425 -0.159483 -0.389958 -0.107874 0.510963 -0.147918 -0.192894 0.006415 0.076296 -0.084760 -0.356605 -0.170217 -0.011437 0.140784 -0.175347 0.599600 -0.188280 -0.386716 0.484508 0.153857 -0.323608 -0.078134 -0.240057 -0.202230 0.556184 0.263248 -0.061360 0.080677 0.040780 -0.056607 -0.066217 -0.153544 -0.184385 0.247634 0.196871 0.042079 -0.113984 -0.378039 -0.201759 0.180241 -0.802330 -0.284245 -0.187788 -0.467234 -0.633788 -0.191062 0.386766 -0.455488 0.377008 0.003559 -0.037079 -0.300251 -0.215939 0.141647 0.028417 -0.153258 -0.280412 -0.004350 0.241289 -0.013281 0.291934 0.001995 -0.264296 0.265562 0.108731 -0.215863 0.242686 0.058147 -0.302646 0.084731 -0.113293 -0.312487 -0.041958 0.310357 -0.060982 0.381620 -0.221193 -0.213840 -0.160656 0.073511 -0.139013 0.165230 -0.396495 0.144115 -0.481688 0.009362 -0.032541 -0.059695 -0.003146 -0.310985 -0.114505 -0.136189 0.186404 -0.152569 0.244525 0.166399 -0.057976 0.141585 -0.129519 0.003322 0.070629 0.155362 0.151208 0.301837 0.074757 0.059462 -0.313209 -0.041319 -0.174132 -0.063200 -0.255481 0.237164 -0.370290 -0.417374 0.105736 -0.125115 0.187045 -0.038023 -0.212979 0.353359 0.478292 0.028532 0.210455 0.310949 0.014989 0.323631 0.365841 0.023132 0.074206 0.123122 0.181927 -0.202431 0.031130 0.456068 -0.065104 -0.921480 -0.275170 -0.341881 -0.093146 -0.131743 -0.172206 -0.357570 0.396050 -0.268072 -0.148054 -0.426877 -0.067070 0.040666 -0.146651 0.039898 0.424566 -0.211969 0.076112 0.241133 -0.216043 0.013509 0.041693 -0.386673 -0.243462 -0.268389 0.345452 0.010916 0.024000 0.169566 0.105420 0.033126 -0.344097 -0.035569 0.198832 -0.032490 -0.100213 -0.476074 -0.123057 0.206120 0.212082 0.005411 0.273485 0.277728 0.132458 -0.071939 -0.230107 -0.007575 0.611274 -0.172372 -0.169067 0.210391 0.250161 -0.166811 -0.416105 -0.092709 -0.239174 -0.494941 -0.297063 -0.129745 0.164918 -0.172893 -0.343863 -0.250132 0.359509 0.008414 -0.314485 0.317651 -0.118360 -0.008226 -0.290288 0.330967 -0.016025 0.188727 -0.458139 0.187419 -0.013404 -0.224984 -0.360526 0.523644 -0.213220 0.070382 0.256955 0.042296 0.097777 0.392674 0.453395 -0.041991 -0.230301 0.169197 0.357500 -0.249704 -0.124838 -0.116560 0.259629 0.074676 -0.290330 0.021170 -0.080322 -0.083734 -0.223144 0.262828 0.336713 -0.052830 0.036783 -0.050829 0.132664 -0.431213 0.467993 0.170458 -0.043511 0.054179 0.249858 -0.016919 0.245431 0.119273 -0.512665 0.140674 0.396387 -0.420364 0.236179 0.134899 -0.408690 -0.005495 0.059219 0.189925 -0.408301 -0.075324 -0.098256 -0.725986 -0.685420 0.416133 0.377231 0.644232 -0.259380 -0.080500 -0.188983 -0.082825 -0.027218 0.170115 0.052562 0.289999 -0.386901 -0.076430
tắm 0.062803 -0.128132 0.007558 0.004444 0.158359 0.044290 -0.202571 -0.248117 -0.027570 0.116309 -0.765441 0.144828 0.402478 -0.706077 0.106533 0.544498 0.253308 0.389971 -0.104946 -0.281313 0.360420 0.502384 0.121986 -0.042435 -0.382057 0.063492 0.652158 -0.192814 -0.253909 0.063435 0.142048 0.068728 -0.298031 -0.165980 0.081615 0.119206 0.068154 0.617715 -0.213310 -0.432002 0.546279 0.243706 -0.274531 -0.170525 -0.186494 -0.172275 0.519128 0.132119 0.047009 0.200722 0.076972 -0.068508 0.101081 -0.017114 -0.177347 0.363762 0.258560 0.051629 -0.092696 -0.409596 -0.244249 0.199158 -0.751164 -0.300918 -0.185571 -0.426800 -0.650090 -0.195978 0.449691 -0.557843 0.200078 -0.095746 -0.271729 -0.188078 -0.104149 -0.001369 -0.154749 -0.167189 -0.311776 0.162932 0.196367 -0.069938 0.325337 0.007854 -0.370603 0.275918 0.127970 -0.170464 0.174105 0.260494 -0.210545 0.206702 -0.146393 -0.268500 -0.337406 0.437536 0.017582 0.447107 -0.170394 -0.275687 -0.222647 0.113832 -0.040071 0.086232 -0.364697 0.401017 -0.624129 -0.148640 0.017753 0.153263 0.239973 -0.154156 0.005147 -0.082457 0.213158 -0.033562 0.125368 0.204592 -0.122539 0.240862 0.111703 -0.119699 0.002106 0.203701 0.004968 0.516577 0.170658 0.124859 -0.268351 -0.141580 -0.155433 -0.078600 -0.288911 0.359081 -0.395737 -0.440174 0.087634 -0.085999 0.256060 -0.044790 -0.334034 0.213749 0.517166 -0.042654 0.259483 0.415962 -0.070844 0.380402 0.259287 -0.020849 0.035174 0.071885 0.168734 -0.342552 0.132831 0.473242 0.072078 -0.958698 -0.322103 -0.277794 -0.021651 -0.104888 -0.139373 -0.380915 0.331040 -0.211135 -0.179476 -0.354098 0.052937 0.093724 -0.230265 0.229869 0.313119 -0.323624 0.107957 0.256210 -0.269027 0.097453 0.175686 -0.297364 -0.200425 -0.198728 0.229723 0.043351 -0.120995 0.122959 -0.032389 0.090417 -0.468830 -0.118226 0.166449 0.112907 0.005801 -0.567315 -0.410170 0.360799 0.235536 0.030908 0.381768 0.094889 0.134813 -0.011473 -0.214130 -0.127398 0.660585 -0.246735 -0.326141 0.178574 0.163571 -0.142046 -0.353600 0.002345 -0.174500 -0.776718 -0.227968 -0.186847 0.220163 -0.283597 -0.259043 -0.453654 0.242330 -0.160663 -0.422035 0.200934 -0.028401 -0.154042 -0.221245 0.187612 0.096750 0.148854 -0.387147 0.144447 0.120296 -0.267784 -0.359925 0.456332 -0.339926 -0.128653 0.237546 0.010247 0.151530 0.283329 0.385709 -0.151221 -0.154086 0.172573 0.360582 -0.154945 -0.272846 0.029471 0.207377 -0.026576 -0.220630 0.010017 -0.031188 -0.088221 -0.266098 0.202656 0.323295 0.025312 0.099359 0.139306 0.167653 -0.342778 0.354418 0.049282 0.021095 0.050475 0.293774 0.137170 0.190572 0.005881 -0.578551 0.083387 0.280301 -0.536907 0.283825 0.086247 -0.374380 -0.115848 0.023233 0.166139 -0.499376 -0.037097 -0.167250 -0.942985 -0.651288 0.352264 0.378139 0.447743 -0.145846 -0.005723 -0.068503 -0.098983 0.095449 -0.053132 0.003888 0.319746 -0.323455 0.018847
vào -0.342479 0.563928 0.152438 0.349724 -0.776431 0.292620 0.286145 -0.513327 0.384824 -0.006061 -0.188580 -0.141211 -0.560380 -0.329966 0.407435 0.108689 0.499998 -0.238394 0.137301 -0.465820 0.554130 0.695231 0.070627 0.085164 0.383739 -0.255562 0.199963 -0.232976 0.178285 -0.568946 0.033167 0.459182 0.169160 0.227817 0.511393 0.049743 0.878213 -0.211931 -0.495854 0.659152 0.112029 -0.053118 -0.003019 -0.358163 0.008559 -0.559501 0.099120 0.150351 -0.437994 0.057986 -0.361441 0.798101 -0.226311 0.504465 -0.271159 -0.561567 0.444657 -0.183271 -0.049832 0.033126 0.178230 -0.145828 0.293382 -0.564872 0.275606 -0.299919 0.227973 -0.029685 -0.076195 -0.846493 0.681827 -0.269161 0.594157 0.154088 -0.016466 -0.347166 -0.563715 0.473158 -0.102427 -0.033918 0.044039 0.107364 -0.114828 -0.197103 -0.148026 0.710222 0.244461 0.104581 -0.008604 -0.256368 0.333869 0.151497 0.579523 -0.638165 0.116537 0.255900 -0.064228 0.261978 -0.040612 -0.584825 0.074848 0.687307 0.414938 0.021123 -0.129649 0.217194 0.368802 0.558929 -0.088914 -0.337783 0.613201 0.155411 0.102443 -0.114026 0.109281 0.391933 -0.141722 -0.314026 -0.015659 0.773447 -0.246795 0.530358 0.115430 -0.202638 0.125307 -0.152086 0.203242 1.019800 -0.309786 -0.482048 0.032572 -0.244807 0.213873 0.145669 -0.003108 0.192662 -0.246738 0.344567 -0.169078 0.038609 0.027813 0.003462 0.336498 -0.119846 0.346081 0.601931 -0.228696 0.020133 0.130816 -0.024306 -0.097016 -0.332429 -0.528893 -0.399388 -0.320520 -0.367504 -0.099336 0.109249 -0.407162 -0.105196 -0.333390 -0.528360 0.268810 0.154309 0.425983 0.416623 0.141432 0.379864 0.303996 0.135496 0.314489 0.115641 -0.050416 0.019117 -0.330705 0.544308 0.250963 -0.652476 0.065123 -0.218860 0.085345 0.472923 -0.028986 0.203921 0.130528 0.050250 0.025700 -0.336953 -0.035133 -0.187528 0.549447 0.477087 0.192124 -0.002799 -0.322276 0.114550 0.093983 0.334287 -0.101549 -0.274141 -0.192254 -0.109448 -0.348036 -0.074860 0.422630 0.115703 0.039737 -0.228349 -0.070029 0.278101 -0.662954 -0.359545 -0.386088 -0.302935 0.416470 -0.413908 -0.248579 0.648144 -0.188494 -0.271418 0.062686 -0.330234 0.315552 -0.285140 0.583178 -0.039925 0.335492 -0.608680 -0.267147 -0.160419 -0.081152 -0.760138 0.494425 -0.081914 -0.281298 -0.445441 -0.382307 -0.691967 0.703217 -0.459994 0.443395 -0.004042 -0.146695 0.333300 0.243173 -0.191449 -0.198845 0.077802 0.175363 0.763731 0.385350 -0.471807 0.379903 -0.281323 0.107660 -0.174899 0.243288 -0.094718 0.501040 0.110410 0.050655 -0.229106 0.033231 0.197971 -0.159175 0.141039 -0.194258 0.193751 0.264211 0.525793 0.428727 -0.134083 -0.066486 -0.333337 0.317275 0.343939 -0.326110 0.111422 0.185831 0.267085 0.173708 0.042552 -0.612612 0.355787 0.490167 -0.344567 -0.004553 -0.009477 -0.005227 0.465004 -0.102265 0.270075 -0.155432 -0.463907 0.658852 -0.465899 -0.684204 -0.945849 -0.163436 0.172049
đã -0.124408 -0.084296 -0.431243 -0.029657 -0.040070 -0.045233 -0.171931 -0.153132 -0.119070 -0.180919 0.171201 0.308314 0.283961 -0.061560 0.076440 0.234928 0.215790 0.260134 -0.029734 0.144407 -0.472284 -0.332416 -0.071805 -0.085788 0.214278 -0.153447 0.259574 -0.283072 0.084029 0.211089 -0.456783 0.266622 -0.152155 -0.392012 0.093732 -0.533998 0.243993 -0.057205 -0.687765 -0.117562 -0.408061 0.001440 0.030373 0.084677 0.321920 0.215099 0.368016 -0.074492 0.266644 0.135156 0.212999 -0.333583 -0.266083 -0.112180 0.102429 0.090780 -0.235558 -0.235821 -0.143489 0.165727 0.168219 -0.083542 0.241303 0.013373 0.086200 0.313696 -0.416937 0.069995 -0.060103 0.164480 -0.186431 0.228275 -0.519659 -0.066429 0.067833 -0.132405 -0.231287 0.016000 -0.438313 0.270093 0.098147 -0.199595 0.104611 -0.196679 -0.030570 0.233310 0.314375 0.059853 -0.435937 -0.118971 0.037311 -0.440978 -0.431818 -0.092520 -0.236843 -0.269470 -0.094519 0.100759 0.036260 -0.026923 -0.312680 0.340033 -0.012248 -0.513248 0.141210 -0.187365 -0.355273 -0.258393 0.040960 -0.327167 0.058763 0.245177 0.158884 0.094003 0.211830 -0.532410 0.069467 -0.394847 0.119426 -0.207245 0.383334 0.010012 -0.294728 0.217566 -0.095942 0.182708 0.040131 -0.147326 0.062938 0.065207 0.281395 0.269140 0.116906 -0.231350 0.102689 -0.236734 0.234080 -0.180269 0.241977 0.073203 0.091371 -0.277152 -0.063139 -0.139218 -0.008767 -0.077478 -0.053919 0.221856 -0.146770 -0.389466 0.105715 -0.221181 -0.336203 -0.030653 0.286213 0.123473 0.374991 -0.163668 0.026542 0.337012 0.187085 0.420040 0.055292 -0.290969 -0.012017 0.001553 -0.095299 0.325788 -0.397304 0.461610 0.049783 -0.085817 -0.307181 -0.157238 0.478395 -0.332591 -0.049179 -0.096912 0.233773 0.056609 -0.020289 -0.000706 -0.160163 -0.147437 0.174340 0.191405 -0.676979 0.422456 -0.507111 -0.179034 -0.216434 -0.275050 -0.081466 -0.211630 -0.069055 0.105512 0.353446 -0.291336 -0.591118 -0.372216 -0.070601 -0.191478 0.022429 0.100240 -0.261605 0.188713 -0.020786 0.051377 0.163213 0.310980 -0.108282 0.455111 0.075475 -0.087646 -0.160423 0.127561 0.250236 -0.048568 0.182694 -0.063559 -0.013121 0.282595 -0.101753 0.186348 -0.005068 0.155220 -0.264298 0.138600 0.017316 -0.032454 0.427949 0.208732 0.034888 -0.077023 0.193057 0.037571 -0.317054 0.045383 0.283405 0.060208 -0.227846 0.645445 -0.406124 0.097602 0.159791 -0.147021 -0.519131 0.044897 0.532741 0.309303 -0.417787 0.600232 0.172183 -0.213339 0.152435 -0.110722 -0.284475 0.203899 -0.364141 -0.232094 0.113394 0.048612 0.092882 0.059377 0.029326 -0.043657 -0.131447 -0.336300 0.231076 0.370715 -0.289985 0.571534 -0.136598 -0.075230 -0.026694 -0.141109 -0.179110 0.099434 0.192680 -0.049800 -0.114454 -0.447956 -0.190679 0.014032 -0.334352 0.133077 -0.217460 -0.282965 0.118386 -0.267357 0.143216 0.425332 0.389533 0.017517 -0.004262 0.763184 0.344857 -0.222441 -0.476747 0.317529
2 -0.135261 0.330849 -0.446018 -0.290903 -0.067596 -0.096574 0.301796 -0.187299 -0.030280 -0.684635 0.087742 0.656974 0.246553 -0.805665 -0.001005 -0.015960 0.100136 -0.262183 0.184669 -0.187291 -0.166403 0.081039 0.121160 0.613731 -0.204270 0.253409 -0.185233 0.016612 -0.022951 -0.036416 0.027260 -0.173097 0.388091 0.197359 -0.558073 0.055876 -0.231663 -0.361033 0.519707 -0.808054 0.038758 0.427909 -0.097527 -0.021430 0.361947 0.317772 0.238018 0.097377 0.352352 0.349728 -0.819626 -0.149244 0.115788 -0.460628 0.119407 -0.014862 -0.486422 0.203184 0.241558 0.035129 -0.273398 0.285323 -0.389453 0.534512 -0.516600 0.227266 -0.231809 0.054373 0.428838 -0.269743 -0.048624 0.114630 0.082215 -0.215701 -0.161757 0.318388 -0.486236 -0.228030 -0.086371 0.238143 0.127456 0.069757 0.096106 0.214847 -0.038443 -0.119556 0.113465 0.325069 0.268419 0.361284 0.076785 -0.009255 0.423560 0.534525 0.600766 -0.001932 0.002650 -0.097390 0.008988 -0.107055 -0.264415 -0.149895 0.235427 -0.606303 0.562799 -0.003620 -0.596606 -0.487687 -0.279954 0.405045 -0.343153 0.618082 -0.351198 -0.582652 0.734481 0.100089 0.027605 -0.277672 -0.012847 -0.450316 0.071599 -0.181343 0.209229 -0.312641 0.432053 -0.125980 -0.093180 -0.443337 0.030043 0.021666 -0.249239 -0.135073 0.392082 -0.343151 -0.524194 0.044814 -0.147680 0.279979 -0.053142 0.148245 0.886492 0.032657 -0.171523 -0.020583 0.204991 -0.492791 0.155641 -0.679558 0.074515 0.186735 -0.162138 0.182521 0.532234 -0.233940 -0.150798 -0.134773 -0.492280 0.107382 -0.206343 -0.382133 -0.119659 -0.073482 -0.175669 -0.483756 -0.155017 0.130996 0.091285 0.111868 -0.055367 0.306190 0.103874 -0.024997 0.223230 -0.172930 0.437128 -0.235396 0.171245 -0.336844 -0.153830 0.224558 0.282654 -0.158865 -0.600058 -0.340876 0.010545 0.558241 0.097597 0.235366 0.668562 0.626790 0.061795 0.457241 -0.106883 0.287997 -0.048693 0.272266 -0.815121 -0.016864 -0.012890 0.091953 -0.156637 -0.137148 0.217844 -0.019430 0.389063 -0.111490 0.303605 0.184572 0.260933 0.100337 0.328115 -0.509238 0.440267 0.183830 -0.439498 -0.259010 0.107494 -0.130932 -0.192141 -0.098796 -0.245847 -0.506802 0.204097 -0.640346 0.113124 0.523114 0.565444 0.325032 -0.197817 -0.078978 0.188581 -0.311424 0.184342 0.344875 0.014150 0.195102 -0.161402 0.141166 0.152499 -0.227160 0.078175 -0.286180 0.313567 -0.349533 -0.211803 0.087350 0.260770 0.025245 0.272480 -0.018973 0.080124 -0.225610 0.154145 -0.071874 0.008560 0.357514 -0.479408 0.495251 0.257597 -0.231042 0.032557 0.113793 -0.268059 0.405572 0.359736 -0.531855 0.546283 -0.216365 0.186597 -0.011798 -0.262365 0.260307 -0.498810 0.017851 0.089762 0.307601 0.044544 -0.230547 -0.175407 -0.539860 0.567846 0.106045 0.254247 0.201050 0.100930 -0.439321 0.534436 0.285857 -0.228239 -0.222556 -0.719016 0.115713 -0.500769 0.216124 -0.302012 0.174506 -0.251900 0.078585 0.423155 0.360427
vườn 0.771348 -0.344137 0.379874 1.022024 0.410310 -0.356402 0.028644 0.282445 -0.311136 0.115241 0.458579 -0.213277 -0.725925 0.216615 -0.068588 0.043144 0.507389 -0.143795 0.009321 -0.272201 0.058689 -0.174801 -0.291906 -0.385417 0.174030 -0.148728 -0.662516 -0.480899 -0.368920 -0.040445 0.147911 -0.476420 0.370457 -0.014139 -0.311992 0.261657 -0.430455 -0.036717 0.396044 0.184279 0.086892 0.338099 0.607992 0.798447 -0.233657 -0.013597 0.231152 0.408448 -0.106969 -0.070521 0.062730 -0.676756 0.104628 -0.126177 0.447879 0.073533 0.029260 0.249176 0.176468 0.434819 0.698474 0.078750 -0.296572 -0.272313 -0.391286 -0.650589 0.241475 -0.499463 -0.791655 0.078038 0.001040 0.212541 0.684898 0.070434 0.230211 0.315313 0.705321 0.343591 -0.460890 -0.003400 -0.396280 -0.397858 -0.169686 0.845398 0.645407 -0.610120 0.554921 0.028891 0.022927 -0.418445 -0.245961 0.150161 0.107694 0.280445 0.726699 -0.788784 -0.080356 0.548964 -0.176716 0.634489 0.303729 -0.649832 0.204755 0.321831 0.273328 -0.625735 -0.249709 -0.244638 -0.514199 0.334467 -0.785770 -0.063977 0.403197 0.495700 0.431309 -0.402543 0.523187 0.200242 -0.235343 -0.472838 -0.549816 0.541260 0.122581 -0.043069 0.364244 -0.530197 -0.137805 -0.255357 -0.836367 0.035143 -0.360165 -0.387621 0.394414 -0.112159 0.124669 -0.387074 0.453289 0.453960 -0.466028 0.344743 -0.073990 0.239974 -0.298742 -0.071799 -0.312854 0.085577 0.455290 0.094016 0.394941 0.765934 0.123709 0.063267 0.606301 0.820169 -0.059247 0.150865 -0.132645 0.566936 0.185598 -0.350505 -0.529265 -0.245820 0.161379 -0.034893 -0.412988 0.387542 -0.340925 -0.687973 0.067343 0.675934 0.135966 -0.365934 0.081420 0.415940 -0.481859 -0.319612 -0.175051 0.017636 0.244851 -0.285204 -0.385688 -0.322550 -0.073009 -0.194020 -0.541852 0.015042 0.251321 0.187103 0.101796 -0.030222 0.109235 -0.158258 -0.551454 0.554530 0.107951 -0.368186 -0.064817 -0.119779 0.643248 0.153864 0.042193 0.191828 -0.189095 0.750911 -0.717798 -0.161673 -0.694647 0.589058 0.178075 0.371757 -0.208251 -0.382025 0.236685 0.854571 0.419696 0.218582 -0.510632 -0.464817 0.127575 0.548091 0.134014 0.377232 0.331383 0.628190 0.388963 -0.180135 -0.770259 -0.287637 -0.427019 -0.145545 -0.292778 0.169664 -0.738228 0.122725 -0.314223 0.072347 -0.079147 0.708889 -0.176903 0.189397 -0.111200 0.179555 0.484984 0.823905 -0.583651 0.162704 0.060879 0.052956 -0.237834 -0.063244 -0.433100 -0.366167 -0.109886 0.332240 -0.268999 0.071098 -0.597781 -0.247079 0.163998 -0.335036 -0.418485 -0.391993 -0.475969 -0.091429 -0.229027 0.577173 -0.113534 0.715051 -0.543865 -0.261045 0.070123 -0.489078 -0.375314 0.900822 0.250881 0.420302 -0.581890 -0.692339 0.561930 0.306965 -0.059209 0.105252 0.346745 -0.237012 -0.014694 0.180186 0.409589 0.769383 -0.123212 0.175495 -0.003127 0.149306 -0.445029 0.605159 -0.068681 0.175046 -0.133401 0.412814 0.022360 0.219003
8 -0.664399 -0.225290 0.017385 0.187849 0.088151 0.021827 -0.653872 0.511472 -0.079109 0.166444 -0.164653 0.104586 0.343262 0.019911 -0.446600 0.053013 -0.156192 -0.493665 0.226072 0.238138 0.109635 -0.136294 -0.045686 -0.382530 -0.166715 0.342085 -0.304618 -0.091872 -0.100412 -0.002608 -0.234552 -0.559777 -0.026420 -0.063651 -0.289431 0.059080 -0.122908 0.061951 0.106422 -0.032633 -0.615596 -0.051671 0.013060 -0.155004 -0.484239 -0.284995 -0.386732 0.392268 0.028823 0.347695 0.034368 0.042071 0.255980 0.448082 0.212815 0.414389 0.130992 0.398413 0.104402 0.389860 -0.064515 0.107786 -0.462420 -0.075342 0.339389 0.328713 -0.036965 0.086213 -0.338908 -0.011213 -0.112599 0.127823 -0.212463 -0.056005 0.407499 -0.119195 -0.283845 -0.200440 0.148115 -0.504165 0.121230 0.108896 -0.136461 0.179789 -0.150553 -0.226849 0.755100 0.066109 -0.124628 -0.092506 -0.162072 -0.348399 0.036597 -0.029773 0.192637 -0.318641 0.027314 0.208821 -0.182410 -0.256445 0.387085 -0.121300 0.242501 0.718839 0.292067 -0.150029 0.087919 0.456046 0.224745 -0.114683 0.232328 0.003516 -0.076008 0.337104 0.130279 0.350465 0.363811 0.279719 -0.589078 -0.046702 0.289482 0.247019 0.454185 0.333025 0.348352 -0.001766 -0.275782 -0.250457 0.108057 0.073286 0.280915 0.312602 0.185218 0.371629 -0.127875 0.238851 0.103426 0.131150 0.445229 0.234904 0.008736 -0.308096 0.325172 -0.012026 -0.060053 -0.272991 0.041932 0.066857 -0.308839 -0.069894 -0.227635 -0.035257 0.050124 -0.064592 -0.410171 0.352294 0.304278 -0.221773 -0.177820 -0.202065 -0.054455 -0.207392 0.139159 0.182945 -0.088525 -0.493509 0.057016 -0.376674 -0.258128 0.509360 0.023486 -0.110301 0.157640 0.632766 0.328917 -0.225103 0.263875 0.084060 -0.827424 0.059602 -0.023516 -0.309796 -0.074372 -0.138364 -0.277511 -0.381122 -0.120184 0.256536 0.165060 0.075367 -0.104473 0.113276 -0.445414 -0.014179 -0.198948 -0.289020 -0.014600 0.170499 -0.185050 0.109713 0.069472 0.616664 0.024177 -0.239667 0.380730 0.196191 -0.251674 0.058104 0.212087 -0.228937 -0.247636 -0.077441 -0.313451 0.067053 -0.160830 0.522521 0.573286 -0.342379 0.033711 0.101861 0.009386 0.478424 0.207092 -0.189877 -0.085984 -0.056615 0.089087 0.162845 -0.084870 0.354531 0.268687 -0.078909 0.181435 0.011485 -0.191178 -0.275190 0.020703 0.932629 -0.176897 0.151710 0.060491 0.016921 -0.436773 0.143498 -0.052582 0.304392 0.336247 -0.304672 -0.087363 0.165727 0.304426 -0.246950 -0.070759 0.336534 -0.074588 -0.051144 0.092217 0.685668 -0.436137 0.459937 -0.128810 0.304783 -0.284029 0.359918 0.002343 -0.160517 -0.144465 -0.106028 -0.037799 -0.128343 -0.132184 -0.011148 -0.150269 -0.217467 -0.189359 0.374101 -0.056368 0.018128 0.229562 -0.197186 -0.190631 -0.192283 0.338192 0.411800 -0.060037 0.433689 -0.211762 0.249015 0.339871 0.263306 -0.458327 0.825015 0.005784 -0.185614 -0.065738 0.266214 0.122255 -0.145265 0.498464 -0.038374
văn_phòng 0.345501 0.050060 0.000101 0.390775 0.147851 -0.104811 -0.048392 0.267105 -0.106217 -0.017888 0.051980 -0.006997 -0.321818 0.052934 0.274219 -0.060288 0.510296 -0.120940 0.431922 -0.361089 0.036683 -0.225398 -0.182728 -0.194048 0.221066 -0.262686 0.000511 -0.306711 -0.339390 -0.539587 0.434752 -0.325149 -0.257919 -0.205576 -0.219445 0.253403 -0.261831 0.022472 -0.012044 -0.137257 -0.214525 -0.036480 0.238484 0.158070 -0.217182 -0.190994 0.335151 0.212027 0.191406 0.090011 -0.160294 -0.108300 -0.429600 -0.567786 0.226968 0.160479 -0.045840 -0.422006 -0.248499 -0.001263 0.135266 -0.000889 -0.238108 0.008759 0.032944 -0.322280 -0.097446 -0.340496 -0.531913 0.166460 -0.007913 0.454961 0.401640 -0.124338 -0.255100 0.192150 0.552100 0.212392 -0.373271 0.276080 -0.352089 -0.268802 0.314214 0.458592 0.055544 -0.233516 0.267143 0.316756 0.239738 -0.571212 0.078367 0.350049 0.348579 0.013241 0.329847 -0.373828 0.131424 0.198694 0.346307 0.317439 -0.101645 -0.537405 0.099327 0.205481 -0.403159 -0.459645 0.083168 0.137120 -0.367627 0.192629 0.091653 -0.159994 0.207720 0.377348 0.283383 -0.250672 -0.035891 0.145032 -0.061943 -0.141467 -0.352887 0.559641 -0.127706 -0.010275 0.332611 -0.156639 -0.031695 -0.237150 -0.241122 0.439563 -0.491198 -0.180800 0.513444 -0.519467 -0.168072 -0.295744 0.008918 0.071878 -0.281249 -0.211217 -0.014401 -0.118710 -0.027496 -0.036059 -0.139385 -0.327523 0.481550 0.037920 0.347773 0.147440 0.020412 0.105687 0.149669 0.038861 -0.163512 0.373084 0.024285 -0.095062 0.261871 0.070025 -0.231095 0.173012 -0.327708 -0.028644 0.399569 0.185888 -0.268952 -0.566752 0.388293 0.180407 0.280742 -0.152767 0.232317 -0.132448 0.001133 -0.087733 -0.171569 -0.127499 0.220663 -0.299435 -0.056656 0.077214 0.117801 -0.664818 0.006046 -0.009575 0.167551 -0.210657 0.248850 -0.050270 -0.156286 0.113877 0.013817 0.092177 0.015667 -0.386273 0.252296 -0.169899 0.189144 -0.010916 -0.091494 0.211717 -0.440814 0.166520 0.062897 0.234948 -0.152029 0.373198 0.495777 -0.222830 -0.290712 -0.475605 -0.038882 0.695619 -0.014973 -0.091253 0.106451 -0.068149 -0.011722 0.391685 0.287026 0.363555 0.013868 0.385083 0.240594 -0.132734 -0.396716 -0.161372 -0.437963 -0.216655 0.419415 0.124061 -0.173350 0.307366 0.040135 -0.002467 0.036111 0.215409 -0.429624 -0.424609 -0.104692 0.057057 0.429848 0.239333 0.067322 0.091188 -0.261615 -0.002594 0.067084 0.239513 0.043097 0.183382 -0.204359 -0.061456 -0.086159 0.103173 -0.346541 0.159880 0.270386 -0.309367 -0.176751 -0.094951 -0.218577 0.103217 0.037899 0.116574 0.000664 0.314172 0.154266 -0.018914 0.344420 -0.153351 -0.130136 0.240950 -0.082905 -0.139451 0.219503 -0.386346 0.162222 -0.075505 -0.124531 0.241624 -0.272047 -0.255158 -0.226441 -0.371010 0.557097 0.541513 -0.384426 0.213484 0.131626 -0.239977 -0.218315 -0.337617 0.078403 -0.146323 -0.387482 0.402872 0.002105 0.280464
5 -0.281369 0.227207 -0.096379 -0.012006 0.164634 -0.225587 0.120490 -0.071342 -0.231659 -0.278962 -0.242864 0.415553 0.247572 -0.311179 0.129646 0.063551 -0.041038 -0.351841 0.527423 0.249754 -0.047162 0.106592 0.081017 0.345692 -0.284084 0.630734 0.031030 0.156117 0.346211 -0.177060 -0.027485 -0.291514 0.154512 -0.237632 -0.549177 -0.272371 -0.093432 -0.152219 0.163403 -0.362289 -0.297750 0.337882 -0.249705 0.029381 0.022305 -0.355051 0.091894 0.221199 0.193747 0.381114 -0.236530 0.206524 -0.149291 0.441739 0.342827 0.276583 -0.060292 0.600364 0.303668 0.264341 0.022283 0.015036 -0.666938 0.346900 0.089607 0.431424 -0.354310 0.005077 -0.140248 0.099496 -0.299053 -0.127178 -0.259322 -0.128390 0.106552 -0.313618 -0.248664 -0.227640 -0.056946 -0.291163 -0.036239 0.031371 0.457526 0.490715 -0.011598 -0.206949 0.474352 0.140901 -0.027489 0.190165 -0.098226 -0.331213 0.056303 0.498810 0.316283 -0.049141 -0.220749 0.237314 0.136723 -0.331662 0.269902 -0.359266 0.380008 0.406257 0.681419 -0.050250 0.067855 0.193072 -0.057821 0.227549 -0.120825 0.426935 -0.271586 -0.169263 0.406657 0.198558 0.056538 -0.156693 -0.271263 -0.321590 0.369589 0.119673 0.401178 -0.071964 0.315260 0.041264 -0.270758 -0.137675 -0.316548 0.517349 -0.018529 -0.100975 0.031981 -0.028910 -0.223425 0.048357 0.032505 0.110823 0.245805 0.233540 0.466616 -0.060901 -0.107557 -0.290926 -0.165279 -0.636969 -0.203827 -0.227664 0.009431 -0.246593 -0.207767 -0.204757 -0.120513 -0.109055 0.018386 0.367044 0.077966 -0.203458 -0.312546 -0.318599 -0.322961 0.103247 -0.068010 -0.041055 0.043758 -0.597802 0.043612 -0.291661 0.282385 0.566873 0.001981 0.066462 0.014875 0.280584 0.593215 -0.213741 0.574014 -0.153789 -0.808038 0.368224 0.199451 -0.491045 -0.184063 0.104531 0.061164 0.204218 -0.096218 -0.147865 0.216852 0.437939 -0.095249 0.336107 -0.269880 -0.110624 -0.315635 -0.006234 -0.344387 -0.009208 -0.297955 -0.191639 -0.154988 0.234823 0.061169 -0.395360 0.503980 -0.165460 -0.275496 0.052763 0.203084 0.095032 0.029781 -0.489760 -0.204358 -0.031567 -0.007931 0.207874 0.545541 -0.410231 -0.023633 0.173580 -0.187567 -0.095165 0.082405 -0.230268 -0.072882 0.015379 0.082841 0.199400 -0.162012 0.305420 0.289664 -0.204304 0.095524 0.143557 -0.276137 -0.575293 -0.274871 0.486872 -0.157415 -0.244529 0.160461 0.064855 -0.494595 -0.201155 0.068375 0.035299 0.339556 -0.449003 -0.172391 0.443798 0.338195 -0.201294 0.045105 -0.028535 0.042848 0.003841 0.173075 0.554410 -0.080236 0.132243 -0.065527 0.309033 -0.244514 0.632505 0.202539 -0.172137 0.172687 -0.230851 0.026010 -0.042153 -0.234971 0.101421 -0.567478 -0.229852 -0.392995 0.345419 -0.057647 0.123250 0.071148 -0.257400 -0.174919 -0.225541 0.296676 0.301354 -0.090856 -0.142842 0.111337 0.353281 -0.023590 0.211876 -0.554379 0.544847 -0.313262 -0.454701 0.200921 0.201654 -0.171013 -0.012956 0.389338 0.368024
Phòng 0.282317 -0.084478 0.153727 -0.616351 -0.013782 -0.166558 0.030610 -0.295751 -0.154568 -0.460637 -0.106020 -0.213698 -0.747905 0.712431 0.167970 -0.308644 -0.656380 -0.420569 0.164143 0.348247 -0.475024 0.033811 -0.450157 0.209847 0.679426 -0.283434 -0.174676 -0.347549 0.735638 -0.008560 0.349801 0.102924 0.147984 -0.041723 0.360285 0.107342 -0.055171 -0.459328 -0.051044 0.775877 -0.068017 -0.182851 -0.236343 0.411803 0.559904 -0.215278 0.250761 -0.609982 0.023420 0.387636 -0.103125 0.046287 -0.606442 0.029101 -0.571836 -0.681094 0.098367 0.263492 0.236193 -0.037554 0.798300 -1.219105 0.303096 0.074641 -0.140322 -0.404707 0.360272 0.126447 -0.492122 -0.428077 -0.713344 0.020919 0.578799 -0.259161 -0.520774 -0.306357 0.200378 0.470464 0.377188 -0.092594 -0.391128 -0.287966 -0.205910 0.063781 0.215998 -0.379294 -0.845173 -0.513709 -0.697515 0.156561 0.064667 0.836656 0.251783 0.010626 -0.030548 0.215085 0.224652 -0.460580 -0.137919 0.354321 -0.530533 0.355719 0.026977 -0.444234 0.375913 0.372353 0.103215 0.668330 -0.729488 0.192829 -0.243358 -0.211651 -0.187086 0.363862 0.144970 -0.048265 -0.589810 0.015433 0.501108 0.199430 -0.057008 -0.509010 -0.745704 -0.264965 -0.543572 -0.618959 -0.141529 0.089344 0.238822 0.176709 -0.335583 0.396318 -0.561994 0.100799 0.645592 0.323338 0.140398 0.125988 -0.373920 -0.656862 -0.615050 0.052161 -0.206536 -0.305038 0.377940 -0.918463 -0.233423 0.301848 -0.183300 -0.779658 -0.607480 -0.074116 -0.177255 1.031151 -0.127502 -0.319523 -0.323425 0.277646 0.306412 -0.004406 -0.003881 0.411316 -0.651175 0.355815 -0.094155 -0.043566 -0.094761 -0.354520 -0.005767 -0.596560 -0.132483 0.494505 -0.107089 0.608653 -0.509580 -0.365660 0.180800 -0.506789 -0.050146 0.173340 0.316634 -0.105843 -0.048512 -0.291656 0.214910 0.683893 0.443028 -0.245933 -0.293370 0.273976 0.511459 -0.338813 -0.842834 0.112492 0.479284 -0.171480 0.028194 0.069996 -0.001061 -0.085394 0.222317 -0.086490 -0.489413 -0.324837 0.098315 0.212124 0.769525 -0.107302 -0.524265 -0.048503 0.389866 -0.301258 -0.147572 0.532799 0.284691 0.024004 -0.056535 0.117969 0.197961 0.430524 0.119923 0.060878 -0.014829 0.722002 -0.434659 -0.010428 0.291110 0.320638 0.164823 0.495150 -0.074296 -0.254407 0.060207 -0.733437 0.818220 -0.433066 0.102925 0.184597 -0.455254 0.519947 0.280895 -0.225409 -0.210326 -0.483544 0.381138 -0.567644 -0.145275 0.193614 -0.234168 0.398302 -0.014225 0.545917 0.307878 0.459953 0.656674 -0.327274 0.027134 -0.068301 -0.257720 0.054242 -0.162422 -0.277950 -0.371187 0.190161 -0.742820 0.708011 0.767230 -0.163238 -0.032428 0.628024 0.039791 0.587356 0.178633 0.064772 0.248928 0.203516 0.064436 0.038283 -0.095637 0.633453 -0.343547 -0.085529 0.194696 -0.443307 0.604915 0.355233 -0.348814 -0.721745 0.331674 0.046208 0.538756 -0.989821 -0.003612 -0.071490 -0.486034 -0.398677 -0.106635 0.051672 0.082555 0.240931
11 -0.606232 -0.062647 -0.072810 0.121746 -0.165097 0.195457 -0.683475 0.420026 -0.075076 0.267135 -0.148954 -0.044785 0.186226 0.221542 -0.551837 -0.168518 -0.068118 -0.074978 -0.304660 -0.314406 -0.094468 -0.456206 -0.259592 -0.603329 -0.142356 0.258963 -0.335793 0.142751 -0.071490 -0.043149 -0.408558 -0.359550 0.257345 0.284550 -0.303747 -0.112319 -0.222841 0.092910 0.288606 0.082040 -0.545720 0.068826 0.248017 -0.356902 -0.346386 0.183494 -0.521415 0.218306 -0.000079 -0.039723 -0.162423 0.082030 0.218096 0.063979 0.166631 0.619810 0.139991 0.003198 -0.128062 0.352547 -0.190884 0.387877 -0.260094 -0.129571 0.695631 0.019954 -0.102238 0.118455 -0.122377 -0.354770 -0.342704 0.019392 -0.143163 -0.224050 0.266764 -0.168589 -0.413140 -0.118226 0.362858 -0.400908 0.449703 -0.101861 -0.509474 0.408420 -0.427764 0.016719 0.358318 0.029007 -0.284385 0.164582 -0.267577 -0.179611 0.224771 -0.027383 0.046928 0.031673 -0.147718 0.153466 -0.216039 -0.223255 0.680355 -0.329158 0.293933 0.643272 0.555371 0.099773 -0.121247 0.135484 0.242447 -0.149569 0.092931 0.038750 -0.261446 -0.007996 0.153388 -0.129219 0.052343 0.280823 -0.219168 0.185668 -0.169362 0.232439 0.307159 0.320688 0.640487 0.082782 -0.353587 0.124027 0.431087 -0.260302 0.288638 0.482335 0.182823 0.594468 0.529802 0.027731 -0.229597 -0.148540 0.644668 0.021030 0.027884 -0.236884 0.292220 -0.105583 -0.019602 -0.129871 0.135096 0.104639 -0.042143 0.335574 -0.370997 0.235967 0.234686 -0.206315 -0.550957 0.360921 0.597382 -0.017830 0.019000 0.039647 0.281701 -0.226088 0.209217 -0.040601 -0.175972 -0.745272 -0.100107 -0.181766 -0.606879 0.335489 -0.513882 0.049945 0.327465 0.080351 -0.167517 0.127235 0.392174 0.526969 -0.419441 -0.019707 0.403381 -0.315195 -0.029805 -0.259105 -0.296976 -0.360177 -0.015476 0.340113 0.069783 -0.368855 -0.082628 0.008472 -0.285701 -0.114979 0.068847 -0.352813 0.030684 -0.078724 -0.415065 0.441618 -0.139108 0.761621 0.044634 -0.461141 -0.122045 0.488597 -0.373660 -0.076330 -0.112198 -0.392714 -0.320002 0.094217 -0.027567 0.265921 -0.407437 0.381839 0.466890 0.103999 0.250087 -0.173801 0.081330 0.507887 0.327129 -0.212866 -0.084449 -0.369597 0.330690 -0.005873 0.110109 0.498521 -0.047324 -0.023055 0.172780 0.055803 -0.343470 -0.361776 0.445757 0.959087 -0.424408 -0.151184 0.127466 0.278776 -0.171444 0.292860 -0.492826 0.353353 0.107683 0.027118 -0.177272 -0.082694 0.466023 -0.290532 -0.097385 0.350843 -0.220495 -0.017053 0.206769 0.246622 -0.500209 0.241248 -0.087763 0.097458 -0.024801 0.420566 0.004168 -0.236091 -0.160745 -0.254978 -0.037179 -0.073715 -0.016940 -0.148149 -0.334094 0.102878 -0.267907 0.034791 -0.071155 0.027606 -0.014356 -0.234920 -0.189709 -0.101449 0.364240 0.302040 0.126410 0.480186 -0.298832 0.065107 0.504169 0.259441 -0.316555 0.741193 -0.114433 -0.212173 0.497994 0.105511 -0.138610 -0.167583 0.538560 0.049430
hành_lang 0.437425 0.288014 -0.201240 0.548557 -0.048930 0.035221 -0.275524 0.376666 -0.138840 0.104181 -0.031620 0.074550 -0.330966 -0.118186 0.183914 -0.198065 0.515094 -0.013326 0.368562 -0.262260 0.116288 -0.243427 -0.101845 -0.211727 0.261444 -0.161309 0.040796 -0.374680 -0.449170 -0.450879 0.416819 -0.309045 -0.314884 -0.267993 -0.069839 0.258003 -0.061858 0.008525 0.027678 -0.047729 -0.259643 0.092987 0.332533 -0.019374 -0.276165 -0.394596 0.191907 0.139287 0.352502 0.235762 0.022935 0.006144 -0.262491 -0.465643 0.276245 0.274988 -0.016262 -0.548410 -0.246328 -0.028014 -0.030433 -0.031608 -0.040154 -0.128270 0.098038 -0.169003 0.080155 -0.402477 -0.511137 0.105384 -0.176603 0.377826 0.233795 0.068216 -0.033099 0.073984 0.479385 0.168256 -0.333448 0.286024 -0.436535 -0.282719 0.172841 0.509647 0.112434 -0.163136 0.458524 0.325953 0.017184 -0.504447 0.259147 0.397312 0.400530 -0.079944 -0.026250 -0.339774 0.249145 0.105867 0.484354 0.178380 -0.185754 -0.494336 0.174078 0.152602 -0.470827 -0.285177 0.065546 0.146910 -0.417716 0.414643 0.209912 -0.174158 0.206473 0.700911 0.302480 -0.122719 -0.142456 0.169819 -0.215815 0.133377 -0.191516 0.511303 -0.202534 0.094731 0.206422 0.077974 0.044330 -0.309757 -0.258724 0.317279 -0.432369 -0.333704 0.579330 -0.473247 -0.270415 -0.225978 -0.136304 0.098346 -0.332653 -0.164707 -0.078381 -0.299464 0.201830 -0.120136 -0.074744 -0.209523 0.396808 0.136495 0.240517 0.135561 -0.084680 0.029449 0.077449 -0.033282 -0.178939 0.281598 0.224177 -0.083741 0.262308 0.173477 -0.110028 0.115817 -0.216566 -0.020111 0.274961 0.359714 -0.374060 -0.534700 0.520777 0.192856 0.129805 -0.128546 0.063094 -0.245582 -0.081234 -0.143529 -0.450976 -0.132062 0.332369 -0.218809 -0.002412 0.161246 -0.139516 -0.756659 -0.213530 -0.231254 -0.047609 -0.181719 0.070519 -0.127760 -0.376216 0.330394 0.158085 0.094892 -0.208413 -0.187802 0.393990 -0.109697 0.177937 -0.179648 -0.006571 0.348868 -0.491865 0.060722 0.034899 0.317617 -0.341410 0.223940 0.636991 -0.134005 -0.256799 -0.244513 -0.128013 0.483889 0.118935 -0.156419 0.090980 -0.041378 0.066211 0.287360 0.171348 0.255225 -0.116497 0.308599 0.224309 -0.201771 -0.468156 -0.277502 -0.424047 -0.271798 0.557879 0.035112 0.057731 0.384099 0.157391 -0.141425 -0.100919 0.017832 -0.391760 -0.505341 -0.021539 -0.111530 0.208653 0.399229 0.215493 0.068425 -0.339174 0.023350 -0.109042 0.311046 -0.082164 0.269994 -0.074034 -0.229261 -0.015943 0.054415 -0.425926 0.233841 0.286996 -0.150197 0.015979 -0.007139 -0.147621 0.103607 -0.205382 0.046106 -0.101667 0.389649 0.194651 0.128120 0.199424 -0.353767 -0.097487 0.159698 -0.195086 -0.021454 0.092316 -0.483002 0.319371 -0.240002 -0.036449 0.168137 -0.266051 -0.124610 -0.358481 -0.492123 0.539925 0.498183 -0.380747 -0.074196 0.258830 -0.172124 0.043716 -0.343064 0.165816 -0.332394 -0.470159 0.395034 0.138225 0.381807
1 -0.157202 0.534190 -0.314013 -0.155460 -0.263037 -0.112179 0.311424 0.182234 0.114955 -0.340896 0.127445 0.196809 0.064174 -0.383873 -0.075794 -0.251515 0.219704 -0.299104 -0.089484 -0.156156 -0.105272 -0.073470 -0.453437 0.294916 0.044806 -0.261616 -0.356918 -0.346278 0.040722 0.297284 -0.020880 0.249078 0.093494 0.071849 -0.586418 -0.349807 -0.011558 -0.391436 0.749107 -0.565128 -0.332781 0.297560 0.234027 -0.221806 0.282419 0.304869 0.367961 0.168677 -0.421549 -0.487589 -0.448543 0.129181 0.156447 -0.968232 -0.250758 -0.077344 -0.601126 -0.463528 -0.054844 -0.094464 -0.320177 -0.003909 -0.509226 0.699742 0.345275 -0.054029 0.001209 0.243363 0.707568 -0.402491 0.329623 -0.180779 0.246867 -0.371641 -0.615121 0.277341 -0.350257 -0.565869 0.013833 0.249755 -0.167445 -0.172292 -0.030460 -0.370700 -0.259273 0.228818 0.006416 0.171011 0.464750 -0.085873 0.102735 -0.396110 0.784318 0.049100 0.553321 -0.098316 -0.602508 -0.355607 -0.081652 -0.544359 -0.019665 -0.154467 -0.211872 -0.438393 0.029752 0.535996 -0.787448 -0.045268 0.034547 -0.262143 -0.627448 0.058131 -0.243376 -0.316144 0.675815 0.008124 -0.031047 0.212290 -0.286620 -0.215588 -0.198590 -0.013111 -0.051845 0.274247 0.618726 -0.388837 -0.012364 -0.117246 0.683154 -0.757394 -0.457876 0.260235 0.447101 -0.012193 -0.051801 -0.154820 -0.150081 0.126031 -0.153638 0.406030 0.607481 0.086785 -0.147568 -0.386407 0.568318 -0.000127 0.402021 -0.461269 0.650384 0.248811 0.043511 -0.142482 0.639870 -0.614577 -0.177471 0.190751 -0.326686 -0.263576 -0.112414 0.442784 0.502916 0.023268 -0.272571 -0.510307 -0.354369 0.562254 -0.416628 0.086615 -0.452801 -0.035798 0.143337 -0.081261 -0.383228 -0.323412 -0.020055 0.043364 0.233090 -0.219018 0.158328 0.185389 0.348205 0.491058 -0.493748 -0.184664 0.070372 0.123534 0.127763 0.078662 0.218985 0.081067 0.039230 -0.029405 0.506076 0.118559 0.118296 -0.018183 -0.860577 -0.267076 0.123180 0.250378 -0.343779 -0.362495 -0.113090 0.146970 0.253396 0.257392 0.354882 0.091610 0.520518 -0.565167 -0.343795 -0.271016 0.269652 0.597148 -0.569853 -0.513755 0.266341 0.032562 -0.314863 -0.300746 0.288205 -0.221753 0.021358 -0.402911 -0.269463 0.167614 0.809505 0.383304 -0.371070 0.119173 0.140669 -0.140258 0.848838 0.363985 -0.174529 0.557493 0.241462 0.447673 0.464488 -0.381073 0.191742 -0.165577 0.492074 0.358587 -0.605574 0.171022 -0.032551 0.266800 0.096628 -0.563272 -0.346039 -0.290986 0.025543 -0.234744 0.123446 0.302210 -0.371444 0.320953 0.311866 -0.058588 0.605103 -0.443789 -0.285659 -0.250778 0.456014 -0.278971 -0.408129 -0.344363 0.365483 -0.297812 0.036456 0.048820 -0.078207 -0.280605 0.152140 0.484239 -0.170110 -0.320349 -0.116033 -0.203732 0.444524 -0.075687 0.435592 -0.000805 0.538315 0.044116 0.270743 0.320976 0.173626 0.194374 -0.047668 0.045330 -0.084846 0.319479 0.240960 -0.034728 -0.293778 -0.285057 0.465431 -0.124654
10 0.289409 0.057064 0.245956 0.586388 -0.000222 -0.189399 -0.372035 0.430449 0.178496 0.180413 -0.149773 0.179857 0.411594 -0.029904 -0.471538 -0.446472 -0.276071 0.027566 0.194681 -0.108823 0.007632 -0.476762 0.477812 -0.121925 0.176306 0.276049 -0.291005 -0.121794 0.053026 -0.181025 0.155041 -0.382886 0.313894 -0.129238 -0.138932 -0.158738 -0.463740 -0.495397 0.586636 0.251873 -0.402744 0.501918 0.359332 0.004340 -0.708218 0.120206 -0.071077 0.153959 0.271097 0.163182 -0.333701 0.214949 -0.311456 -0.361919 -0.071993 0.589788 -0.316162 -0.384083 0.184933 -0.121516 -0.370935 -0.081478 0.136702 -0.001190 -0.175060 0.373763 -0.438075 0.106261 -0.607111 -0.077013 -0.508416 -0.129056 -0.373042 0.276618 -0.134646 -0.412458 -0.092065 -0.263884 0.263112 0.063368 0.050995 0.408769 -0.476167 0.152137 -0.060532 0.157194 0.394693 0.252330 -0.351519 0.169226 0.065512 -0.310002 0.042499 -0.349709 0.034124 -0.645312 0.192267 -0.200111 -0.124688 -0.133135 0.813327 -0.473450 0.497187 -0.095504 -0.333954 -0.018518 0.363965 0.313736 0.185209 0.586680 0.439117 0.510728 0.294975 0.435755 0.036416 0.113290 -0.308530 0.063934 -0.478360 0.019722 0.494258 0.028969 0.437393 0.376296 0.329219 0.025014 -0.078596 -0.167474 0.151763 -0.228375 0.345406 0.059518 0.390491 0.243279 0.232321 -0.366080 -0.046122 -0.015644 0.596344 0.415102 -0.321022 -0.320688 0.519866 0.263739 0.242293 0.128647 0.065419 -0.423395 -0.357139 0.246021 0.162920 0.505610 -0.167735 -0.270227 -0.438796 0.246131 0.132111 0.275413 -0.596613 -0.258362 0.209376 0.222324 0.661420 -0.143943 0.057358 -0.281956 -0.303904 -0.222308 -0.009732 0.516886 0.055242 -0.102534 0.226269 0.071713 0.131633 0.255260 0.281382 0.876889 -0.473328 0.172305 -0.119872 -0.005196 -0.332605 -0.315088 -0.273266 -0.356357 -0.136427 -0.051446 0.318752 -0.005672 0.132679 0.369112 -0.120761 -0.140331 0.588683 0.021595 -0.454285 0.076220 -0.528943 0.275002 -0.379531 0.726066 0.045159 -0.402000 -0.109856 0.210058 -0.532553 -0.430461 -0.440653 0.030011 -0.381940 -0.329806 -0.508098 0.379576 -0.131953 -0.046812 0.421119 -0.449831 0.491717 -0.193257 0.061956 0.733607 -0.127917 -0.275667 -0.023440 -0.321224 0.280794 -0.381911 0.222549 -0.207603 0.260316 -0.195253 0.541468 -0.649917 -0.266175 -0.193133 -0.132231 0.235475 -0.204373 -0.043662 -0.390464 -0.410951 -0.070028 0.401342 0.021669 0.159126 0.555415 -0.381367 0.021220 0.241198 0.624179 -0.516834 -0.215168 0.340710 -0.133873 -0.028530 -0.258342 0.590050 -0.475996 0.296104 -0.330858 0.457070 -0.127920 0.739092 0.357390 0.011951 -0.300757 -0.011631 0.272306 0.342389 -0.285842 -0.029064 -0.395277 0.147460 -0.418494 -0.024503 0.290580 0.371691 -0.006116 0.005318 -0.077250 0.217848 -0.205986 0.346771 -0.433264 0.418019 -0.077454 0.549476 -0.453689 0.178235 0.008962 0.526405 -0.126991 -0.640198 -0.288644 0.107680 0.205523 0.121564 -0.277043 0.037945
chuyển 0.410220 0.006869 -0.131682 -0.107862 -0.137527 0.099205 -0.148621 0.076436 0.107385 0.048169 0.477704 0.287369 -0.453788 -0.182494 0.217739 0.335280 -0.406829 0.404874 -0.485005 0.219808 -0.635233 -0.224981 0.101673 0.134946 0.769684 -0.014860 0.072614 0.077097 -0.058478 0.482096 -0.387233 0.202014 -0.466129 -0.521812 0.156586 0.081339 -0.261255 -0.499463 -0.342836 0.395773 -0.275513 0.264984 -0.128757 0.101423 0.029868 -0.498049 0.217356 -0.092247 0.476772 0.109236 0.462014 -0.103501 0.197030 -0.314177 0.060920 -0.404294 -0.417186 -0.155973 -0.481530 0.003419 0.124996 0.274779 0.355984 -0.451825 -0.368942 0.242470 -0.207843 0.226293 0.266376 -0.033000 -0.346954 0.144435 -0.364408 0.510882 -0.095569 -0.697357 -0.055079 -0.009216 -0.309857 -0.025393 0.218210 -0.110443 -0.136675 0.003843 0.365814 0.150014 0.095888 0.520291 -0.229932 -0.313471 0.136397 -0.040146 -0.122309 0.377127 -0.307358 -0.381337 -0.417685 -0.115524 0.560959 -0.493591 -0.061420 0.004168 -0.665594 -0.709392 0.597791 -0.109963 -0.607509 -0.591289 -0.125513 -0.040362 -0.222365 0.012621 -0.063162 -0.242587 -0.082240 -0.386738 0.068813 -0.073490 -0.426549 -0.009677 -0.176008 0.031001 -0.496306 0.033688 -0.230981 0.078578 -0.036140 -0.540848 0.242716 -0.236233 0.091473 -0.030356 0.187080 -0.174774 0.570602 -0.085009 0.482363 0.152530 -0.063132 0.271384 0.019970 0.130277 -0.878892 -0.331259 -0.484094 0.317209 0.181449 0.585721 0.009895 -0.463732 0.387489 0.146774 0.232085 0.380423 -0.226153 -0.224960 -0.026583 0.225762 -0.261822 0.139277 0.178842 0.056666 0.509139 0.180548 -0.346598 0.057656 -0.296065 0.067528 -0.141749 0.640918 0.161393 -0.205462 -0.620750 0.201217 -0.006652 -0.141154 -0.165171 0.291291 -0.548486 0.256922 -0.057885 0.005513 -0.205330 0.132875 0.116590 0.476386 -0.652909 0.041736 -0.206201 0.018115 -0.181944 -0.261696 -0.105257 -0.321802 -0.025782 0.083094 -0.530664 -0.072579 0.444749 -0.379441 -0.380516 -0.410827 -0.113628 -0.150466 -0.468697 -0.510603 0.179560 -0.201022 0.325800 0.084802 -0.430354 0.310035 0.188133 -0.136124 0.718195 -0.444206 -0.361139 0.344638 0.043723 -0.290782 0.165547 0.028496 -0.050988 0.280377 0.017211 -0.064387 -0.203233 -0.161580 -0.184081 -0.524176 0.355581 0.040309 -0.067772 -0.237434 0.314261 -0.346876 -0.396674 -0.256209 -0.279903 -0.077234 0.058417 0.218091 -0.450171 0.359882 -0.700329 0.000940 -0.457924 0.210619 0.449781 -0.419566 -0.255388 0.414789 -0.009443 -0.479350 -0.577815 0.380734 -0.356091 -0.560466 -0.453544 0.291295 0.408201 -0.283137 0.541121 -0.463188 -0.434198 -0.094799 -0.461016 -0.211291 -0.171926 -0.050363 -0.745859 -0.251976 -0.185202 0.035299 0.250657 0.275369 -0.857509 -0.021424 0.616593 -0.341733 -0.174675 0.133227 0.129999 0.239925 0.016073 0.780719 -0.353308 -0.168829 0.118842 -0.136042 -0.185038 0.503466 0.311459 0.331717 0.076200 0.341404 -0.243730 0.138119 -0.335595 0.164420
nhà_bếp 0.450749 0.428998 -0.391591 0.323628 -0.184730 0.093896 -0.598825 0.163729 -0.415805 0.082270 -0.296212 0.235598 0.007086 -0.283322 0.162855 -0.162308 0.521171 0.055697 0.192661 -0.271152 0.023481 -0.118578 -0.135126 -0.237013 0.161826 -0.183476 0.211090 -0.475379 -0.505141 -0.267274 0.524803 -0.372849 -0.317046 -0.309155 -0.110299 0.142944 0.195274 0.263605 0.133661 -0.281186 0.077758 0.172733 -0.009668 -0.288584 -0.178233 -0.231709 0.334457 0.140089 0.419258 0.316842 0.078701 -0.118281 0.024751 -0.599958 0.094927 0.432814 0.012874 -0.468365 -0.209287 -0.163128 -0.285422 -0.006029 -0.227301 0.151838 0.178905 -0.304238 -0.105067 -0.298357 -0.081660 -0.032589 -0.393879 0.249092 -0.094465 0.050196 -0.036424 0.156514 0.267027 0.103899 -0.249348 0.361286 -0.332869 -0.218464 0.074697 0.267618 -0.126057 -0.043276 0.290243 0.180623 -0.010380 -0.062205 0.298076 0.555077 0.208120 -0.055077 -0.414826 0.118605 0.427649 0.043679 0.465448 0.062967 -0.482480 -0.323471 0.139021 0.132113 -0.423359 0.240984 -0.297665 -0.010990 -0.504801 0.597055 0.360591 -0.256286 0.156011 0.669883 0.415757 0.027806 -0.293836 0.238057 -0.268234 0.179927 0.158964 0.225145 -0.220422 0.128310 -0.053644 0.483406 0.140705 -0.269124 0.111601 0.240116 -0.442510 -0.153785 0.434856 -0.427134 -0.384906 -0.274923 -0.327813 0.000737 -0.065147 -0.270144 -0.098790 -0.318388 0.156836 -0.262069 0.126271 -0.163077 0.427031 0.399794 0.226268 -0.109690 -0.242847 -0.007548 0.186390 -0.275540 0.131252 0.406045 0.398761 -0.494463 0.450354 0.323549 0.252442 0.397649 -0.399968 -0.237852 0.087075 0.315395 -0.527466 -0.252000 0.419229 0.127417 -0.085104 0.233130 -0.147365 -0.563342 0.248191 -0.235759 -0.656798 0.162731 0.330086 -0.052428 0.054479 0.116635 -0.213782 -0.649722 -0.277221 -0.188216 -0.127318 0.096212 -0.269107 -0.421255 -0.560000 0.429164 0.188642 0.014377 -0.528721 0.137746 0.347580 -0.222054 0.171271 -0.264987 0.266956 0.473016 -0.319635 -0.105782 0.293755 0.310292 -0.259350 0.140239 0.482971 -0.470336 -0.013892 0.063845 0.147286 0.040846 -0.029938 -0.257912 0.085112 -0.017322 0.030600 0.123380 0.108389 0.088351 -0.475635 0.152868 0.168873 -0.319127 -0.435433 -0.261945 -0.127025 -0.301413 0.355032 0.202569 0.209171 0.434111 0.223714 0.081714 -0.273762 -0.288670 -0.287481 -0.392180 0.050112 -0.030913 0.194205 -0.001761 0.304066 0.301030 -0.097959 0.154486 -0.279832 0.383808 -0.346194 0.315502 -0.222024 -0.219573 0.143749 0.183949 -0.528387 0.164949 0.297884 0.046272 0.091472 0.271195 -0.076460 -0.099704 -0.283486 -0.120824 -0.051407 0.216826 0.444238 0.218642 0.291987 -0.231953 -0.211788 0.044508 -0.151257 -0.338274 0.381951 -0.509943 0.259445 -0.408321 -0.025406 0.045106 -0.355971 -0.174865 -0.443662 -0.875151 0.244282 0.344763 -0.202719 -0.130064 0.334401 -0.329863 0.433312 -0.383762 0.148315 -0.462549 -0.430310 0.455184 0.310389 0.309345
14 -0.646536 -0.022335 -0.003925 -0.459337 -0.529967 0.085276 -0.617458 0.294576 0.032535 0.592485 0.128316 0.047626 0.444579 0.102995 -0.693030 -0.104661 -0.256322 -0.209057 -0.217863 -0.357248 0.101307 -0.312502 -0.252211 -0.560339 -0.540272 0.030375 -0.357653 0.139150 0.556573 -0.344547 -0.292894 -0.182791 0.090126 0.340790 -0.360626 -0.096826 -0.519788 0.582977 0.510179 -0.262250 -0.133202 0.120861 -0.253377 -0.515607 -0.312643 0.151131 -0.563004 0.075121 -0.233513 -0.135933 -0.437688 0.049224 -0.179253 -0.012840 -0.144345 0.277714 0.004031 0.002495 -0.131194 0.197525 -0.342451 0.589951 -0.060602 0.163144 0.438385 0.052727 0.163527 0.292466 0.144854 -0.505024 -0.339115 0.027997 0.019210 -0.480157 -0.074238 0.143007 -0.279815 -0.120729 0.641404 -0.426686 0.262817 -0.229916 -0.722303 0.355000 -0.080317 0.222735 0.169366 -0.137519 0.132823 0.224695 -0.265687 0.112233 0.358094 0.009916 0.191362 0.476869 -0.423673 -0.168780 -0.496123 -0.130895 0.385779 -0.023024 0.144223 0.381404 0.469807 0.053232 -0.226997 0.206851 -0.139123 -0.067396 -0.184862 -0.045692 -0.353004 -0.029093 0.436293 0.125379 -0.106218 -0.096743 0.150991 0.077575 -0.294024 0.358274 0.267158 0.220300 0.833328 -0.252154 -0.637565 0.106672 0.110989 -0.429863 -0.095199 0.496627 0.127605 0.389902 0.349964 0.350201 -0.698634 -0.217486 0.413940 0.026284 0.631251 0.107290 0.239561 0.055139 0.620882 0.034003 -0.220498 0.202666 0.205767 0.170154 -0.676049 0.346724 0.495836 -0.264468 -0.770551 0.078264 0.216779 0.086915 0.244860 -0.231868 0.451414 -0.070125 -0.060421 -0.213178 -0.329714 -0.774372 -0.116964 0.024031 -0.440950 0.176538 -0.792364 -0.329850 0.419641 -0.343511 -0.057204 0.008010 0.217851 0.206402 -0.239880 -0.230878 0.253483 -0.098090 -0.305466 -0.679808 -0.185413 0.156087 0.531613 0.474976 0.222293 -0.132706 -0.185122 -0.015909 -0.213036 -0.050812 0.242198 0.064577 -0.286386 -0.007040 -0.547190 0.397363 -0.060555 0.529152 0.053135 0.019346 -0.275592 0.669414 -0.182071 -0.224156 -0.111817 -0.329541 -0.006085 0.244277 0.351417 0.398605 -0.620006 0.425816 -0.048317 0.554433 -0.096470 -0.205130 0.356439 0.045476 0.797631 -0.048391 0.039045 0.106654 0.310265 0.444747 -0.126723 0.617007 -0.549241 -0.057330 0.220615 0.064557 -0.221312 -0.008832 0.032157 0.615446 0.009957 0.279042 0.216812 0.382414 0.046882 -0.100681 -0.586393 0.376183 0.210670 -0.151184 -0.246690 -0.501823 0.328870 -0.185119 -0.055166 0.083705 -0.233663 -0.121639 0.024416 0.138521 -0.556135 0.401492 0.205414 -0.412452 0.024293 0.221986 0.227764 -0.324865 -0.153455 0.161396 -0.187122 -0.222196 -0.303757 0.182691 -0.325802 0.287636 -0.139202 0.203509 0.150452 -0.109682 -0.477866 0.142662 0.553771 -0.333933 0.280205 0.240187 0.111662 0.248633 -0.380490 -0.167487 0.537571 0.049064 -0.410613 0.054444 0.022815 0.041431 0.477061 0.244672 -0.344478 -0.238087 0.626120 0.240038
4 -0.231838 0.013302 -0.092376 -0.533870 -0.304559 0.427795 -0.280494 0.083151 0.265574 0.145873 -0.155293 0.691201 0.291643 -0.418890 0.074329 0.054561 -0.050116 -0.218991 0.270550 0.268272 0.286176 0.306477 -0.190052 0.604145 -0.223207 -0.043017 0.770428 0.546506 0.237351 -0.564977 0.293458 0.399689 0.313140 0.235980 -0.589627 0.289351 -0.026047 0.159371 -0.108980 -0.520332 0.516635 0.342806 -0.639113 0.021173 -0.061258 -0.093002 0.136119 0.151273 -0.049269 -0.039101 -0.706503 -0.118406 -0.057466 0.114503 -0.072728 -0.278371 -0.356288 0.155234 0.509246 0.007047 -0.261224 0.666834 0.233091 -0.062768 -0.385241 0.415071 -0.350087 0.236337 0.088394 -0.523133 -0.323182 -0.403805 -0.153693 0.361380 0.244884 0.031597 -0.054365 0.054412 0.474967 0.244067 -0.114616 -0.346695 0.011498 0.329009 0.388044 -0.169756 0.440841 -0.086316 0.399742 0.302044 -0.027215 0.044543 -0.339762 0.563991 0.116611 0.845094 0.036318 0.289191 0.457586 -0.055869 -0.347800 -0.020045 0.088027 0.208337 0.771108 -0.264358 0.019417 0.182330 -0.564998 0.664878 0.278234 0.081475 -0.427880 -0.329458 0.750383 0.518176 0.197035 -0.258339 0.336153 -0.613376 -0.779239 0.654456 0.568263 -0.356400 0.373554 0.343822 0.035623 -0.248729 -0.895925 0.502536 -0.090361 -0.086725 0.310046 -0.575121 -0.575706 0.369906 0.055192 0.153802 -0.126978 0.490889 0.546148 -0.181590 -0.171815 0.552041 0.294799 -0.423346 -0.132182 -0.065570 -0.112625 0.002002 -0.464113 0.202594 0.459240 0.312592 -0.272300 0.185132 -0.186436 -0.439308 0.389479 -0.215358 -0.058243 0.344891 -0.210436 0.213014 -0.103845 -0.536180 0.134551 0.551196 0.468796 -0.099808 0.126769 -0.444491 0.159780 -0.864078 0.481523 -0.476979 0.029542 -0.602703 -0.733700 -0.234000 -0.313576 -0.496738 -0.480374 -0.834477 -0.129043 0.591136 -0.297076 0.328513 0.522118 0.420366 0.056771 0.060934 0.212583 0.099752 -0.356992 0.332931 -0.552483 0.235304 -0.311085 -0.330684 -0.037842 0.172122 -0.246666 -0.057586 0.124488 0.086571 -0.249741 0.132132 0.532420 0.329250 0.448786 0.117964 0.933366 0.320563 0.196262 -0.348752 -0.461612 0.118186 -0.383169 0.115801 0.065830 -0.341860 0.345151 -0.195758 0.325957 0.380529 -0.006702 0.062045 -0.590562 0.221911 0.096147 -0.278344 -0.174392 0.518978 0.039393 -0.122376 -0.535144 -0.507736 0.251682 0.352723 0.270018 0.286688 -0.166681 -0.580387 0.396358 -0.146790 0.484851 -0.056980 0.028639 -0.330797 0.130965 0.020990 0.750490 -0.506256 0.167432 0.002966 0.197294 -0.365404 -0.177978 0.117796 0.146749 0.114285 -0.234170 0.677685 0.298110 -0.153493 0.305498 0.270729 -0.222798 -0.137895 -0.578356 -0.151364 -0.577437 0.013643 -0.219087 -0.066172 -0.028326 0.139246 0.286334 -0.448423 0.359484 0.391377 0.139800 0.419409 -0.690181 -0.352312 0.425001 0.417479 -0.136983 0.040807 -0.838894 0.350100 -0.390233 -0.658688 0.109401 0.620161 -0.926907 -0.331434 0.506584 0.391301
7 -0.228681 -0.449801 -0.709368 0.342480 -0.136761 0.157988 -0.329445 0.128042 -0.576160 -0.631042 -0.051132 0.252138 0.458852 -0.373028 0.373052 0.218581 -0.462525 -0.341610 0.590671 0.301006 -0.267631 -0.101252 0.458891 -0.167104 -0.715218 0.177314 0.156204 0.484990 -0.336288 0.348774 -0.254002 -0.633479 -0.506097 -0.421018 -0.439964 0.026159 0.210052 -0.515789 0.254812 -0.557549 -0.393267 -0.165563 -0.407574 -0.223921 0.129648 -0.543622 -0.228042 0.410726 0.498136 0.301423 -0.386075 0.326964 0.201181 -0.030877 0.384958 0.184212 0.008605 0.516750 -0.014840 0.571865 -0.405024 0.380142 -0.361066 -0.449244 0.088087 -0.166122 -0.333689 0.326209 -0.049788 0.105420 -0.069735 0.111627 0.565848 0.496469 0.425625 0.427625 -0.300645 -0.189807 -0.285543 -0.186923 0.280879 -0.142671 0.149765 0.406734 -0.039228 -0.144837 0.603072 0.181246 -0.292513 -0.042332 0.715952 -0.119797 0.075372 0.032705 -0.050863 -0.079545 0.863351 0.093319 -0.249271 -0.048414 -0.372044 0.092415 0.630067 0.501872 0.250843 -0.622722 0.523060 0.171438 -0.549694 0.158626 0.055303 -0.075986 -0.590765 -0.492076 0.133710 -0.207739 0.041234 -0.205943 -0.163643 0.282066 -0.180277 0.227503 0.829801 -0.344979 -0.289377 -0.027301 0.070305 -0.349816 -0.232189 0.563905 -0.026738 -0.503449 0.391137 -0.586177 -0.267524 0.006714 0.431151 0.317563 -0.084646 -0.128379 0.298260 -0.428902 0.168748 -0.195107 -0.310350 -0.782045 0.254785 -0.281204 0.173681 -0.132372 -0.000068 -0.122909 0.171810 0.301334 0.123370 0.158016 -0.022654 0.229731 0.235169 -0.494009 -0.357252 -0.007029 0.154561 0.176126 0.472388 -0.190847 0.868884 0.018603 0.159520 0.406804 -0.228374 -0.129922 0.490985 0.426727 -0.005055 0.213539 -0.275351 0.264548 -0.968637 0.501324 0.235074 -0.628410 0.094471 0.101700 0.057958 -0.305132 0.030863 0.083449 0.717140 0.148358 0.079441 0.705429 -0.474756 0.138062 0.070369 -0.169446 -0.130159 0.687434 -0.475484 0.040615 0.296651 0.344142 0.340243 -0.158072 0.671840 0.143125 0.099413 0.282170 0.543312 0.007685 -0.149129 0.102083 -0.239470 -0.623608 -0.233042 -0.208647 0.222053 0.147410 0.022222 0.269702 -0.388267 0.314070 -0.123202 -0.245740 -0.000833 -0.256822 -0.532954 -0.054078 -0.228664 -0.480448 0.733297 -0.239718 0.145968 0.404264 0.209435 -0.371353 0.220085 0.147234 -0.173645 -0.496912 0.297271 -0.257684 -0.470307 0.181914 -0.410352 0.352455 -0.087846 -0.224584 0.519525 0.444252 0.343114 -0.067175 -0.077838 -0.154666 -0.182918 -0.154559 -0.127954 0.473925 0.454439 -0.550363 -0.285812 0.135365 0.294938 0.325606 -0.204795 0.303580 0.002434 -0.434876 0.549288 -0.361776 0.224086 -0.036266 0.010530 -0.613732 0.082701 -0.144230 -0.122846 0.085250 0.476796 -0.375819 -0.394609 0.235929 -0.072749 0.699022 0.028725 -0.177216 0.403142 0.196554 -0.417313 0.263920 -0.741977 0.516285 -0.040804 -0.074427 -0.479539 0.318633 -0.226998 -0.216384 -0.247962 0.132379
13 -0.483472 0.355927 0.324333 -0.112813 -0.470780 -0.358289 -0.657808 -0.367321 -0.263958 0.744476 0.174960 -0.020117 0.013539 0.868552 -0.023657 0.537066 0.326508 0.101373 -0.152028 -0.326626 -0.021642 -0.401318 -0.684748 -0.660291 0.308038 -0.410199 -0.527995 0.156084 0.216102 -0.223508 -0.307942 -0.517602 0.114647 0.271851 0.043516 0.061825 -0.210725 0.272622 0.641012 0.427196 -0.459882 -0.237762 -0.063389 0.036144 -0.444858 -0.393006 -0.079015 0.535073 -0.235551 -0.223218 0.296970 -0.195481 -0.047259 0.515394 0.731707 0.375479 -0.095626 -0.062319 -0.826077 0.298235 -0.171533 0.184868 -0.364538 -0.058115 0.680289 0.148938 0.568582 -0.039095 0.009060 0.062092 0.384777 0.454145 -0.254979 -0.060624 0.171959 -0.023895 -0.439661 -0.176557 -0.331957 -0.881191 0.095994 0.525901 -0.250221 0.295961 -0.337834 0.176902 0.106134 0.133562 0.080960 -0.496366 -0.443918 -0.175152 0.075697 -0.081120 -0.186269 -0.157615 0.036042 -0.473003 0.059578 -0.641180 0.676930 -0.475715 0.125124 1.044457 0.030929 -0.527782 0.555977 -0.236308 0.418693 -0.620937 -0.336950 -0.275520 -0.297941 0.095168 -0.134068 0.739233 0.531123 -0.197536 -0.179421 -0.648945 -0.188240 0.052544 0.297361 0.177345 0.447023 0.332298 -0.372853 0.196692 0.179046 0.294829 0.166868 0.417579 -0.220642 -0.218640 0.372721 -0.041136 -0.485202 -0.334428 0.106174 0.341532 0.209084 0.063126 0.195729 -0.107916 -0.431446 0.632413 0.670828 0.334247 0.303074 0.166014 -0.134517 -0.049810 0.133564 -0.849585 0.121410 0.169983 0.634615 -0.343799 -0.706081 0.143666 0.421931 -0.585221 -0.313646 0.437009 -0.295896 -0.306424 -0.917025 -0.313623 -0.188358 0.244932 -0.436199 0.477622 -0.076711 -0.621947 0.502185 0.249672 0.514589 0.379197 -0.568357 -0.074188 0.464329 -0.207753 0.249472 0.030583 -0.095703 -0.481065 0.272400 -0.381390 0.125873 0.196642 -0.418959 -0.022433 0.328532 -0.341510 -0.154914 -0.311482 0.262008 0.051734 -0.579942 0.115513 -0.097011 0.517488 0.371676 -0.252144 -0.408116 0.905968 -0.154617 -0.421131 0.012867 -0.232233 -0.091372 0.509410 -0.293977 0.455754 0.247728 0.319850 -0.093033 0.405093 -0.174849 -0.220331 0.116773 0.837228 0.477502 -0.175292 -0.175624 -0.262783 -0.118536 0.267881 0.059221 0.203464 -0.157402 -0.188111 0.132409 0.493227 -0.302997 -0.651840 0.169215 0.054129 0.235533 -0.332305 0.507178 0.152892 0.087429 0.476817 0.000158 0.442211 0.248132 0.158332 0.231556 -0.059330 -0.053010 0.083474 -0.390730 0.126856 -0.514822 0.213827 0.379761 0.029530 0.050625 0.483718 -0.323172 -0.026106 0.275439 0.219684 0.132995 -0.405074 -0.318948 -0.237359 -0.231201 0.221539 0.313706 -0.502017 0.356536 -0.083444 -0.094243 -0.026134 -0.249085 -0.028472 0.007726 0.362139 0.422859 -0.298504 0.162103 0.163270 -0.705701 0.426609 -0.467107 0.436526 -0.333346 0.292372 -0.516829 -0.074757 0.382321 -0.018919 0.299358 -0.169885 -0.187129 0.420076 0.463164 -0.114083
khu -0.221778 -0.113198 -0.126175 -0.284804 0.461575 -0.080955 0.254827 0.704229 0.242677 0.128216 0.074421 0.016036 0.140487 0.559652 -0.302378 0.069237 0.242825 -0.044392 0.549525 0.325015 -0.063268 -0.646118 -0.105420 0.040281 0.050172 -0.045806 0.211476 0.229346 -0.416860 -0.451677 0.296359 -0.052563 -0.639846 0.007402 0.114088 0.240984 -0.454054 0.160068 -0.508436 -0.706539 -0.764458 -0.321275 0.202867 0.030268 -0.334168 0.068489 -0.210494 -0.333128 0.489869 0.098461 0.185488 -0.174329 -0.612441 -0.443365 0.398950 0.406558 -0.306996 -0.641699 -0.352762 -0.136247 -0.517730 0.194312 0.075220 -0.226850 0.313960 0.467131 0.209922 -0.164664 0.160647 0.906632 -0.185701 0.914032 -0.066788 -0.268173 -0.148022 0.289905 0.668932 -0.193084 -0.018326 -0.095804 -0.192913 0.090144 0.646676 0.207427 -0.292274 -0.382793 -0.271538 0.298580 0.438740 -0.467310 -0.348480 0.334117 -0.060323 -0.240474 -0.130858 -0.670447 0.259026 -0.180449 0.706995 0.527924 0.045319 -0.738479 -0.344168 -0.162898 -0.452340 -0.541542 0.419078 0.045793 0.257708 -0.155849 0.400872 -0.345278 -0.006655 0.485769 -0.354158 -0.069129 -0.226444 0.447363 0.463728 0.257801 -0.329112 0.001142 -0.404374 -0.127331 0.140775 0.080546 -0.120561 -1.008917 0.074318 0.485651 0.022912 0.042456 0.495534 -0.513412 -0.131951 0.201265 -0.059066 -0.343723 -0.235898 -0.497500 -0.100571 -0.387147 0.281416 0.405863 -0.462973 -0.570038 0.129942 -0.485457 -0.395105 -0.013451 -0.055475 0.232124 -0.020347 -0.231242 -0.214943 0.397151 0.057461 -0.088849 0.212771 0.302002 -0.285870 0.140652 -0.557889 -0.058975 0.588433 -0.127093 -0.090440 -0.345283 -0.093184 -0.474410 0.453812 -0.293895 0.379504 -0.352014 0.320447 -0.282459 -0.424855 -0.020885 0.513849 -0.337450 0.153972 0.529235 0.225043 -1.059931 0.032851 -0.467593 -0.203018 -0.137037 0.268379 0.232033 -0.565954 -0.162141 0.484433 -0.296783 0.240237 -0.227374 0.447161 -0.085598 -0.173303 0.047235 -0.451157 -0.018195 -0.186465 0.124174 0.181601 0.329379 0.180559 0.660725 0.701618 -0.182696 -0.177897 0.015124 -0.190798 0.660887 -0.474709 0.511659 0.674889 -0.310230 0.242296 0.224264 0.011583 0.181374 0.064014 0.187810 0.179054 0.121919 -0.079242 0.306083 -0.229567 0.056078 0.839459 0.213654 -0.345044 0.396038 0.218609 0.338605 0.613372 0.306857 -0.514225 -0.509399 -0.182008 -0.096845 0.223186 -0.025143 0.383193 -0.221054 -0.201659 -0.120761 0.291793 -0.428286 0.450184 0.674699 -0.435003 -0.247723 0.164882 -0.131477 0.122776 0.489217 0.025366 -0.671958 -0.299546 -0.033843 -0.072314 0.259864 -0.044444 -0.165227 0.262601 -0.035597 -0.105952 -0.590056 0.195624 0.054928 0.505857 0.044158 -0.308065 -0.396433 0.577912 -0.037682 -0.273500 -0.305946 0.023368 0.336407 -0.005670 -0.450460 -0.353158 -0.245038 0.469488 0.566517 -0.161717 -0.382893 0.035958 -0.325982 0.047048 -0.358748 -0.280154 0.139072 0.005337 0.490775 -0.030336 0.003335
trở_lại 0.225868 0.029307 -0.088385 -0.090455 -0.811552 -0.169829 -0.291348 -0.057288 0.022381 -0.040323 -0.153296 0.362830 0.213987 -0.291851 0.453242 0.073705 -0.175905 0.007680 -0.290649 0.195713 -0.253163 -0.164427 0.232764 0.499681 0.442983 -0.379195 -0.111809 -0.078720 0.075994 0.721334 -0.375478 0.149264 -0.323389 -0.211511 -0.032735 -0.597636 0.214699 -0.235630 0.026272 0.241653 -0.070553 0.109776 -0.482251 0.163991 0.011197 -0.253948 0.065289 -0.019165 0.053191 -0.339707 0.367312 0.133113 -0.159358 0.138641 -0.594132 -0.635921 -0.244260 0.213182 -0.326221 -0.075886 -0.257272 0.298318 0.188704 -0.224106 0.286078 0.298085 -0.110252 0.349936 0.410360 -0.026776 -0.024732 -0.170436 0.081851 0.550916 0.180637 -0.054832 -0.468040 0.011778 0.280695 0.133082 0.035951 -0.029907 -0.204583 -0.661943 0.183814 0.125342 0.256571 0.088617 -0.530741 0.025203 0.365972 0.053898 -0.546459 0.013430 -0.469043 0.078869 0.437767 -0.311514 0.164128 -0.727988 -0.183115 0.848114 -0.293830 -0.211214 -0.051646 0.232280 -0.606918 -0.113579 -0.196911 -0.095145 0.131608 -0.092881 0.330277 0.013616 0.128498 0.493440 0.169826 -0.258969 -0.297336 0.041699 0.508754 0.127734 0.011383 0.270416 -0.389135 -0.139596 0.128984 0.052336 0.249280 -0.310157 0.208041 -0.037207 0.098026 -0.312073 -0.111539 0.032576 0.051129 0.109513 0.163949 0.666330 -0.302255 -0.467520 -0.403666 -0.197469 -0.113239 1.023358 -0.281387 0.462570 -0.132435 -0.503187 0.395090 -0.338531 -0.330098 -0.224713 0.051873 0.340576 0.070537 -0.291008 -0.421620 0.116037 0.425565 0.120026 0.161617 0.281645 -0.302909 0.682056 -0.213040 0.556356 -0.094192 -0.026629 0.176071 -0.059936 -0.710664 -0.612691 0.170981 0.163058 -0.084325 -0.007397 -0.577986 0.482590 -0.129360 0.121804 -0.185715 0.285545 -0.115193 -0.120309 -0.542804 0.004699 -0.453598 0.066282 0.323310 -0.195466 0.209001 -0.170789 -0.260156 0.381862 -0.209753 0.262695 -0.063337 -0.286964 -0.244017 -0.308457 0.174817 0.074605 0.486805 0.048687 0.084471 -0.479155 -0.252056 0.348867 -0.151082 0.823274 0.233099 -0.585061 0.759125 -0.170799 -0.219348 0.263882 -0.247242 -0.392649 -0.107245 0.091902 -0.436063 0.224814 -0.455443 -0.046333 0.104926 -0.328158 0.242591 -0.490056 0.231334 -0.222634 0.692316 -0.611149 0.142172 -0.050196 -0.214686 -0.460024 0.571954 0.243239 0.204657 -0.113270 -0.191251 0.046465 0.139094 -0.110077 -0.047587 0.632743 0.451526 -0.042272 -0.688619 -0.097361 0.093767 0.088306 -0.004109 0.332505 0.381188 -0.183901 -0.250520 0.464847 0.469639 0.211111 0.469302 -0.292323 -0.312470 0.151996 -0.091934 -0.051437 -0.114233 0.319712 -0.260029 0.214552 -0.009057 -0.343153 0.206181 -0.008626 -0.252609 0.242368 0.476636 -0.029001 -0.182221 -0.293404 -0.416116 0.091853 -0.010008 0.075492 -0.394043 -0.094723 -0.198670 -0.003625 -0.046313 0.613384 0.605036 -0.143602 -0.037591 0.150958 -0.166566 -0.442653 -0.775363 -0.077241
3 0.072173 -0.017551 -0.567534 -0.251994 -0.847628 0.503437 -0.858470 0.056872 0.267915 -0.224722 0.138461 0.311106 0.599273 -0.799035 0.421524 -0.052600 -0.226958 -0.382328 0.243083 -0.638427 -0.239415 -0.344093 0.240805 0.179454 -0.352376 -0.724962 -0.002465 0.786066 -0.475165 0.314963 -0.424015 -0.022937 0.192175 0.248294 -0.170779 0.455352 -0.040873 -0.503651 0.613334 -0.773118 0.022573 -0.168535 -0.732175 -0.355003 -0.149994 0.259291 -0.003766 0.510235 0.632914 0.168920 -1.039324 -0.019253 -0.051517 -0.794269 -0.095293 -0.104345 -0.649227 -0.895419 -0.571727 0.058193 -0.608879 0.723536 0.507941 -0.857418 -0.396410 -0.616364 -0.143360 0.628798 0.126369 -0.935621 -0.113878 0.631943 0.807900 0.926270 0.187210 0.198707 -0.577076 0.152942 -0.247040 0.048542 0.351766 -0.002799 -0.694436 0.520775 -0.017283 -0.052057 0.562909 0.459917 0.037618 -0.236156 1.108881 0.874159 -0.015649 -0.509578 0.230320 0.568369 1.117528 -0.110605 0.063617 0.356034 -0.391966 0.393692 0.816717 -0.486365 -0.169990 -0.517766 -0.212061 -0.325535 -0.938739 0.659491 -0.269189 0.388297 -1.025268 -0.696386 0.296102 0.196984 -0.267342 -0.257583 0.725391 -0.111404 -0.814087 -0.050085 0.573492 -0.004189 -0.033464 -0.236689 0.418678 -0.433900 -0.108772 -0.201247 -0.542044 -0.247499 0.194032 -1.052106 -0.179450 -0.080617 -0.214613 0.342340 -0.098867 -0.003985 0.409180 -0.264637 0.684430 0.493744 0.660671 0.279020 0.565785 -0.680084 0.260650 -0.084585 -0.063549 0.501792 0.881585 0.121381 -0.434852 -0.048923 -0.111476 0.035647 -0.140238 -0.558342 0.074329 -0.378890 0.049734 0.171857 0.254133 0.528405 0.478461 0.658688 0.186813 0.012812 -0.598956 0.173803 0.919097 -1.175504 0.052341 0.318383 -0.978756 0.541139 -0.282149 0.139438 -0.142958 0.083389 -0.567640 -0.860974 -0.188991 0.279800 -0.198751 0.136879 0.913436 0.349984 0.224802 0.748964 0.037271 -0.052107 0.915374 0.450249 -0.873710 0.557184 -0.396791 0.179755 0.309660 0.086656 -0.241284 0.325098 -0.031811 0.821666 0.242242 0.203308 0.275763 0.388061 0.319860 0.726912 0.584759 -0.209476 -0.428763 -0.864668 -0.438701 0.991277 -0.202500 -0.949139 0.448994 0.157003 0.316724 -0.316704 0.186700 -0.095115 -0.236706 -0.356586 -0.473407 -0.585572 0.047517 -0.453691 0.500977 0.041983 0.509071 0.177475 0.205239 -0.740063 0.371362 -0.112766 0.275491 -0.652588 0.802064 0.034030 -0.700611 0.124011 0.000024 0.425870 1.063117 -0.346893 0.205535 -0.151592 0.156244 0.034617 -0.412932 0.018365 -0.897893 -0.088078 0.026573 -0.655794 -0.380204 -0.139865 0.560208 0.390534 0.215771 -0.473455 0.581550 -0.277580 0.373374 -0.072050 0.006442 -0.079439 -0.085146 -0.093517 0.486984 -0.549483 0.266043 -0.127334 0.021852 0.100422 0.600339 0.473571 -0.422826 0.485696 -0.545354 -0.862491 0.532873 -0.251340 -0.827750 -0.120906 -0.850706 -0.064619 -0.315309 0.106786 -0.980451 0.389146 -1.157613 0.370456 -0.292062 0.054187
6 0.810095 0.686012 0.221982 -0.188282 -0.391798 -0.111630 -0.008505 -0.285862 0.078344 0.050515 -0.152564 0.485326 0.304814 -0.663053 0.908749 -0.239356 0.219313 -0.171060 0.613862 -0.229000 -0.098659 -0.469391 0.272510 0.750324 0.000836 -0.144631 0.158452 0.547664 0.182899 -0.244415 -0.128878 0.275821 0.705056 -0.139537 -0.256269 -0.194510 -0.277699 -0.715418 0.599822 -0.208369 0.050145 0.556613 -0.703811 0.120914 -0.328230 0.042593 0.666534 0.423411 0.587283 0.173557 -0.582249 0.205775 -0.681415 -0.238440 0.475657 0.267432 -0.677984 -0.984361 -0.374723 -0.437260 -0.205642 0.059246 0.349377 -0.334267 -0.488897 0.155858 -0.436211 0.331101 -0.299317 -0.204847 -0.437082 -0.049743 -0.155218 0.848841 -0.205884 -0.863506 -0.052694 0.105085 -0.461327 -0.051194 -0.189806 0.392172 -0.080014 0.775249 0.539689 -0.121964 0.523172 0.595703 0.092542 -0.169857 0.715519 0.130057 -0.431461 -0.239657 0.435924 0.420801 0.367435 0.044518 0.697068 0.251637 0.440697 -0.443599 0.907653 -0.356175 0.050429 -0.161542 0.175590 -0.294803 -0.615721 0.901142 -0.625807 0.965067 -0.763574 -0.303108 0.073729 0.284137 -0.411070 -0.499895 0.479603 -0.798279 -0.202228 -0.199121 0.149996 0.194581 0.094999 0.081693 0.259451 -0.200856 -0.708646 0.414540 -0.523138 -0.703098 -0.303178 -1.037527 -0.121634 -0.502446 -0.487729 -0.052906 -0.119978 0.561230 0.349712 0.130683 0.406630 0.269796 0.170195 0.256195 0.228163 -0.915680 0.437240 -0.293846 0.232479 0.310248 -0.087512 -0.004995 0.057738 0.308710 0.157469 -0.319124 -0.914104 -0.193962 -0.033022 -0.163540 -0.101513 0.088729 0.134211 0.276987 -0.485331 0.447196 1.002605 0.421311 -0.379978 0.213797 0.166520 -1.333759 0.684904 0.077951 -0.261967 0.491136 -0.335465 0.392220 -0.302643 -0.119532 -0.730110 -0.259440 0.171800 0.411531 -0.542127 -0.630531 0.319586 0.511105 -0.137010 0.714911 0.452829 -0.520605 0.709322 0.694621 -0.842707 -0.042299 -0.582582 -0.447159 -0.100363 -0.142180 -0.527446 -0.223164 -0.420455 0.404226 -0.599621 -0.437094 0.091230 0.887079 0.595923 0.127648 -0.012365 0.092766 0.361560 -0.814795 -0.124210 0.448744 -0.014872 -0.770135 0.432929 0.103135 -0.042301 -0.293075 -0.011021 -0.523624 -0.438257 -0.447718 -0.356009 -0.427441 -0.153531 -0.458823 0.252500 -0.005175 0.084987 -0.503649 -0.469170 -1.074327 0.157907 -0.402833 0.054000 -0.358541 0.182274 0.204128 0.097310 -0.563219 0.266630 -0.154680 0.405850 -0.001803 0.336746 -0.225557 0.037490 -0.333420 -0.019822 0.131025 -0.484823 -0.045116 -0.109628 -0.275671 -0.416100 0.158092 0.243917 0.729417 0.514777 -0.505579 0.148735 -0.186041 0.100624 0.237169 -0.278035 -0.240576 -0.596249 0.059835 -0.204542 -0.202448 -0.065040 0.401607 0.003958 0.257841 0.462060 0.235465 -0.241531 0.237992 -1.257412 -0.705281 0.513519 0.246888 -1.158094 -0.012472 -0.273923 -0.182894 -0.425012 -0.847053 -0.433068 0.375644 -0.993195 0.809971 -0.343189 0.310741
9 -0.160433 0.510638 0.080504 -0.139460 -0.083835 -0.369084 -0.320153 -0.172736 0.052542 0.208468 0.060292 0.168874 0.366367 -0.160197 0.765306 0.437646 0.362817 -0.955742 0.999835 0.559479 0.126217 0.094097 -0.227307 0.275633 0.100415 -0.454697 -0.384306 0.123834 -0.202443 0.244591 -0.257723 -0.125843 0.061881 -0.367902 -0.171016 0.155885 0.305235 -0.428042 0.450424 -0.297558 -0.538568 -0.295576 -0.672897 0.186222 -0.387078 -0.763655 0.513233 0.931164 -0.109398 0.423944 0.195338 -0.048819 -0.028158 0.544223 0.710542 0.151779 -0.431795 -0.296062 -0.729525 0.117902 0.089139 -0.300028 -0.334062 -0.307753 0.107233 0.144831 0.372661 0.263103 -0.303712 0.126501 0.588184 0.520329 -0.012720 0.767257 0.245547 -0.620031 -0.332409 -0.147070 -0.943143 -0.818009 -0.585879 0.672820 0.486857 0.280137 0.123346 -0.429085 1.001512 0.585244 0.413275 -0.978401 0.488531 -0.153702 -0.291725 -0.483478 0.496706 -0.376003 0.358862 -0.064810 0.483437 -0.377417 0.192285 -0.150186 0.494167 0.503385 -0.408950 -0.472189 0.270074 0.385480 0.170588 -0.140994 -0.700073 0.414385 -0.515341 0.362611 -0.160933 1.187633 0.442459 0.087713 -0.358197 -0.926219 0.284275 -0.238314 0.378745 0.536750 -0.273194 -0.200623 0.308862 -0.517569 -0.341765 0.351348 -0.357755 -0.273741 -0.445216 -0.893688 -0.610387 0.027156 0.043866 0.354027 -0.361134 0.710067 0.309987 0.006564 0.599293 -0.045189 0.168825 0.540472 0.586144 -0.464362 0.241984 -0.784207 0.304490 -0.517592 0.083548 -0.339856 0.342454 0.392920 0.175438 -0.781172 -1.193577 -0.253553 -0.212749 -0.562867 -0.537920 0.763247 -0.113185 0.638921 -0.366103 -0.147717 0.732012 0.493320 0.408140 0.528138 -0.155612 -0.213619 1.163777 -0.369599 -0.155818 -0.061554 -0.924929 0.503669 -0.489550 0.242795 -0.384059 0.184139 0.001906 -0.050539 -0.410224 -0.646842 0.223156 0.858046 -0.234308 0.229149 0.408962 -0.444447 -0.005668 0.144707 -0.657278 0.264826 0.023103 -0.541574 0.290055 -0.239123 -0.316455 0.228960 0.287619 0.403828 -0.035074 0.062291 0.761024 0.361501 0.139179 0.280522 -0.683793 -0.062988 0.413236 -0.199344 0.172152 -0.107976 -0.526999 -0.530203 0.422946 0.341610 0.156831 -0.405302 -0.200972 -0.103194 -0.533437 -0.018006 -0.694361 -0.232499 0.163161 -0.488845 0.561621 0.194515 0.075833 -0.345912 -0.371944 -0.345936 0.749466 -0.166017 0.472434 -0.690019 0.166589 0.383825 0.318247 -0.036842 0.422421 -0.287093 0.577338 0.107752 -0.240829 -0.125072 -0.264634 0.023566 -0.082872 0.101311 -0.478669 0.614105 0.136588 0.186922 -0.341899 0.141399 -0.082027 0.134326 0.339037 -0.522046 -0.142693 -0.326344 -0.059388 -0.131088 0.100389 -0.268685 0.390177 -0.733683 0.003050 0.395333 -0.098059 -0.020350 0.318228 0.715751 0.380376 -0.201290 0.107756 0.297303 -0.948074 -0.301109 0.164267 0.320123 -0.788639 0.283860 -0.638904 -0.062303 0.097865 -0.143499 -0.818506 0.183089 -0.499679 0.731884 0.150327 -0.298419
