70 300
. 0.228351 -0.162674 -0.549041 -0.007470 -0.046908 0.418430 -0.020776 -0.562811 -0.470657 -0.031197 -0.352842 0.463105 0.578341 -0.059107 0.425989 -0.440836 -0.029516 -0.275271 -0.481212 0.033576 -0.123077 -0.444150 -0.009057 0.126754 0.032047 -0.701023 0.358882 -0.047338 0.107150 0.255061 0.288637 0.195601 -0.545104 -0.214109 -0.025153 0.164798 0.250665 -0.133289 -0.113087 0.250482 0.294439 -0.456042 0.007051 0.563656 0.267518 -0.733552 -0.238100 0.115731 0.065968 -0.358401 -0.217209 -0.446425 0.033255 -0.247983 -0.498872 -0.342308 -0.211237 0.068240 0.019965 -0.206233 0.057841 -0.001703 0.342041 0.126299 -0.349164 0.185258 0.177522 -0.382582 -0.379961 0.750757 -0.141511 -0.154730 0.238135 -0.284564 -0.248226 -0.101377 0.100759 -0.122351 0.171810 0.439857 0.013855 -0.193547 -0.086164 -0.617182 0.185602 0.070915 -0.005794 0.155534 0.241138 0.344304 -0.290439 0.518854 -0.017587 0.009969 0.078023 -0.449350 -0.192165 0.116082 -0.103435 0.039637 0.461448 0.200078 0.226792 -0.166364 -0.835186 0.150724 0.515549 -0.328038 -0.112170 -0.332138 -0.279898 0.830986 0.093893 -0.133283 0.081021 0.504574 -0.117095 -0.177688 0.081661 0.064130 -0.503125 0.499558 0.172119 0.084842 -0.669715 -0.569328 0.043367 0.327654 0.072285 -0.167058 0.190367 0.207090 0.263974 -0.117843 0.397794 -0.273643 -0.066311 0.116431 0.183889 0.046963 -0.104272 0.280651 -0.096288 -0.032039 0.195162 -0.088369 -0.279149 -0.092574 0.216236 -0.237740 0.235696 0.767570 -0.070989 -0.448292 -0.000918 0.252000 0.454026 0.016422 0.231678 -0.079719 -0.264982 0.395266 -0.078174 -0.079348 0.278954 0.318311 -0.356955 0.451637 -0.208167 -0.187349 -0.610540 0.277667 0.277812 0.165764 0.034694 -0.265953 -0.197703 0.519309 -0.308176 -0.119908 0.178293 -0.370528 0.093205 -0.234552 0.408612 -0.279621 0.394791 -0.425201 0.424794 0.237465 0.246913 -0.074488 -0.572285 -0.411759 -0.235383 -0.395939 0.322662 -0.098474 0.584474 0.360281 -0.452363 -0.261233 0.214681 0.270548 -0.211907 -0.419097 0.231911 0.273891 -0.272844 0.042638 0.077908 0.004008 -0.465569 -0.499966 0.413040 -0.261994 0.014213 -0.039188 -0.278534 -0.226497 -0.310913 0.199005 0.086322 -0.287725 -0.032856 0.170222 0.025033 -0.308286 0.381814 0.346858 -0.045677 -0.772018 0.398097 -0.680864 0.113021 0.201567 -0.430068 0.163890 0.199963 0.095732 -0.415883 0.284019 -0.254318 0.140797 -0.242497 -0.265668 -0.320304 -0.306732 -0.087853 0.026388 -0.383713 -0.424128 -0.131133 0.202264 0.464086 0.118838 0.164051 -0.313644 -0.057388 0.028487 -0.299989 -0.476533 0.131229 -0.229602 0.748669 0.205246 -0.074630 -0.479035 0.550147 -0.620675 0.013374 -0.116006 -0.518922 0.034219 -0.001897 -0.283639 -0.075454 0.016646 -0.301267 -0.120350 0.373773 0.463744 0.436501 -0.144716 0.417879 0.029112 0.106049 0.049849 -0.239338 0.559564 -0.270045 0.130840 -0.390053 0.042439 -0.315351 -0.229751 0.083245 0.177375 -0.170136 -0.447533
đến 0.131672 0.069677 -0.194555 0.477470 0.303994 0.055971 0.179557 -0.438984 -0.603649 0.220246 -0.063691 -0.208812 -0.183110 -0.535256 -0.397858 0.279353 -0.116113 -0.672765 -0.825972 0.136811 0.128353 -0.395012 0.966717 -0.072928 0.407501 -0.436900 -0.372199 -0.016087 0.340037 0.019221 0.287450 0.147347 0.024250 0.046721 -0.227835 0.166928 0.128141 0.502035 0.165786 0.631411 -0.018615 -0.459662 0.293822 0.815598 -0.097904 -0.910068 -0.028975 0.137139 -0.522030 0.068828 -0.639580 -0.271899 0.077850 -0.168639 -0.359936 0.412860 0.114264 0.339564 0.138792 -0.453595 -0.214335 0.151915 0.532955 -0.585913 -0.302187 0.290393 -0.275128 -0.260864 -0.354354 0.680429 0.243315 0.417867 0.198843 0.171841 -0.653474 0.060966 -0.040776 -0.334174 0.095766 -0.230714 0.808858 0.099138 -0.203295 -0.011671 -0.310629 0.009546 0.415924 0.151990 0.689124 0.189254 -0.019593 0.214868 0.543291 0.189253 -0.144804 -0.040411 -0.508918 0.545097 0.369131 -0.813896 -0.227666 0.142362 0.300377 -0.254973 -0.385902 0.336286 -0.661739 -0.029307 0.227149 0.843841 0.134997 -0.002280 0.163491 0.271159 -0.264028 -0.019241 -0.671783 0.011126 0.600174 0.116410 -0.148569 0.496516 0.290042 0.402443 -0.248024 0.195338 0.434072 -0.391432 -0.110692 0.355767 -0.247790 0.298238 0.368956 -0.567875 -0.191089 -0.567489 0.171460 -0.078551 0.303573 -0.301035 -0.031498 -0.035191 -0.191929 -0.272997 -0.089274 0.472613 -0.036311 -0.420017 0.431406 0.064130 -0.092022 0.046019 0.001252 0.127463 -0.114614 0.459355 -0.317549 -0.225574 0.662369 0.128886 0.346981 -0.041878 0.009978 -0.018911 -0.134961 -0.081220 -0.287250 -0.159579 0.002326 -0.150285 -0.154908 0.287790 -0.335294 0.018907 0.474850 0.314826 -0.688577 0.141674 0.441774 -0.283875 -0.549166 0.181523 0.133296 -0.471804 -0.518360 0.041845 0.188119 -0.051322 0.750541 -0.296636 0.339092 -0.294622 0.180158 -0.092896 -0.419235 -0.128654 -0.160810 -0.196602 0.336955 -0.005246 -0.474922 0.099250 -0.184147 -0.257879 -0.116254 0.004882 0.125496 0.184572 -0.096758 0.216670 -0.288395 -0.122513 -0.642658 -0.037277 0.465521 0.078290 -0.287734 0.120669 -0.104218 0.024598 0.066279 -0.195640 -0.357213 -0.541068 -0.331347 0.345020 0.251722 -0.124677 -0.249272 0.386897 0.290923 -0.476174 0.521157 0.288839 -0.235270 0.148485 0.292908 0.409668 0.316071 -0.214240 -0.217915 0.225286 -0.214190 -0.022097 -0.099943 -0.023810 -0.044120 0.425757 -0.443806 -0.178727 0.252751 -0.399412 -0.358451 0.155596 -0.328732 0.218125 -0.156563 0.337859 -0.291028 0.178450 -0.079044 0.514927 -0.113338 0.078106 0.137481 0.042972 -0.298849 -0.328202 -0.338574 -0.285808 -0.192869 -0.390829 0.203605 0.563190 0.098732 -0.236045 -0.624007 0.450220 0.155217 0.201158 -0.609115 -0.114074 -0.047710 -0.466120 0.025412 -0.137475 -0.354782 0.024047 -0.023672 -0.177741 0.143505 0.133596 -0.354583 -0.638338 0.130135 0.767182 0.013999 -0.606102 -0.432794 0.045988
đi 0.857102 -0.049021 -0.460186 0.062559 -0.098106 -0.165242 -0.201631 -0.101689 -0.142166 -0.404467 0.088746 0.503699 0.642100 0.022220 0.236878 -0.516409 0.266625 -0.058341 -0.131876 -0.200015 -0.411011 -0.198208 0.013577 0.206551 0.005419 0.167402 -0.671005 -0.556081 -0.297179 0.030800 -0.166621 0.301761 0.112581 0.092544 -0.485859 0.059108 0.088129 0.751809 -0.140821 0.012357 -0.085318 -0.353289 -0.172480 -0.395086 0.638116 -0.271216 -0.275328 0.059167 -0.369472 0.176759 -0.281774 -0.067628 0.432353 -0.279767 0.407818 -0.162720 0.311232 -0.114593 0.378379 -0.242847 0.133164 -0.071424 0.818133 0.173338 -0.194037 0.503635 0.025874 -0.416151 0.022964 -0.166410 0.210029 0.165416 -0.010260 -0.731240 -0.080729 -0.250797 -0.235985 0.204829 -0.418990 -0.242682 0.193646 0.339458 -0.506274 -0.445231 0.186111 0.620033 0.498417 -0.156986 0.035978 0.502777 0.257001 1.024729 0.336030 0.183355 0.221009 -0.666943 0.469840 0.411686 -0.088513 -0.173614 0.096049 0.090304 -0.294514 -0.039493 -0.448399 0.031178 0.371600 0.055414 0.213338 0.156615 0.036802 -0.287643 0.198020 0.232515 -0.181026 0.194928 -0.326086 -0.432874 0.113564 0.056130 -0.092089 -0.038608 0.086870 0.154601 -0.258142 0.100527 0.054736 0.402811 -0.198443 0.279332 0.175680 -0.287799 0.000266 0.550850 0.263928 -0.282428 0.312216 0.419134 0.447979 -0.041951 0.294752 -0.039645 -0.134006 0.232150 -0.258545 -0.371457 0.000990 0.279664 -0.009207 -0.354048 0.398128 0.031550 0.008066 -0.226844 0.479258 0.234806 -0.005867 0.457511 0.394367 0.413505 -0.024648 -0.136461 -0.050128 -0.429941 0.493124 0.191245 -0.346989 0.363022 -0.077265 0.365812 -0.026392 -0.058187 0.014344 -0.227377 -0.233350 0.133144 0.172885 -0.799388 -0.042686 0.107995 0.174513 0.168662 0.311652 -0.180124 0.252090 -0.469250 0.070470 -0.145062 0.587145 0.156366 -0.286393 0.285160 -0.365204 -0.356943 0.329258 -0.312617 0.128108 -0.391346 -0.414527 0.300759 -0.160646 -0.216343 0.021593 0.443398 0.253241 0.018743 -0.113490 0.334816 0.064183 -0.107498 -0.107454 -0.407297 -0.029171 0.015445 0.147538 0.103000 0.484196 -0.205819 -0.026949 0.101729 -0.017559 0.473436 0.129758 -0.066502 0.223632 -0.069111 -0.134491 0.327069 0.530157 -0.293941 -0.140542 -0.906079 -0.006767 -0.734686 0.531878 -0.294292 -0.271587 0.301793 -0.333924 0.544935 0.091854 0.645189 -0.386195 -0.073248 0.192786 -0.248429 0.216550 0.186716 -0.355893 0.418290 -0.371168 -0.484314 0.090802 -0.068761 0.597781 0.342887 -0.265734 0.197422 -0.357466 0.019119 -0.230892 0.215282 -0.490501 -0.280036 0.591168 -0.380396 -0.005331 -0.273423 -0.040434 -0.738747 0.475063 0.407005 -0.282091 -0.403602 -0.035915 -0.395486 0.199324 0.314034 -0.627467 -0.312661 0.178427 -0.077319 0.078564 -0.193172 -0.564753 0.169774 0.274190 -0.506754 0.228398 -0.211062 0.043307 0.418152 -0.164401 -0.530069 -0.450344 0.212059 0.025156 0.356924 -0.474762 0.794534
? 0.333431 0.045516 0.254380 -0.116443 0.421182 -0.456088 -0.627679 0.422192 -0.295861 0.227426 0.516984 -0.205471 0.179991 0.267245 -0.431171 0.196212 -0.158691 0.143435 0.046276 -0.055422 0.141986 -0.571004 0.426226 0.250800 -0.118479 -0.172352 0.780262 -0.298533 -0.345735 -0.412806 0.051859 0.615602 0.317829 0.510650 -0.383874 0.168205 0.317482 0.309819 0.212995 0.223282 -0.118442 -0.585619 -0.271827 -0.187582 -0.180974 0.627461 0.052849 -0.194183 0.571744 0.130008 -0.283056 0.375188 -0.883781 -0.377449 0.198588 0.280102 0.094150 -0.685196 0.219433 0.091156 0.018656 -0.555400 -0.626964 -0.046010 -0.030955 -0.207969 -0.503951 0.324722 -0.243285 -0.848411 0.224647 0.089532 -0.740056 0.284358 -0.393723 -0.544771 0.645080 -0.415344 -0.379954 0.183174 -0.372078 -0.198600 -0.078601 0.255968 -0.283274 -0.034959 -0.836713 -0.559923 0.184800 0.605602 -0.146449 -0.232767 -0.672925 0.006136 -0.361214 0.126580 -0.312359 0.364780 0.616031 0.404001 -0.407260 -0.363155 -0.013715 0.021887 0.297211 -0.724117 -0.076301 0.401892 -0.166737 0.437296 0.450131 -1.316879 0.017418 0.310628 0.248478 -0.309417 0.476302 -0.601268 -0.613828 -0.454070 0.616064 -0.495483 0.000964 -0.589565 0.582781 0.102914 0.208219 -0.423797 -0.762874 -0.507385 0.068862 0.228492 -0.667789 0.151305 -0.373045 0.452246 -0.577883 -0.200871 0.015784 -0.069097 0.359357 0.069987 0.782800 0.074126 -0.071962 0.235734 -0.091220 0.003051 0.310429 0.792146 -0.047603 -0.717561 0.400252 0.137487 0.398440 -0.333008 -0.140919 -0.065498 -0.195012 -0.449583 0.006203 0.283898 0.162434 0.362788 -0.247108 0.544912 -0.155174 -0.300747 -0.788091 -0.425517 0.235584 -0.246709 -0.028040 0.051142 -0.006522 -0.409623 -0.064277 -0.361232 0.211990 0.410745 -0.149987 -0.022755 -0.279405 -0.189626 0.284140 -0.429703 -0.415190 -0.253484 -0.604780 0.555031 -0.470514 0.036543 0.054222 0.352424 0.607612 0.409496 0.299125 0.388137 -0.635713 -0.056550 0.542325 -0.287296 0.115934 -0.158875 0.674030 0.452420 -0.194680 -0.115087 0.302457 0.265557 -0.254213 0.403128 -0.098219 -0.094979 0.002525 -0.041568 -0.634074 0.346490 -0.055939 -0.128268 0.220077 -0.258618 -0.153840 -0.302159 0.185619 0.007959 -0.397927 0.165872 -0.302548 0.015667 0.162334 0.686517 -0.225498 0.330614 0.268923 0.266971 -0.177463 0.073777 0.183047 -0.062613 0.715225 -0.158306 -0.089121 -0.346744 0.446714 0.429063 -0.154450 0.324011 0.007257 0.142102 0.631448 -0.248617 -0.286657 -0.557196 -0.825675 0.028560 0.131615 0.177693 -0.626616 0.087524 -0.232288 -0.170380 0.454439 0.727556 0.012321 0.680747 -0.018629 -0.207557 0.031636 1.014161 -0.076622 -0.365779 0.379371 -0.276789 0.700186 0.672193 0.244524 -0.084896 -0.349592 0.008986 0.458788 -0.081034 -0.229665 -0.243119 0.304180 -0.266129 0.595137 0.078254 -0.029791 0.038783 0.269589 -0.576961 0.148836 0.309664 -0.303330 0.518655 -0.312896 0.063026 0.077619 -0.457803
ở 0.165986 0.486140 0.003372 -0.055774 0.564604 0.206682 -0.220006 0.508748 0.466813 0.144179 0.021976 -0.584339 -0.161550 0.109254 -0.288326 0.141086 0.600479 0.462904 0.204696 -0.248536 0.405307 -0.057195 0.124333 0.173846 -0.465627 0.232344 0.852689 -0.548381 0.288693 -0.059762 0.541008 0.579066 0.416267 0.163363 -0.832318 -0.387265 -0.236705 0.230732 0.048604 -0.216635 -0.448528 -0.025648 -0.435987 0.193160 -0.028450 0.330127 -0.357466 0.340198 0.073435 -0.507671 0.471575 -0.292782 -1.100801 -0.104169 -0.068410 -0.161021 -0.164281 -0.746392 0.314451 0.214248 0.183105 0.327507 -0.050417 -0.237315 0.341788 -0.420319 -0.345394 0.106262 -0.025102 -0.861723 0.380616 0.430701 -0.535011 0.308784 -0.084102 0.160440 0.097469 -0.365969 0.250926 0.143090 0.511767 -0.496691 -0.502970 0.371307 -0.320187 -0.193194 -0.226480 -0.202957 0.472201 0.117449 0.187299 -0.121433 -0.420595 -0.466724 0.040738 0.034204 0.013683 -0.266015 0.702679 -0.243667 -0.260173 -0.311321 0.282558 -0.095793 -0.409479 -0.625309 0.512947 -0.188758 0.314496 0.512218 0.622359 -0.844094 -0.161385 0.036806 -0.489917 -0.232534 0.219945 -0.225045 -0.639452 -0.154404 0.176176 -0.220907 0.140452 0.064556 -0.070795 0.406907 0.528785 -0.205753 -0.671927 -0.452321 -0.037148 0.218130 -0.726028 -0.038878 -0.115956 -0.154859 -0.058318 0.346623 -0.188435 0.204637 -0.001932 0.349727 0.718126 -0.454463 0.152284 0.378320 -0.023652 0.393426 0.285836 0.587453 -0.085068 -0.423199 0.299108 0.106677 -0.421936 0.202816 -0.203153 -0.100789 -0.045729 -0.208711 0.278078 0.113728 0.577284 0.550183 0.287064 0.340634 -0.137316 0.127750 -0.781397 -0.613694 -0.288192 0.002171 -0.576038 0.157778 -0.511229 0.155475 -0.237524 -0.492520 -0.233110 0.109185 0.436507 0.066095 0.040560 0.074913 0.070377 -0.256250 -0.494767 0.439912 -0.445011 0.139309 -0.478054 -0.506210 0.093536 -0.485704 0.357030 0.386872 0.480939 0.036224 0.050302 0.465229 0.168578 -0.651648 0.375549 0.260848 0.289052 0.389679 -0.169875 -0.118367 0.372784 -0.251672 -0.409944 0.008828 -0.709023 0.001017 -0.126966 0.171704 -0.103360 -0.058252 -0.006302 0.427873 0.030054 -0.720559 0.144520 -0.161069 -0.201258 -0.333664 -0.448025 0.048500 0.261807 0.046372 0.052842 0.478865 -0.439139 -0.055122 -0.054031 -0.127751 0.322663 -0.040160 -0.198407 -0.209293 0.611069 -0.388835 0.634723 -0.460809 0.315910 0.290254 -0.246305 0.446899 0.397418 0.157389 0.283061 0.109307 -0.273220 -0.419046 -0.840608 0.356385 -0.277177 0.256326 -0.728415 -0.242495 0.335469 0.205092 -0.124402 0.184214 -0.199975 0.274036 -0.104562 -0.203625 -0.221714 0.950888 0.099918 0.066341 0.770698 -0.409715 0.292044 0.435597 0.361510 -0.292829 0.203958 0.104435 0.169908 -0.168920 -0.222209 -0.394330 0.191241 -0.561270 -0.648180 0.488392 -0.560011 0.107969 0.444935 0.085056 0.201685 0.093975 0.182280 0.409724 -0.147038 0.129791 0.367839 -0.073705
đâu -0.142168 0.403852 0.213970 -0.152591 0.428171 0.020071 -0.305475 0.448212 -0.078927 -0.123511 0.043244 -1.025880 -0.083969 0.384456 -0.032634 -0.172652 0.448211 0.326880 -0.203382 -0.182074 -0.069584 0.179013 0.219269 -0.329529 -0.412299 0.655814 0.415969 -0.732774 0.036542 0.197921 0.084515 0.258961 0.435861 0.881084 -0.867072 -0.280981 -0.124883 -0.230203 0.114565 -0.094804 0.006716 -0.636255 -0.069786 -0.331008 0.170983 0.449554 -0.340115 -0.117522 0.287364 0.247733 0.255677 0.081713 -0.364587 -0.416209 -0.098891 -0.216455 0.098453 0.041544 0.670332 -0.120386 0.043474 0.088441 -0.016090 0.120476 -0.163998 -0.123697 -0.669823 0.192611 -0.214513 -0.757197 -0.221236 0.251050 -0.565145 0.036816 -0.816258 -0.464332 0.778034 0.221483 0.387505 0.920250 0.244743 -0.043911 -0.018156 0.159409 0.149070 -0.314213 -0.784560 0.160495 -0.178478 -0.048691 -0.443098 -0.632190 -0.827732 0.222892 -0.008142 0.387722 -0.273226 0.235435 0.618621 0.232017 -0.860652 -0.040359 0.036553 0.109808 0.402660 -0.606114 0.243140 0.392050 -0.400969 0.158166 0.519077 -0.597026 0.373296 0.521482 -0.402898 0.042868 0.069531 0.238512 -0.665314 -0.182382 0.602960 -0.442162 0.093098 -0.600433 0.630903 0.341267 -0.216652 0.009885 -0.166321 0.213708 -0.425972 0.144023 -0.070799 0.091521 -0.723157 -0.127715 -0.358167 -0.331640 0.031112 -0.507459 -0.420878 -0.293229 0.056437 0.117007 0.012447 -0.578205 0.370638 0.417729 -0.343908 0.882888 0.156516 -0.355100 0.064145 0.062551 0.296641 -0.490124 0.612791 0.137195 0.079953 -0.135021 0.403952 0.005028 0.738449 0.610331 -0.140951 0.017061 -0.296669 -0.202961 -0.542563 0.199687 0.371143 -0.016031 -0.224721 -0.316488 -0.133002 0.081642 0.059221 -0.523287 -0.091429 0.252720 -0.201485 -0.472927 0.366893 0.283860 -0.173925 -0.010047 -0.472413 0.110039 -0.599680 0.421741 -0.587059 -0.343683 0.015340 -0.156718 0.425789 0.485584 0.373481 0.150153 -0.285129 0.316650 0.546682 -0.078364 0.274802 -0.419692 0.529500 0.299246 -0.119871 0.482223 0.308706 -0.183133 -0.219378 0.423948 -0.168299 -0.382750 0.418784 0.442314 -0.038960 -0.077186 -0.035755 0.268830 -0.431410 -0.356110 -0.667574 0.167147 -0.119631 -0.160904 0.098864 -0.161164 -0.024435 0.415955 -0.095921 0.571921 -0.261744 0.927055 0.284827 0.560134 0.333625 -0.090792 0.308454 -0.087149 0.773892 -0.317812 0.395770 0.357938 0.395773 0.600202 0.026691 0.806575 -0.291238 -0.193697 -0.151406 0.478558 -0.405070 -0.752244 -0.103486 -0.022532 0.255703 -0.311403 0.119448 0.249745 -0.052677 -0.049945 -0.251841 0.290563 -0.323288 0.135795 -0.189721 0.361933 0.125376 0.704089 0.187017 0.207736 0.503161 -0.356506 0.749755 0.582132 0.342846 0.014113 0.450395 0.046997 0.211937 -0.141645 0.232738 -0.192156 0.463884 -0.336818 -0.000613 0.227843 0.385572 0.266684 -0.135877 -0.661958 0.215093 0.196810 0.329969 -0.098598 -0.585726 -0.061537 0.363973 -0.618218
Sandra -0.206167 -0.429442 0.242344 -0.443278 -0.237269 0.014347 0.453657 -0.193055 0.036632 -0.103371 -0.195996 0.104045 0.056855 0.046068 0.328635 -0.059624 -0.184239 0.183414 -0.002360 -0.063566 0.031966 0.005356 -0.353173 0.239189 0.254580 -0.122588 0.148901 0.426743 -0.373994 0.342133 -0.319105 -0.395743 0.049016 0.061109 0.461489 0.200297 0.400517 -0.503989 -0.136081 -0.261739 0.078499 0.472912 -0.126583 0.015723 -0.224670 0.124838 0.345782 -0.251598 0.040118 0.079937 0.080766 0.712576 -0.186650 0.101547 0.098637 0.146480 -0.231282 0.087389 -0.841759 -0.105298 -0.020693 0.086576 -0.446165 0.333764 0.039387 -0.153186 0.504771 -0.140017 -0.165227 0.121969 -0.036545 -0.208567 0.625583 0.001618 0.271893 0.052226 -0.392687 0.122055 -0.089562 -0.176538 -0.525471 -0.034626 0.240126 -0.115988 -0.004593 0.310264 -0.644748 0.185966 -0.007217 0.107255 0.122867 -0.432874 0.213958 0.043761 -0.076891 0.175735 -0.336155 0.337189 -0.461789 0.612556 0.221837 0.451056 -0.003223 -0.082820 0.521218 0.632180 -0.060110 -0.331282 -0.309114 -0.118109 -0.423555 0.047782 -0.230307 -0.056312 -0.215248 -0.171505 -0.175930 0.090657 0.126118 0.130903 -0.493921 0.201752 -0.507272 0.226133 -0.364835 -0.133498 -0.378310 0.440700 0.011951 0.041188 0.349346 -0.067689 0.197679 0.035084 0.356802 0.447992 0.200235 0.091857 -0.142957 -0.587666 0.115324 0.033696 -0.336941 0.173178 0.033163 0.313043 -0.130745 -0.040450 -0.047860 -0.536030 -0.001666 -0.069592 -0.190650 -0.067092 -0.160881 -0.104507 0.134107 0.252507 0.154996 0.109187 -0.347523 -0.108886 0.404987 0.011556 -0.016507 -0.012473 0.100374 -0.522837 0.626130 -0.102772 0.235581 0.145995 -0.231042 -0.547099 -0.206255 -0.341702 -0.159403 0.502814 -0.075226 0.015979 0.054611 0.116514 -0.089349 0.223989 0.106767 -0.193767 0.349621 -0.043694 0.150866 -0.162896 0.005113 0.211688 -0.041294 0.273058 -0.294647 0.228967 -0.099314 0.168707 0.058518 -0.405304 0.204743 0.174645 -0.255447 -0.172056 -0.308873 -0.048129 0.318502 -0.099355 -0.565344 -0.261457 0.371098 0.086109 0.104607 0.157562 -0.232776 0.071783 -0.045733 0.051395 -0.346330 0.167521 0.216586 0.266596 -0.025167 0.122032 -0.309033 -0.190899 0.151685 -0.352745 0.137188 0.308751 -0.441297 0.353244 -0.124916 -0.079020 -0.124026 0.003362 -0.550658 0.069339 -0.135433 0.185302 -0.205052 -0.083700 -0.036720 -0.137337 0.137537 -0.285499 -0.244688 -0.242779 -0.237705 0.114157 -0.294999 0.141878 0.344139 0.224152 -0.043497 -0.173157 -0.108143 0.325384 0.079192 0.222329 0.116713 0.195696 -0.190780 0.299917 -0.190023 -0.190359 0.049192 0.140863 -0.474531 -0.161889 -0.234913 -0.584851 -0.199672 -0.127097 -0.171788 0.095861 0.013205 -0.219672 0.147448 -0.316039 -0.331544 0.215299 0.032865 0.145692 0.116909 0.294938 -0.071993 -0.097552 0.407272 -0.005157 -0.289407 -0.194867 -0.266663 -0.053379 -0.104067 -0.599412 0.568514 0.482487 -0.101869 0.145070
Daniel -0.044006 -0.623907 0.062969 -0.292530 -0.356962 -0.297518 0.416308 -0.014440 0.170225 -0.203324 -0.139982 -0.153388 -0.080628 0.195856 0.200160 0.006366 -0.272775 0.090262 -0.148976 -0.323755 -0.061254 -0.031556 -0.329715 0.116682 0.176241 -0.030494 0.242555 0.400731 -0.530861 0.400347 -0.366776 -0.176169 0.116581 -0.347038 0.379506 0.046360 0.183683 -0.113843 0.011930 -0.404560 -0.075854 0.331575 0.009320 -0.010408 -0.104950 0.356258 0.302617 -0.283582 -0.049822 0.224833 0.162755 0.758583 -0.318230 0.053875 -0.239578 0.135848 -0.439003 0.121811 -0.689157 0.171810 -0.297762 -0.217009 -0.480199 0.046674 0.078366 -0.423445 0.469053 -0.017721 -0.064372 0.224145 -0.001084 -0.349061 0.796082 0.308269 0.219792 -0.183248 -0.447861 0.001792 -0.238872 0.196963 -0.200145 -0.070952 0.368925 -0.058442 0.130943 0.120403 -0.597334 0.399335 0.040253 0.404418 0.023883 -0.469727 -0.087745 -0.237439 -0.326326 0.232737 -0.419536 0.245896 -0.294770 0.313284 0.426628 0.262701 -0.148227 -0.135756 0.395695 0.638776 -0.281175 -0.217132 -0.542424 -0.135613 -0.358888 0.308594 -0.325761 -0.313993 -0.157704 -0.148844 -0.267490 0.105253 0.204225 0.391301 -0.619397 0.318564 -0.271329 0.291779 -0.141398 -0.098153 -0.506516 0.284741 0.195695 -0.212029 0.395682 -0.107797 0.131507 -0.049396 0.568077 0.734921 0.245713 -0.003010 -0.067757 -0.553977 -0.139123 0.135787 -0.060579 -0.061869 0.107985 0.294056 -0.345956 0.003174 -0.126287 -0.497488 0.034700 0.013428 -0.196515 -0.233101 -0.378856 -0.103643 0.436885 0.138647 0.147893 0.284409 -0.164475 0.006896 0.668105 0.086508 0.018189 -0.072781 0.129728 -0.461817 0.704250 -0.098084 0.234475 0.285796 -0.249669 -0.556418 -0.196351 -0.597899 -0.430696 0.725337 -0.006533 -0.139360 0.137890 0.177963 0.026479 -0.021825 0.212069 -0.269201 0.484375 -0.090062 0.033101 -0.098574 0.155112 0.307661 -0.083331 0.166906 -0.289717 0.421777 -0.173830 0.317476 0.130703 -0.304373 0.141584 -0.126418 -0.110766 -0.276726 -0.067451 -0.100809 0.292943 -0.514104 -0.930848 -0.151817 0.200981 0.233678 -0.127016 0.031384 -0.135979 0.196426 -0.284059 0.142216 -0.421370 0.082110 0.147802 0.304398 0.139238 0.045828 -0.224834 -0.248745 0.026423 -0.256770 0.090651 0.472277 -0.244042 0.372632 -0.054170 0.085131 -0.051045 0.212828 -0.471288 -0.072039 -0.201270 -0.075570 -0.228242 0.144329 -0.320755 -0.182486 -0.123996 -0.310170 -0.049901 -0.341507 -0.131777 0.119236 -0.288804 0.157652 0.424370 0.394389 -0.049442 0.029662 -0.043085 0.227221 0.319006 0.534415 0.187155 0.300576 0.026280 0.257267 -0.190545 -0.052359 -0.014483 -0.226220 -0.259191 -0.322448 -0.035102 -0.418016 -0.468177 -0.035613 -0.223201 0.127878 -0.034473 0.012803 0.293701 -0.126049 -0.223070 0.253647 0.185367 0.228807 -0.015720 0.172534 -0.062727 0.059592 0.182113 0.043311 -0.082201 -0.197993 0.055334 -0.112387 -0.186592 -0.745650 0.463333 0.454899 -0.238915 0.138549
John -0.276608 -0.491008 0.193685 -0.377581 -0.255998 -0.013782 0.514094 -0.225966 0.009422 -0.073545 -0.210991 0.038739 0.145137 -0.066064 0.206275 -0.109271 -0.185642 0.085296 -0.067338 -0.064319 0.042164 -0.035470 -0.280537 0.268770 0.328536 -0.059958 0.034604 0.365675 -0.248317 0.379279 -0.314054 -0.388948 0.040510 0.046944 0.295990 0.312649 0.395621 -0.434015 -0.236693 -0.177180 -0.002925 0.470996 -0.222961 0.040386 -0.145416 0.094920 0.350019 -0.330809 0.053796 0.086256 0.107490 0.654604 -0.155779 0.120797 0.078548 0.089456 -0.264139 0.109064 -0.731938 -0.186058 0.031479 0.083445 -0.426246 0.322542 0.111785 -0.025614 0.451132 -0.052772 -0.233079 0.182968 -0.084484 -0.194823 0.568537 0.014218 0.160435 0.028836 -0.309888 0.047473 -0.018092 -0.171430 -0.471530 -0.171972 0.298918 -0.147640 -0.018856 0.244353 -0.645642 0.231917 0.009465 0.257082 0.160212 -0.500276 0.292451 0.021575 -0.005450 0.108511 -0.425295 0.451354 -0.392433 0.538680 0.164424 0.483156 -0.040532 -0.110052 0.465624 0.666200 -0.140683 -0.286974 -0.208604 -0.093403 -0.355314 0.064202 -0.337846 -0.031373 -0.216754 -0.211801 -0.148039 0.148325 0.155202 0.139733 -0.442635 0.302914 -0.630766 0.183746 -0.386741 -0.117466 -0.390459 0.513354 -0.058953 0.032154 0.352797 -0.060562 0.200360 -0.018887 0.325265 0.354291 0.150692 0.070715 -0.277321 -0.635389 0.060856 0.111153 -0.343230 0.163524 0.062175 0.317675 -0.041755 -0.063557 -0.019864 -0.496069 -0.078507 -0.126192 -0.249728 -0.067644 -0.160171 -0.148607 0.191124 0.302343 0.278625 0.050593 -0.313722 -0.127422 0.485441 -0.044643 0.019895 0.021737 0.033928 -0.613752 0.543856 -0.163343 0.248095 0.276342 -0.277858 -0.386032 -0.216868 -0.307170 -0.304118 0.477843 -0.109383 -0.115492 0.059455 0.109974 -0.073023 0.258770 0.135184 -0.248819 0.289350 -0.136966 0.195723 -0.149458 0.005466 0.213128 -0.049474 0.361656 -0.337582 0.276449 -0.016960 0.242934 -0.017381 -0.456329 0.165280 0.107334 -0.374673 -0.238251 -0.340727 -0.064824 0.241275 -0.079330 -0.657830 -0.263552 0.315207 -0.001058 -0.019992 0.118345 -0.184583 0.089994 -0.046120 0.167602 -0.336792 0.247360 0.220421 0.284471 0.003921 0.094205 -0.233425 -0.233276 0.033951 -0.363135 0.063180 0.391457 -0.395499 0.383355 -0.248178 -0.017652 -0.043090 -0.069962 -0.586127 0.081409 -0.150990 0.234279 -0.177523 -0.013827 -0.044422 -0.142380 0.172650 -0.246058 -0.132622 -0.209243 -0.290441 0.160518 -0.256550 0.093406 0.235322 0.267054 -0.036469 -0.104147 -0.138840 0.465966 0.097365 0.282968 0.029184 0.317926 -0.186698 0.310807 -0.087940 -0.161566 0.070584 0.181348 -0.556765 -0.288963 -0.204361 -0.568693 -0.210330 -0.078783 -0.247509 0.005529 -0.026497 -0.013829 0.092056 -0.290353 -0.319185 0.174276 0.069460 0.053052 0.053427 0.299061 -0.181441 -0.052113 0.429912 0.003981 -0.390654 -0.179154 -0.323348 -0.124627 -0.042191 -0.527212 0.479998 0.429875 -0.043244 0.181493
Mary -0.211837 -0.405054 0.243024 -0.475860 -0.245434 0.061527 0.412121 -0.296283 0.060591 -0.084556 -0.160426 0.068588 0.105138 -0.093821 0.296958 -0.177337 -0.120363 0.098759 0.045890 -0.086945 0.067598 0.000387 -0.246164 0.227348 0.315875 -0.062785 0.019767 0.380708 -0.294108 0.331051 -0.268361 -0.417965 0.035464 0.117866 0.310841 0.353239 0.380670 -0.448735 -0.291816 -0.136770 0.091579 0.488782 -0.186110 0.084416 -0.170889 0.081469 0.337849 -0.268363 0.074056 -0.004282 0.127238 0.608407 -0.164273 0.131109 0.069312 0.106636 -0.144928 0.044712 -0.780975 -0.225521 0.057291 0.103262 -0.407990 0.329257 0.165220 0.051847 0.571402 -0.142234 -0.336849 0.129862 -0.024853 -0.191117 0.600994 -0.098672 0.143748 0.036760 -0.292008 0.102517 0.034431 -0.195809 -0.592382 -0.156148 0.258150 -0.136203 0.042633 0.340599 -0.700791 0.166911 0.055422 0.139494 0.225487 -0.432037 0.297944 0.018791 -0.046506 0.057074 -0.391152 0.415899 -0.450750 0.626748 0.130038 0.460708 -0.033275 -0.140184 0.523445 0.654974 -0.103851 -0.235675 -0.162762 -0.137939 -0.441116 0.063472 -0.324960 -0.037446 -0.216001 -0.127487 -0.159225 0.070408 0.130295 0.073252 -0.421433 0.269067 -0.639397 0.215757 -0.516593 -0.196073 -0.354353 0.469600 -0.107353 0.113384 0.371573 -0.132330 0.108903 -0.047591 0.211393 0.317093 0.140135 0.092284 -0.242542 -0.591678 0.138009 0.149363 -0.370435 0.178372 0.074527 0.300837 -0.022667 -0.103163 -0.046743 -0.546616 -0.027704 -0.125455 -0.268677 -0.104514 -0.209717 -0.146545 0.111916 0.292813 0.294405 0.040561 -0.350540 -0.124916 0.371693 -0.049067 0.064233 0.040179 0.066451 -0.596303 0.577613 -0.251754 0.258140 0.253296 -0.229980 -0.456596 -0.224160 -0.249104 -0.220490 0.394465 -0.092165 -0.056907 0.029876 0.074764 -0.130561 0.334155 0.158493 -0.259336 0.271932 -0.192866 0.228953 -0.126028 0.010272 0.212422 0.024302 0.357149 -0.301706 0.282392 -0.095753 0.189562 0.027513 -0.431403 0.215030 0.148400 -0.342572 -0.185892 -0.428794 -0.037358 0.355339 0.030706 -0.596683 -0.264324 0.430601 -0.078369 0.070697 0.179451 -0.240697 0.039342 -0.014508 0.130118 -0.253064 0.270171 0.160920 0.209813 -0.048036 0.093370 -0.342044 -0.116409 0.051550 -0.392270 0.107454 0.324699 -0.386856 0.346399 -0.204576 -0.127558 -0.129815 -0.145965 -0.607195 0.154824 -0.066746 0.294124 -0.207822 0.002104 0.066093 -0.052822 0.214264 -0.268096 -0.207087 -0.170213 -0.224832 0.154638 -0.251908 0.091785 0.192818 0.179880 -0.075736 -0.193655 -0.150231 0.499201 0.020408 0.215933 0.035163 0.240387 -0.252861 0.308382 -0.131623 -0.214641 0.117551 0.148901 -0.505750 -0.230570 -0.276795 -0.680381 -0.117674 -0.164344 -0.167761 0.010869 0.028123 -0.108581 0.034497 -0.327147 -0.394147 0.128049 -0.014603 0.121848 0.061334 0.316356 -0.131157 -0.116130 0.365343 -0.075524 -0.347700 -0.171859 -0.369649 -0.118691 -0.100590 -0.569474 0.568942 0.520124 -0.012697 0.215765
phòng 0.196471 -0.575557 0.327323 0.311148 -0.330452 0.165351 -0.239599 -0.574077 0.209411 -0.246229 0.368093 0.430751 0.041781 0.132064 0.533994 -0.218174 -0.236945 -0.058470 0.371966 -0.579669 0.134542 0.699432 -0.155743 0.160379 0.270298 0.530863 -0.465931 0.559643 -0.260343 -0.042690 -0.340659 -0.045881 0.632919 -0.593155 -0.326492 -0.018297 0.310508 -0.135135 0.265626 -0.405550 0.181334 0.174696 0.638585 0.143685 0.476764 -0.050368 -0.413916 0.180444 -0.024000 0.088984 -0.190940 -0.049643 0.182704 -0.558678 -0.326610 -0.196385 0.069134 0.657695 -0.264051 -0.420434 -0.879321 -0.483359 -0.502229 0.088795 0.323542 0.496251 0.183486 0.500210 -0.464528 0.037395 0.183796 0.351976 0.204471 -0.069771 0.441302 -0.383516 -0.381171 0.629229 0.152242 0.104933 0.074880 0.041658 -0.120623 -0.489929 0.431028 0.090498 0.027835 -0.057687 -0.362763 0.189314 0.022581 0.753889 -0.359515 0.207093 0.424651 -0.095356 0.418752 -0.235381 0.580323 0.356662 -0.293102 0.075437 0.206822 0.246771 -0.129566 -0.402153 0.606220 0.456809 0.423563 -0.762825 0.158854 0.898448 0.102346 -0.736259 -0.386790 0.110962 -0.098249 0.270922 -0.172519 -0.320385 0.203106 -0.233928 0.171498 -0.044628 -0.834557 0.129052 0.189806 -0.302913 0.534037 -0.008935 -0.076742 -0.307128 -0.258122 -0.226623 -0.173356 -0.256327 -0.099108 -0.300445 -0.091366 0.530897 -0.591584 -0.006240 -0.426409 -0.100881 0.150530 -0.455568 0.353623 -0.271676 -0.466238 -0.234906 0.382728 0.591745 0.324797 -0.413921 0.325799 0.156256 -0.491895 -0.344914 0.458886 -0.434613 0.016794 0.736483 -0.631647 -0.093481 -0.155557 0.094648 0.245444 0.111243 0.409712 -0.035712 -0.623771 -0.931642 0.336649 -0.056782 0.373236 0.148573 -0.269039 0.086431 -0.056965 -0.411410 0.581008 -0.267888 -0.239452 -0.009748 -0.044585 -0.178458 -0.192682 -0.190030 -0.088236 -0.235848 -0.252998 0.534496 -0.251842 0.050794 -0.198748 -0.321136 -0.407365 0.186654 0.227938 0.323028 -0.325739 -0.665597 -0.073156 0.762681 -0.020325 -0.808065 0.311804 0.229839 0.349668 -0.758496 0.599055 -0.413009 0.202594 0.029908 0.626620 -0.225861 0.086527 -0.471124 0.520715 0.032800 -0.523537 -0.102377 -0.154626 0.017693 0.336515 0.319328 -0.230407 0.091384 -0.347664 -0.278844 0.382544 -0.557859 -0.076941 -0.526295 -0.198261 -0.025532 -0.126540 0.185698 0.113766 0.009135 -0.353226 0.389849 0.692755 -0.022511 -0.010366 -1.072930 0.314697 0.565365 0.153049 0.761676 0.155179 -0.375394 -0.305187 -0.415280 0.154497 -0.120749 -0.304330 -0.397233 -0.157781 -0.050097 -0.016298 -0.403901 0.355570 -0.679410 0.440803 0.125373 0.221311 -0.324432 0.154444 -0.268594 -0.375961 0.216400 -0.342623 0.504702 0.065304 -0.687636 0.062921 0.659317 -0.206768 -0.274881 0.154307 -0.517200 0.033721 0.039018 -0.563063 0.228223 0.607770 -0.594627 -0.605799 -0.535571 0.320744 0.834865 -0.354067 0.088538 -0.158313 -0.526466 0.166751 -0.771471 -0.002113 0.347718
ngủ 0.382883 -0.088899 -0.069000 -0.208280 -0.413822 0.198347 -0.251193 -0.079392 -0.075140 0.272745 0.087348 0.161426 0.045691 -0.319986 -0.108791 0.177256 -0.190611 -0.200771 -0.077507 0.062030 -0.299035 -0.089378 -0.256875 -0.167529 0.364464 -0.069064 -0.434268 -0.334117 0.481265 -0.293216 -0.160886 0.068387 -0.472760 -0.040883 0.567560 -0.064811 0.079275 0.052202 -0.061329 0.354314 -0.219704 0.027016 -0.113342 0.224908 -0.326710 -0.316897 0.196159 0.136700 -0.169458 -0.494611 -0.171542 -0.240497 -0.005564 0.503135 -0.168527 0.049246 0.374522 0.125141 0.295622 -0.190724 0.168897 0.136725 0.251581 0.070734 -0.366103 0.388296 0.636440 -0.550192 -0.188219 0.416872 0.206367 -0.100415 -0.257028 -0.398853 0.055998 0.202979 0.174291 -0.259785 0.517929 -0.156351 -0.613785 0.372224 0.647439 -0.678321 0.199421 0.307868 0.518787 0.325646 -0.305025 0.058812 0.102332 0.332911 0.134455 0.336926 -0.037185 0.056005 0.318647 0.028083 -0.348280 -0.046981 -0.402883 -0.047772 -0.230499 -0.332050 -0.187763 0.111782 0.046757 -0.037890 -0.088142 -0.228204 -0.329668 0.201201 0.375830 -0.335476 0.360839 -0.031708 -0.393261 -0.473761 -0.498838 0.330910 -0.081957 0.596703 -0.264105 0.620045 0.143477 -0.481266 -0.024232 0.079235 0.433974 -0.282191 -0.057586 -0.670516 -0.173162 -0.227380 -0.451553 0.118064 0.368732 -0.072568 0.579538 0.397601 0.300773 -0.207366 0.123986 -0.226283 -0.428434 -0.828050 0.183256 0.248726 0.185907 -0.313058 -0.499246 0.350483 -0.438479 0.225669 -0.491245 -0.558109 -0.157449 0.082085 0.384177 0.252343 -0.046872 -0.283417 -0.331954 -0.118199 -0.256624 -0.233783 -0.379895 0.503815 0.203281 -0.027155 0.281798 -0.043413 0.567375 0.279970 0.359582 0.136457 0.290633 0.069546 0.193688 0.053290 0.072637 -0.178764 -0.046469 0.430103 0.352093 0.236277 0.089379 0.316789 0.437420 0.331186 0.410631 0.051738 -0.088074 -0.170366 -0.105729 -0.084868 -0.012969 0.026863 -0.724780 -0.200386 0.009452 0.244924 0.122076 -0.359745 -0.687812 -0.248579 0.273767 0.115438 0.133654 -0.059054 -0.158482 -0.380749 -0.188504 0.265143 -0.424383 -0.500601 0.218446 -0.082606 0.259163 -0.294511 0.435255 -0.143683 0.574386 0.094939 -0.215982 0.155221 0.046455 0.302444 0.219021 -0.090294 0.444152 -0.349207 0.522523 -0.191267 -0.062510 -0.006472 -0.385688 0.443122 0.025579 0.631284 -0.266111 0.338074 -0.061339 -0.083118 -0.200831 -0.338525 -0.063985 -0.062075 0.646220 0.069278 0.235264 -0.206150 -0.651620 0.683513 0.164206 -0.398694 0.084665 -0.180973 0.363099 -0.415005 -0.233026 -0.555150 0.014568 0.211450 -0.110610 -0.240448 -0.509955 0.069493 0.403974 -0.507028 0.284058 0.608969 -0.126133 -0.016480 -0.393656 -0.097257 -0.969591 -0.007136 -0.896395 -0.545671 -0.665840 0.185233 -0.219243 0.017225 -0.181748 0.161882 -0.391736 0.159545 -0.120078 0.175644 0.180170 -0.280036 -0.646510 0.196983 -0.185094 0.162966 -0.065194 0.238054 -0.294523 0.130699
tắm 0.566411 -0.095055 -0.113517 -0.232212 -0.390004 0.153203 -0.259274 -0.210088 0.194949 0.278558 0.443317 0.118193 -0.172818 -0.278902 -0.043658 0.049777 -0.227366 -0.272839 0.013331 -0.209101 -0.299647 0.051225 -0.320616 -0.186578 0.258938 0.083043 -0.550629 -0.341395 0.396812 -0.349662 -0.170702 0.121956 -0.401876 -0.143964 0.470539 -0.204751 -0.082052 0.279100 0.016157 0.177101 -0.303848 0.034015 0.177218 0.367498 -0.311846 -0.080021 0.130242 0.131487 -0.200395 -0.501876 0.077633 -0.450642 0.133352 0.541427 -0.435959 0.112517 0.233690 0.097852 0.278734 -0.014662 -0.042382 -0.082622 0.125106 0.046745 -0.284811 0.315880 0.807260 -0.604716 -0.195383 0.526520 0.334721 -0.058331 -0.322429 -0.229706 0.066135 0.101372 0.110891 -0.125168 0.540546 0.040502 -0.560713 0.355477 0.822100 -0.862126 0.238315 0.271290 0.356547 0.381149 -0.176691 0.144385 0.187504 0.458695 -0.006932 0.157120 -0.232787 0.012195 0.329630 -0.074501 -0.267473 -0.128100 -0.190710 -0.227047 -0.403740 -0.352355 -0.057171 0.134314 0.124933 0.063756 -0.188553 -0.241149 -0.479631 0.357082 0.301946 -0.252020 0.255846 0.005706 -0.334105 -0.710783 -0.581850 0.374240 -0.203234 0.543215 0.032171 0.884215 0.077629 -0.511701 -0.150271 -0.037761 0.432322 -0.405567 -0.050201 -0.749256 -0.416417 -0.305962 -0.506731 0.133842 0.236396 -0.063349 0.670528 0.255508 0.070812 -0.279091 0.303963 -0.463590 -0.400556 -0.899840 0.264296 0.265682 -0.093459 -0.312091 -0.423071 0.425252 -0.372200 0.139588 -0.623133 -0.622984 -0.197426 0.156461 0.423573 0.265769 0.105575 -0.374661 -0.459786 -0.025317 -0.194143 -0.288808 -0.277848 0.665972 0.217549 -0.033678 0.395129 -0.123956 0.716429 0.255700 0.544837 -0.029517 0.239709 0.080060 0.153529 0.071590 0.069201 -0.131396 -0.114448 0.543331 0.380020 0.298511 0.111557 0.224263 0.241399 0.455366 0.447751 0.211065 -0.110806 -0.149478 -0.107736 0.192088 -0.241326 0.002121 -0.619207 -0.146813 -0.000268 0.090198 0.195908 -0.479008 -0.610891 -0.238505 0.200818 -0.015152 -0.067540 -0.212048 -0.142109 -0.589746 -0.170145 0.486801 -0.429113 -0.348123 0.095133 -0.171487 0.405995 -0.309217 0.309189 -0.237888 0.391457 0.245842 -0.259624 0.280669 -0.114837 0.347321 0.276486 -0.171136 0.536962 -0.429920 0.537871 -0.256699 -0.127745 -0.203893 -0.337497 0.495270 0.105014 0.617520 -0.166650 0.313098 -0.129151 -0.157836 -0.174652 -0.457395 -0.017312 0.039809 0.753223 -0.245870 0.399386 -0.369968 -0.744873 0.522897 0.092150 -0.437039 0.153859 -0.044559 0.567831 -0.402882 -0.325180 -0.469976 -0.048792 0.188859 -0.214172 -0.291662 -0.409693 -0.120112 0.465357 -0.541604 0.394971 0.687697 -0.103221 -0.087722 -0.373973 -0.051749 -0.919025 0.055040 -0.925874 -0.661931 -0.608286 0.117951 -0.290895 -0.011425 -0.423045 0.045884 -0.383112 0.195783 -0.424894 0.198840 0.315146 -0.287528 -0.705065 0.219905 -0.231302 -0.030729 -0.034650 0.369883 -0.231314 0.175939
vào 0.133545 0.081233 -0.023733 0.140266 -0.478388 -0.304753 0.205912 -0.417115 0.448649 0.497756 0.540841 -0.167333 -0.453389 -0.202934 -0.428029 0.179754 -0.407067 -0.293766 -0.238239 -0.323949 0.311113 0.082559 0.316723 -0.358101 -0.184077 0.394614 -0.987080 0.415402 0.254209 -0.525690 -0.063040 0.384701 -0.409178 -0.178125 -0.331157 -0.039504 -0.365697 0.746225 -0.052734 0.314614 -0.179597 -0.465613 0.559526 0.590589 0.088775 -0.354379 -0.480953 0.763016 -0.399272 0.008989 -0.516359 -0.085723 0.873433 -0.352799 -0.299754 0.183296 -0.226226 0.320510 0.509473 -0.259776 0.057247 0.091090 0.495116 0.077140 0.228336 0.185325 -0.460494 -0.302570 -0.071489 0.336881 0.489741 0.370598 -0.260227 -0.134513 -0.442555 -0.299221 -0.051216 -0.074655 0.476187 0.178907 0.144591 -0.272673 0.371109 -0.724524 0.243021 -0.151987 0.003521 0.250576 0.633929 0.493257 0.256956 0.876313 -0.110155 -0.362951 -0.703511 -0.524193 -0.091157 -0.242656 0.135294 -0.212333 0.220251 -0.634998 -0.385085 0.063191 0.130692 0.228917 -0.419967 0.564933 -0.013619 0.575274 -0.128303 0.822255 -0.196243 -0.019244 -0.088733 0.524102 0.251333 -0.118412 -0.221231 0.172002 -0.235384 0.324777 0.451580 0.503985 -0.498135 0.272959 0.426726 -0.698564 0.278131 0.106936 -0.004711 -0.056197 -0.698305 -0.587094 -0.194650 -0.166210 0.153948 0.032030 0.316949 0.054337 -0.426936 0.095945 -0.295708 -0.650891 0.176544 -0.465978 0.332780 -0.169471 -0.059976 -0.145076 0.032149 -0.001638 0.220648 0.407183 -0.006671 0.392413 -0.041040 0.360131 0.937018 0.303265 0.341618 -0.226249 -0.688625 -0.373618 -0.331663 -0.371003 0.091392 0.135530 -0.278344 0.225896 0.225963 0.029841 -0.222185 0.164748 0.528454 -0.125392 -0.103701 -0.147052 0.504839 -0.418226 -0.555320 -0.102932 -0.045650 -0.308506 -0.534030 -0.223539 0.133560 0.110953 0.447923 0.370956 0.149735 0.694222 0.694184 -0.014469 -0.477783 0.079705 -1.095361 -0.218895 0.010060 -0.224995 -0.123771 0.096122 -0.303691 -0.485333 -0.569340 -0.128201 0.301494 0.383157 -0.382407 -0.278953 -0.208583 -0.446553 -0.025793 0.428613 -0.116929 0.197351 -0.407920 0.161489 0.826186 -0.431136 -0.188307 -0.394452 -0.839456 -0.037061 0.029051 0.715467 -0.241884 -0.094027 -0.119962 0.206254 0.560151 -1.174657 0.098222 0.105337 -0.472417 -0.546908 0.214126 0.359918 -0.024591 -0.031750 -0.236171 -0.031767 -0.037221 0.374882 -0.329933 0.056311 0.717143 0.263931 0.338735 -0.126216 0.170424 -0.199168 -0.655342 -0.477916 -0.164106 -0.151159 -0.007772 0.442824 0.311600 0.385152 -0.645753 0.472446 0.019414 0.432074 -0.147923 -0.265439 0.119857 -0.742377 0.278066 -0.501323 -0.316437 0.181581 0.371959 -0.126451 0.278514 0.171804 -0.591578 0.342397 0.074485 0.090227 -0.990202 0.032004 -0.325711 0.046062 -0.783348 -0.506033 0.152797 -0.107204 -0.268279 -0.248781 0.134192 0.217349 -0.070781 -0.698576 -0.004510 0.242691 0.581462 -0.016877 0.423478 -0.233547
2 -0.197288 0.443372 0.036861 -0.104869 -0.187941 0.429483 -0.175963 0.096928 0.113299 -0.042818 0.123157 0.162938 0.225468 0.141006 -0.134392 -0.157349 -0.147875 0.083874 0.079393 -0.073829 -0.220845 -0.233499 -0.254298 -0.081901 0.070667 -0.543383 -0.032693 0.316014 -0.133508 0.257809 0.067694 0.119830 -0.005010 -0.005004 -0.083035 -0.147423 -0.159409 -0.326161 -0.054240 -0.077413 0.304492 -0.114325 -0.043780 0.069460 0.008417 -0.387704 0.068271 0.161359 -0.098488 -0.304287 -0.185395 0.063364 -0.011341 -0.087104 -0.285989 -0.224456 0.127272 0.317175 -0.047087 -0.239062 -0.224133 -0.132989 -0.014522 -0.006845 -0.525129 -0.079307 0.058940 -0.332450 -0.031188 0.368638 -0.011745 0.300486 0.196670 -0.205253 0.032062 -0.070132 0.133910 0.377269 -0.132933 0.373700 0.152216 0.109393 0.002524 -0.328446 0.224262 -0.057768 0.052136 -0.204054 0.215526 0.235571 -0.198796 0.038795 0.090463 -0.005629 0.200624 -0.106336 -0.173389 -0.059290 0.054675 -0.234715 -0.174343 -0.137505 0.188541 0.193826 -0.242976 -0.191335 0.139926 -0.128415 0.046462 -0.014938 0.154287 0.147879 -0.043038 -0.274119 -0.069654 0.049876 -0.235747 0.030755 0.246232 -0.173770 0.166516 0.094421 0.003495 -0.136104 -0.183680 -0.165314 0.371419 -0.006654 0.322339 0.320951 -0.075508 -0.208647 0.063158 -0.340136 -0.074779 0.052014 -0.215934 -0.230567 0.122182 0.029617 0.078914 0.263392 -0.256539 0.171649 -0.240799 -0.187050 -0.253689 -0.076580 0.310257 -0.259454 -0.174618 0.508703 -0.091980 -0.004026 0.013108 -0.075487 0.035623 -0.100366 -0.131176 -0.011086 -0.145210 0.337581 -0.282153 0.004754 0.218398 -0.051478 -0.023839 0.633261 -0.328737 -0.051432 -0.016858 0.030871 0.121645 0.170922 0.243731 -0.025106 0.014909 -0.330245 -0.195802 -0.185116 0.206279 0.170531 0.090446 -0.514839 -0.139139 -0.039824 0.165273 -0.195730 0.042093 0.173329 0.070983 -0.003390 -0.525989 -0.033524 -0.319160 -0.060177 0.358909 -0.328480 0.126352 0.238490 -0.055085 -0.049679 0.295033 -0.056311 -0.315135 -0.390411 -0.084420 0.116331 -0.200694 0.110773 0.077613 -0.130327 -0.208682 -0.057821 0.121546 -0.243960 0.498803 0.237001 0.078863 -0.245332 -0.123478 -0.174282 0.309939 0.274070 0.104324 -0.111718 -0.002348 0.259246 0.159631 0.088075 0.039567 -0.211704 0.030058 -0.134314 -0.028185 -0.177637 -0.169536 0.077817 0.509545 0.116442 -0.044321 0.278743 0.113251 0.248398 -0.106212 -0.193736 0.039917 0.041196 0.327842 -0.168807 0.010849 -0.262010 -0.014563 0.213699 -0.008377 0.096188 -0.174214 0.065813 -0.287023 -0.008634 -0.093845 -0.139178 0.188618 -0.009979 0.070815 0.315205 -0.209424 -0.287490 0.276986 0.263691 -0.119968 0.163734 -0.119903 0.177270 -0.082979 -0.169155 -0.256617 0.031816 -0.090082 -0.415077 0.029610 0.026655 0.132242 -0.186474 0.194453 -0.072987 0.115549 0.037759 -0.169207 0.044544 0.131648 0.405628 0.042365 -0.249186 0.044090 -0.026607 -0.137119 0.061987 0.234026 0.047080
đã 0.336493 0.199808 -0.195918 0.495871 0.171892 0.480790 -0.356016 -0.610786 -0.093312 -0.140261 -0.420415 -0.063402 0.513077 -0.025716 0.024006 -0.957172 -0.032803 -0.009738 -0.372120 0.275285 -0.524049 -0.173584 0.072980 -0.225743 0.547939 0.166904 -0.278891 -0.335861 0.122288 0.189278 -0.116051 0.398574 0.398358 -0.362366 -0.173751 0.502010 0.013576 0.695849 -0.390111 0.201698 -0.079927 0.183146 -0.164969 -0.113450 0.354423 -0.385437 -0.109006 0.244523 0.111648 -0.061130 0.011880 -0.195779 0.158689 0.123810 -0.334253 -0.285537 0.428134 -0.205706 0.211505 -0.122475 -0.199596 0.167808 0.458619 -0.104259 -0.361638 0.333689 -0.173828 0.324001 -0.430642 -0.058759 0.087721 0.140652 0.238001 -0.001952 -0.350216 -0.397980 0.265265 0.052195 -0.194647 -0.150217 0.358213 0.304191 0.017168 -0.681029 0.381570 0.219028 0.140915 0.013849 -0.024022 0.197542 0.449765 -0.071231 0.124879 0.446433 -0.079574 -0.387054 -0.101060 0.245412 0.058483 -0.262511 -0.127110 0.225382 0.036909 -0.286116 -0.580171 -0.233847 -0.036950 0.263262 -0.055456 -0.081541 0.298315 -0.013405 -0.401242 0.378446 -0.428603 -0.015575 -0.314753 0.088294 0.195806 -0.168208 -0.041820 -0.006769 -0.292056 0.070833 -0.131931 -0.343681 0.082462 0.089041 -0.184948 0.281901 -0.036524 -0.480677 0.256036 -0.269486 -0.246559 -0.531335 -0.013434 -0.060489 -0.031637 -0.306739 0.428618 0.588223 0.199560 0.119494 0.151548 -0.181204 0.242010 -0.064904 -0.031135 -0.273389 0.526107 0.641402 -0.164138 -0.250491 -0.168529 0.057636 0.329746 -0.018460 0.330567 -0.029757 -0.009221 -0.215384 0.115264 -0.576560 0.537443 0.115468 -0.626806 0.217188 0.567313 -0.096992 -0.119225 0.352458 0.265618 -0.034402 -0.499905 0.518452 -0.495995 -0.298167 0.092924 -0.005097 -0.173397 0.135562 0.004615 -0.167700 0.298391 -0.203227 0.112527 -0.134041 0.307774 0.096071 0.461472 -0.290866 0.087082 -0.265489 0.077388 -0.132699 0.394757 0.176618 -0.241398 0.477410 -0.210841 -0.416880 -0.102991 0.032374 0.013649 -0.192031 0.370526 0.287062 -0.445857 0.172172 0.564714 -0.478438 0.048166 -0.271125 0.369392 -0.230149 0.458990 0.003579 0.310813 0.196508 -0.190267 0.548607 -0.266373 -0.017259 0.103902 -0.143253 -0.208469 0.040298 0.217269 0.303550 0.382364 -0.246838 0.409806 -0.536245 -0.061364 -0.078980 0.046672 0.066149 0.196461 0.471522 0.368725 0.495613 -0.046979 -0.054886 -0.081023 -0.213424 -0.011772 -0.084991 -0.412815 0.149057 -0.065832 -0.294371 -0.346454 0.458945 -0.054814 -0.431352 -0.387532 0.352384 -0.409523 -0.062375 0.050453 -0.288474 -0.331458 -0.240208 0.583294 -0.332820 -0.306795 -0.219031 0.046753 -0.645198 0.012838 -0.053664 -0.048160 -0.078930 -0.466711 -0.808956 -0.083061 0.473890 -0.516035 -0.221316 -0.279242 0.030738 -0.092161 0.024300 -0.288682 -0.112879 -0.279019 -0.207096 -0.046463 -0.197687 0.085174 0.109064 -0.225314 -0.376904 -0.241303 0.064950 0.031059 -0.031176 -0.177976 0.520357
chuyển 0.287272 0.231980 -0.446078 0.156127 0.009216 -0.305443 -0.428071 -0.115488 -0.075337 -0.455125 -0.565517 -0.114473 0.365200 0.245353 0.007509 -0.761820 0.184227 -0.204406 -0.291909 -0.080011 -0.213480 -0.030623 -0.137826 -0.318889 0.001495 -0.076591 -0.352439 -0.326881 -0.401174 -0.228474 -0.099956 0.256609 0.020485 -0.199032 -0.486285 0.063851 -0.421632 0.956200 -0.387466 0.289023 -0.064664 -0.350109 0.089554 -0.660605 0.493533 -0.069151 -0.103833 0.245830 -0.239602 -0.005973 -0.005519 -0.371722 0.173808 0.094581 -0.073202 -0.302349 0.279063 -0.263105 0.538478 0.157039 0.188231 0.059299 0.867053 -0.188670 -0.007574 0.011581 -0.377704 0.095986 0.404441 -0.295186 0.075118 -0.183707 0.430200 -0.214874 -0.427316 -0.417037 0.273694 0.027250 -0.774362 0.191708 0.443179 0.459353 -0.413499 0.007641 0.503875 0.452479 0.584083 -0.065840 -0.180053 0.099209 0.178714 0.217083 0.027453 -0.302293 -0.040101 -0.245522 0.330153 -0.249810 -0.054057 -0.712442 0.245573 -0.165421 -0.221487 -0.225641 -0.563570 0.004388 -0.258401 0.123735 -0.032416 -0.220403 0.202860 -0.022409 -0.085132 0.195737 0.219904 0.477700 -0.064450 0.053174 0.547915 0.391503 0.026585 -0.091379 0.239169 -0.123003 0.360846 -0.375670 -0.021164 0.075588 -0.230856 0.264953 0.321754 -0.237492 0.408472 0.276495 0.233985 -0.256446 0.040013 0.277544 0.325082 0.253718 0.385576 0.173258 0.280067 0.385658 0.080354 0.090820 -0.565676 0.107831 -0.059476 -0.068219 0.713449 0.524637 -0.055508 -0.392789 0.109666 0.186394 0.624810 0.148241 -0.076164 0.681388 -0.185043 -0.340050 0.252796 -0.342019 0.451310 0.083762 -0.068661 0.146809 -0.019222 0.471426 -0.049578 0.396417 0.212848 -0.284663 -0.585642 0.316317 0.003193 -0.516457 0.140918 0.129640 -0.300935 0.343840 0.244246 -0.653361 0.542513 -0.247859 0.087705 -0.076804 0.394479 -0.027303 0.392180 -0.395408 0.112964 -0.490090 0.325671 -0.117284 0.069446 -0.390343 -0.012837 0.523941 0.008953 -0.476084 -0.226134 0.469573 0.449829 0.144545 0.239268 0.086141 -0.261018 0.656282 -0.161414 0.112835 0.175537 -0.443066 0.231849 0.277676 0.391975 -0.171459 -0.110065 0.072981 -0.200531 0.855449 -0.110940 -0.184347 0.518565 0.087159 0.081728 0.203751 0.193572 -0.004202 0.149801 -0.518697 0.200768 -0.327573 0.539865 -0.013234 0.111467 -0.264868 -0.003262 0.227262 0.152701 0.822273 -0.653397 0.319210 -0.182332 0.144438 0.362053 -0.477219 -0.225013 0.095666 -0.657089 0.048573 0.425852 0.227126 0.707759 0.338132 0.044014 -0.143230 -0.281395 0.308123 0.156170 -0.098195 -0.224866 -0.541241 0.320786 -0.149388 0.129617 -0.147616 0.355312 -0.824258 0.622687 0.069352 -0.043247 -0.494023 -0.378590 -0.379198 0.293492 0.240856 0.076167 0.371402 -0.035459 0.034378 0.120994 0.165208 -0.411180 -0.179233 0.005747 -0.143617 0.205010 -0.292977 0.078002 0.077605 0.413052 -0.520043 -0.393366 0.240277 -0.268679 0.192316 -0.316426 0.600709
vườn -0.968962 -0.397087 0.337237 0.159145 0.058040 -0.585704 0.101999 -0.530127 0.419373 0.588045 -0.624124 -0.153675 -0.302853 -0.372181 -0.113473 -0.445453 -0.125130 -0.337053 -0.148448 0.035323 0.468986 0.462075 -0.799165 -0.731010 0.342650 -0.597749 0.001159 0.559786 -0.172811 -0.172054 -0.118587 -0.345192 -0.127501 -0.616120 0.254646 -0.092738 0.252603 -0.064993 -0.132779 0.199879 0.317674 0.029743 -0.162431 0.074574 0.206634 -0.202325 0.580139 -0.247505 -0.130325 -0.579212 -0.358425 0.079591 -0.536520 0.518690 -0.198203 -0.018679 -0.447030 0.021048 -0.070557 -0.343090 -0.114979 -0.026461 0.154479 0.620650 -0.026651 -0.144689 -0.246456 1.024309 0.483769 -0.222191 -0.559103 0.088183 0.539296 0.469333 -0.672652 0.408165 0.017993 -0.256220 -0.785252 -0.442929 0.558092 0.346682 0.091635 0.202699 -0.278912 0.196925 0.566384 0.186738 -0.344534 -0.317677 -0.272478 -0.060851 -0.270695 0.237112 0.691115 0.778767 -0.219782 -0.270084 0.438845 -0.565917 -0.460580 0.108246 0.283335 -0.630473 -0.033249 0.284328 -0.709774 -0.506558 0.362382 -0.746987 0.683225 0.058811 0.236943 -0.207271 -0.102113 -0.106242 -0.693217 0.532670 0.533394 0.407393 -0.003175 0.149692 -0.035347 0.039778 0.668197 -0.665309 0.196888 -0.162034 0.285329 -0.287385 -0.407766 0.053257 0.561736 -0.662749 0.159333 -0.258561 -0.650447 -0.321071 -0.051353 0.711499 -0.147589 -0.508473 0.319693 0.318070 0.083216 0.641428 -0.544211 -0.590727 -0.225638 0.105945 -0.217789 0.837293 -0.186375 0.132343 -0.053139 -0.017763 -0.282350 0.045770 0.322842 0.249540 -0.164547 0.133734 0.379380 0.372696 -0.398962 -0.091935 0.386338 0.443477 0.009655 0.441463 -0.128493 -0.627981 0.111035 0.230702 0.331439 0.102228 -0.647187 -0.360388 0.310569 0.107709 -0.187805 0.389593 -0.229037 -0.764439 -0.025995 -0.294150 0.195336 0.716050 -0.246832 0.077895 0.023490 -0.259137 0.394078 -0.368369 -0.435244 -0.183238 0.329367 -0.568505 0.183476 0.267736 -0.901235 -0.313478 -0.667822 0.002709 -0.026903 -0.588575 0.421326 -0.003647 0.093685 -0.024325 0.070060 0.552810 -0.252782 0.081504 -0.203271 0.432495 -0.270379 -0.434131 -0.412262 -0.376910 0.528439 0.055852 -0.573251 -0.352180 0.869312 0.327392 -0.021853 0.242351 -0.234412 0.395501 -0.012798 0.028101 -0.018002 0.686027 0.627147 0.419046 -0.066915 -0.135834 0.386945 0.239294 0.651537 1.003386 0.304259 0.499282 -0.776036 -0.684872 0.291281 -0.251422 0.522666 0.362501 0.108218 -0.239837 0.054514 0.365995 -0.181276 0.268491 0.177691 -0.664660 -0.410303 0.114051 0.223494 -0.514646 0.350858 -0.474169 0.421343 0.662110 0.183669 0.368553 -0.141653 0.082612 0.115244 -0.101315 0.529979 0.103040 -0.073021 0.130333 -0.715908 -0.049066 0.416030 -0.003056 -0.842724 -0.338066 -0.088608 -0.507898 0.139147 -0.585769 -0.791693 0.101068 -0.089910 -0.319396 0.252975 -0.108534 -0.532223 -0.380503 0.107296 0.084725 -0.780699 -0.918945 -0.447517 0.040357
8 -0.097651 0.429529 -0.011173 -0.107940 -0.196042 0.350702 -0.183486 0.131923 0.121740 -0.067608 0.167612 0.048588 0.287769 0.089240 -0.128738 -0.199864 -0.115001 0.035518 -0.019761 -0.151269 -0.229594 -0.240575 -0.234835 -0.115392 0.103457 -0.477887 -0.046987 0.261609 -0.197904 0.347870 0.042277 0.173902 0.021799 -0.034521 -0.124421 -0.142221 -0.217355 -0.218535 -0.051600 -0.113706 0.269061 -0.164749 -0.086618 0.058873 0.086942 -0.350057 0.036871 0.110512 -0.158112 -0.216079 -0.131105 0.093977 -0.026479 -0.047136 -0.344314 -0.263539 0.145493 0.317920 0.030527 -0.248551 -0.227027 -0.223264 0.064669 -0.041934 -0.461050 -0.139595 0.073116 -0.329609 -0.054829 0.388523 -0.021071 0.277707 0.216183 -0.193743 -0.029395 -0.058360 0.103108 0.437444 -0.152785 0.517229 0.259569 0.097856 0.053871 -0.396337 0.207518 -0.019214 0.003843 -0.098310 0.304017 0.317081 -0.152464 0.067370 0.052140 -0.062362 0.162870 -0.099178 -0.209849 -0.041581 0.096791 -0.264049 -0.105386 -0.096589 0.157984 0.241444 -0.278883 -0.178427 0.126472 -0.091557 -0.066437 0.060722 0.146707 0.162234 -0.009954 -0.235276 -0.111709 0.096220 -0.293041 -0.011022 0.269113 -0.118347 0.098903 0.158431 0.015763 -0.111650 -0.133038 -0.166707 0.351949 0.012693 0.271308 0.289092 -0.088424 -0.237928 0.049095 -0.341044 -0.025249 0.031404 -0.197275 -0.248408 0.136567 -0.043155 0.021368 0.291622 -0.200975 0.105519 -0.271140 -0.208600 -0.293240 -0.074964 0.348962 -0.224263 -0.112850 0.508661 -0.103357 -0.077926 -0.019694 -0.056842 0.178357 -0.117129 -0.020454 0.013338 -0.075420 0.453524 -0.179251 0.010255 0.297142 -0.014143 -0.043376 0.656091 -0.306010 -0.036921 -0.012417 0.079086 0.081675 0.111239 0.251919 -0.075462 -0.073751 -0.351469 -0.213122 -0.232878 0.189491 0.191747 0.176673 -0.535666 -0.102144 -0.125301 0.234078 -0.177820 0.053630 0.246446 0.053838 0.046787 -0.601066 -0.037492 -0.282698 0.056356 0.373067 -0.292336 0.136022 0.270532 -0.019683 -0.135991 0.311804 -0.029129 -0.263759 -0.361184 -0.127031 0.102921 -0.299295 0.042705 0.080693 -0.072780 -0.309093 -0.087950 0.200204 -0.180239 0.497360 0.218387 -0.003162 -0.247197 -0.100155 -0.133243 0.338308 0.248111 0.131255 -0.133400 -0.056129 0.253032 0.215514 0.209973 0.025418 -0.300294 0.034258 -0.096227 -0.008099 -0.164018 -0.192967 0.067151 0.508344 0.108217 0.009969 0.315679 0.054091 0.221169 -0.111031 -0.209621 0.083330 0.074023 0.343275 -0.108677 0.020601 -0.352280 -0.079719 0.288949 -0.040595 0.146515 -0.222884 0.086067 -0.252948 0.030756 -0.080480 -0.066988 0.222278 0.044371 0.087228 0.314602 -0.239224 -0.381606 0.302445 0.207042 -0.043363 0.171830 -0.192994 0.159433 -0.156849 -0.201832 -0.285418 0.200699 -0.066781 -0.457626 0.012651 0.031944 0.194185 -0.196572 0.132213 -0.152476 0.077304 0.133853 -0.160314 0.117207 0.113838 0.390743 0.058167 -0.281239 0.056635 -0.036458 -0.150357 0.086698 0.197795 0.067219
văn_phòng -0.324437 -0.476581 0.514092 0.085501 -0.257044 -0.427932 -0.204491 0.004834 0.084161 0.221114 -0.227969 -0.291710 0.098643 -0.279995 -0.001946 -0.113666 -0.093195 -0.211040 -0.070860 -0.176958 0.360290 0.644733 -0.501102 -0.348761 0.491016 0.248268 -0.364368 0.089434 0.088227 -0.093635 -0.452145 -0.084973 0.123278 -0.279859 0.189491 -0.025625 0.310407 -0.100128 0.002149 0.049232 -0.127494 0.094331 -0.094410 -0.129344 0.237497 -0.035306 0.093249 -0.091554 -0.269781 -0.162525 -0.252046 0.255157 -0.482535 0.382073 -0.006366 -0.252627 0.196953 0.231869 0.201179 -0.538688 -0.140420 -0.152489 0.040462 0.370679 0.358056 0.220920 -0.090462 0.798422 -0.037897 -0.382502 -0.223790 -0.020353 0.086593 0.008163 -0.101150 0.386863 0.047796 0.024903 -0.051866 -0.196242 0.254419 0.131562 0.222217 -0.097871 -0.117340 0.299856 0.460101 0.283310 -0.592375 -0.159432 0.073457 0.168435 -0.231932 0.234862 0.612687 0.701839 0.256198 -0.283193 0.459392 -0.093210 -0.662532 0.391434 0.095967 -0.042297 -0.095842 -0.268929 -0.141051 -0.033849 0.147219 -0.505174 0.499499 0.043915 0.548574 -0.379350 -0.076922 -0.096553 -0.514701 0.292295 -0.135690 0.329469 0.253405 0.227716 -0.316267 0.121074 0.363453 -0.140432 0.238089 -0.322542 0.171521 -0.324132 -0.330750 -0.402227 -0.031556 -0.323326 -0.243947 -0.169643 0.050250 -0.397060 0.118339 0.903789 -0.062520 -0.291787 0.190319 -0.001689 -0.179977 -0.263843 -0.080066 -0.199427 0.173599 0.192112 -0.001293 0.399611 -0.026800 -0.004262 -0.038171 -0.254818 -0.134296 -0.185360 0.737732 0.016437 -0.135397 0.480625 0.164612 0.232239 -0.411387 0.154260 -0.002616 0.103683 0.147586 0.250380 -0.303330 -0.701325 0.228539 0.095105 0.355457 0.458558 -0.346784 -0.191415 0.153681 -0.159744 -0.052926 -0.056356 -0.251482 -0.189995 0.210929 -0.239893 -0.022846 0.720124 -0.035438 0.119358 -0.062199 0.094726 0.043814 -0.194868 -0.048757 -0.155219 0.131838 -0.050480 -0.343379 0.053246 -0.237034 -0.326735 -0.497742 0.496001 -0.065183 -0.590405 0.338163 0.130978 0.609473 -0.454494 0.124934 0.300263 -0.175294 0.130635 0.088920 -0.035856 0.074443 -0.601537 -0.116199 -0.040067 0.436486 0.079705 0.027995 -0.157302 0.642000 0.204267 -0.076832 0.363458 -0.204790 0.341922 0.166255 -0.307261 0.068325 0.375746 0.281364 0.416061 -0.242875 0.111535 0.030590 0.180790 0.291760 0.456573 0.523585 -0.049177 -0.334717 -0.832141 0.280361 0.141912 0.601341 0.984301 0.306988 -0.416974 -0.509182 0.505726 -0.182859 0.021198 -0.190383 -0.597228 -0.150061 -0.271297 0.210444 -0.548161 0.517006 -0.144753 0.235064 0.229907 -0.274232 0.282072 0.094386 -0.053285 0.099400 0.317314 0.088375 0.308440 -0.404431 -0.192752 -0.804203 0.509485 -0.082158 -0.231571 -0.784744 -0.352801 -0.018157 -0.133151 -0.416168 -0.134490 -0.480979 0.158358 -0.065017 -0.159652 0.248547 0.101626 -0.594280 0.122780 0.036323 0.261725 -0.489193 -0.818571 -0.304978 0.223394
5 -0.124790 0.446158 -0.019389 -0.112085 -0.182080 0.400412 -0.214697 0.067873 0.094627 -0.026268 0.159457 0.131848 0.294291 0.068875 -0.138748 -0.178981 -0.123311 -0.001151 0.052903 -0.120438 -0.211749 -0.236217 -0.244533 -0.074696 0.087121 -0.510876 -0.078987 0.290575 -0.108187 0.221335 0.071031 0.110582 -0.036461 -0.020209 -0.136757 -0.108664 -0.214099 -0.222945 -0.064508 -0.022840 0.275330 -0.163987 -0.061455 0.071427 0.054859 -0.376341 0.086096 0.130340 -0.090361 -0.311301 -0.135610 -0.037202 0.003730 -0.039241 -0.335809 -0.260784 0.184397 0.313591 0.064511 -0.270124 -0.131197 -0.183972 0.044039 -0.048692 -0.443344 -0.041423 0.087539 -0.389285 -0.083315 0.418276 0.001843 0.282420 0.161932 -0.245674 -0.037585 -0.092606 0.163714 0.408611 -0.084957 0.451618 0.131270 0.073908 0.046151 -0.358219 0.194040 -0.017229 0.033328 -0.150457 0.272274 0.270111 -0.160491 0.087095 0.094827 -0.048049 0.166533 -0.159919 -0.143500 -0.060293 0.088433 -0.232352 -0.148839 -0.152277 0.167256 0.209072 -0.297146 -0.186820 0.144473 -0.095403 0.012908 0.023843 0.120626 0.202964 0.015828 -0.247345 -0.020877 0.145719 -0.192857 -0.020243 0.208062 -0.144747 0.167883 0.151340 0.003030 -0.118718 -0.162385 -0.207027 0.361664 0.038462 0.261180 0.294999 -0.024239 -0.246659 0.034405 -0.317602 -0.103192 -0.031400 -0.233728 -0.232782 0.123563 0.009416 0.066114 0.257484 -0.201178 0.144902 -0.269146 -0.183285 -0.236111 -0.092682 0.340378 -0.221742 -0.156427 0.523799 -0.115882 -0.048577 -0.034783 -0.102796 0.098864 -0.120140 -0.045058 -0.026616 -0.093913 0.372972 -0.279601 -0.006942 0.227071 -0.019649 -0.039980 0.632329 -0.379682 -0.062794 0.024350 0.081506 0.135430 0.203524 0.255175 -0.026097 -0.014810 -0.361759 -0.212404 -0.199964 0.191745 0.176874 0.122158 -0.484237 -0.052546 -0.033981 0.138959 -0.230965 0.093710 0.236711 0.076928 -0.004812 -0.550877 -0.016941 -0.276837 0.022725 0.359251 -0.308095 0.099394 0.219136 0.018173 -0.081084 0.249418 -0.026574 -0.336732 -0.323006 -0.137851 0.156794 -0.214730 0.092685 0.074746 -0.116072 -0.266121 -0.104572 0.179672 -0.222119 0.541068 0.258618 0.110132 -0.243075 -0.101496 -0.118718 0.366298 0.212001 0.130954 -0.059199 -0.054564 0.248689 0.168786 0.127416 0.094689 -0.282693 -0.015994 -0.148390 -0.012354 -0.238217 -0.205138 0.084101 0.515206 0.136782 -0.047435 0.315170 0.062187 0.261821 -0.065713 -0.174964 0.098960 0.082858 0.388555 -0.127683 0.020078 -0.317612 -0.121159 0.231480 0.033359 0.114379 -0.147097 0.081080 -0.268827 -0.025822 -0.123492 -0.127051 0.206460 -0.007663 0.068312 0.363164 -0.217236 -0.320655 0.346835 0.164176 -0.014684 0.171512 -0.171809 0.128121 -0.143130 -0.202015 -0.238479 0.158011 -0.121540 -0.431353 0.021249 0.013039 0.116553 -0.178933 0.165041 -0.141390 0.083162 0.128281 -0.164213 0.067756 0.075453 0.380201 0.032480 -0.229161 0.062210 0.018919 -0.149863 0.072435 0.262386 0.062656
Phòng 0.012208 -0.449141 -0.100475 0.265600 -0.132529 -0.033101 0.263338 -0.653374 -0.213427 -0.215489 -0.304243 0.479439 -0.043113 0.382708 0.240522 -0.039015 -0.223992 -0.012796 -0.110956 -0.173584 0.237037 0.177344 0.123874 0.419971 -0.148187 0.190804 -0.211705 0.425756 -0.144131 -0.499676 -0.122657 -0.012050 0.125487 -0.271012 -0.525154 0.089278 0.296497 0.222852 -0.014736 0.026173 -0.070005 -0.078419 0.708366 0.038197 0.179212 -0.150705 -0.449567 0.432773 0.028663 0.205108 -0.371619 -0.155729 0.507031 -0.776557 0.118554 0.067086 -0.416887 0.269528 -0.289730 -0.016318 -0.217312 0.295107 -0.147974 -0.006555 0.225159 0.204840 -0.513681 0.187303 0.040502 -0.035206 0.395743 0.121231 0.179988 0.004748 0.191266 -0.612545 -0.229789 -0.041339 -0.047263 -0.227723 -0.041907 -0.017180 -0.465365 -0.259404 0.317144 -0.025936 -0.035772 -0.105386 -0.182376 0.274990 -0.010896 0.469908 -0.028793 -0.106211 -0.135292 -0.455988 0.325017 -0.121512 0.083891 0.223114 0.366749 -0.147708 0.059104 0.011677 -0.121855 0.090985 0.190799 0.231559 0.337086 -0.156808 -0.047699 0.699393 -0.339539 -0.089749 -0.078015 0.290128 0.564581 0.339682 0.020804 -0.072692 -0.162366 -0.306775 0.351887 -0.063338 -0.802153 0.272897 0.031683 -0.066317 0.074534 0.110288 0.483831 0.439612 0.111260 0.289218 0.362565 -0.197584 0.138121 0.388068 -0.108497 0.063714 -0.298841 -0.021843 -0.474927 0.077236 0.563688 0.173274 0.126628 -0.015485 -0.435446 -0.154184 0.604371 0.109840 0.514283 -0.084938 0.534982 0.613367 -0.145602 0.167091 0.062374 0.043010 -0.206050 -0.322000 -0.347110 -0.342376 -0.268521 0.061896 0.208991 -0.570269 0.094725 0.189249 -0.386659 -0.131704 -0.080026 -0.216946 -0.289366 0.002727 -0.058793 0.491070 0.220185 -0.181721 0.035638 -0.178841 -0.158576 -0.194420 0.009917 -0.110300 -0.165710 -0.323519 0.366426 -0.604903 -0.026920 0.130214 0.438143 -0.065074 -0.197197 -0.540004 -0.733844 0.054337 0.350349 0.009430 -0.086826 -0.303025 -0.430583 0.442798 0.175891 -0.079444 0.398657 0.189675 -0.033689 -0.028353 -0.057602 -0.209559 0.485543 -0.198045 0.401851 0.148052 -0.276096 -0.060724 0.413167 0.090217 -0.535002 0.403107 -0.676386 -0.258749 0.130801 0.302355 0.076648 -0.429209 -0.349082 -0.289836 0.151309 -0.455401 -0.162015 -0.504625 -0.077906 -0.085038 0.166387 -0.024207 -0.428446 -0.189749 -0.571692 -0.105177 -0.166011 0.002347 0.148482 -0.032739 0.270327 -0.101711 -0.662113 0.216271 -0.557858 0.329553 0.363102 -0.776117 0.569352 0.106363 0.057021 -0.021993 -0.043456 0.414962 -0.226542 0.169021 -0.139037 -0.472326 0.207973 -0.138257 0.542339 -0.129101 -0.151391 -0.754251 -0.286112 -0.257214 -0.024057 -0.050183 0.274767 -0.248620 0.563636 0.022796 0.244196 0.509296 0.164942 0.033769 -0.027282 0.174122 -0.347349 0.216965 0.627700 -0.721152 -0.016362 -0.549670 -0.152918 0.405946 0.101506 -0.268447 -0.268173 -0.135406 0.588152 -0.250854 0.147611 -0.001803
1 -0.083526 0.415885 0.001744 -0.121627 -0.199126 0.345286 -0.158256 0.073499 0.133233 -0.000850 0.226954 0.167945 0.302676 0.047738 -0.148471 -0.169283 -0.141601 0.007370 0.026700 -0.135525 -0.184159 -0.224052 -0.240877 -0.033859 0.075136 -0.442557 -0.147104 0.274048 -0.144202 0.213559 0.025633 0.120356 -0.036977 -0.002467 -0.168822 -0.094192 -0.187569 -0.218791 -0.083943 -0.086663 0.253035 -0.149475 -0.087862 0.056346 0.050143 -0.337972 0.056146 0.092745 -0.109110 -0.234365 -0.130157 0.033358 0.076901 -0.043143 -0.262610 -0.246406 0.155998 0.307458 0.049167 -0.279721 -0.119989 -0.201183 0.047717 -0.003454 -0.384710 -0.079254 0.096267 -0.383157 -0.043261 0.400247 0.021029 0.288276 0.102406 -0.247356 -0.011090 -0.040643 0.121021 0.440208 -0.082479 0.438617 0.129395 0.024208 0.069666 -0.381351 0.170400 -0.016421 0.008816 -0.110778 0.256027 0.299104 -0.122809 0.124163 0.110061 -0.035221 0.157061 -0.180353 -0.115389 -0.050502 0.059704 -0.189886 -0.108921 -0.138985 0.121732 0.276104 -0.245535 -0.179433 0.152254 -0.069743 -0.006024 0.079239 0.113164 0.178778 0.000160 -0.191057 -0.028593 0.134325 -0.153236 -0.044350 0.191328 -0.171583 0.144101 0.145893 -0.021849 -0.114884 -0.175845 -0.162925 0.349727 0.052047 0.262224 0.252866 -0.063538 -0.231031 0.020571 -0.272476 -0.047437 -0.009521 -0.206171 -0.216978 0.077773 -0.030510 0.028320 0.218986 -0.217023 0.123121 -0.264559 -0.222527 -0.196398 -0.054310 0.306104 -0.196298 -0.156105 0.435347 -0.075744 -0.062353 0.041591 -0.045907 0.086092 -0.059097 -0.034157 -0.018085 -0.076858 0.389425 -0.283580 -0.025453 0.229575 -0.007850 -0.020190 0.628810 -0.385025 -0.022198 0.049896 0.045744 0.123409 0.199376 0.274242 -0.065386 0.008645 -0.356578 -0.219765 -0.223337 0.196356 0.176712 0.148494 -0.424394 -0.069296 -0.063612 0.163798 -0.209449 0.075010 0.243487 0.004062 0.053826 -0.547705 0.030840 -0.258220 0.029254 0.322772 -0.309293 0.079666 0.176629 0.026980 -0.083716 0.225145 -0.011657 -0.315479 -0.324288 -0.177891 0.151803 -0.230903 0.014128 0.042258 -0.146385 -0.247866 -0.043283 0.174982 -0.185544 0.523450 0.235788 0.115483 -0.237260 -0.071590 -0.116379 0.319107 0.218918 0.145205 -0.080050 -0.096538 0.218043 0.170483 0.115512 0.054570 -0.318798 -0.067902 -0.139767 0.004000 -0.283619 -0.194465 0.081259 0.451507 0.167799 -0.015773 0.234229 0.031016 0.222250 -0.041770 -0.190405 0.129786 0.086400 0.363081 -0.099946 0.040027 -0.345366 -0.131819 0.202387 0.031343 0.109809 -0.183347 0.111256 -0.243563 -0.028766 -0.172444 -0.059502 0.188277 0.012554 0.073929 0.313205 -0.175615 -0.291326 0.289717 0.147356 -0.023137 0.202133 -0.182623 0.122242 -0.146590 -0.204697 -0.240915 0.194933 -0.118377 -0.469403 0.036823 0.002875 0.138549 -0.199697 0.098377 -0.138485 0.091918 0.117797 -0.136166 0.073318 0.042709 0.388932 0.038105 -0.235356 0.060341 0.013139 -0.132741 0.072337 0.286514 0.082379
11 0.007005 0.479868 -0.045092 -0.136183 -0.251934 0.358897 -0.241758 0.085040 0.184150 -0.035202 0.263959 0.068495 0.305322 0.021400 -0.106809 -0.220670 -0.143002 -0.024180 -0.014021 -0.196189 -0.229999 -0.250777 -0.229905 -0.131161 0.146165 -0.485867 -0.129925 0.280829 -0.263562 0.326754 0.051662 0.168231 0.008165 -0.067827 -0.132093 -0.143157 -0.285540 -0.186291 -0.043757 -0.095006 0.302496 -0.198285 -0.090609 0.095257 0.089399 -0.400486 0.051065 0.130597 -0.177895 -0.244959 -0.125349 0.052537 0.018768 0.007208 -0.403395 -0.242883 0.203338 0.373764 0.062267 -0.267805 -0.205174 -0.298251 0.103902 -0.060928 -0.433023 -0.144284 0.194427 -0.436937 -0.049086 0.487914 -0.006278 0.321419 0.201295 -0.215521 -0.026330 -0.059444 0.080561 0.491642 -0.152659 0.612834 0.173286 0.081286 0.097209 -0.391823 0.302436 0.080421 0.014320 -0.075304 0.363678 0.386250 -0.113479 0.143846 0.042455 -0.099797 0.174203 -0.150715 -0.206525 -0.060870 0.082624 -0.281355 -0.084046 -0.145069 0.140989 0.238613 -0.296288 -0.118740 0.128982 -0.048941 -0.079393 0.010988 0.070023 0.217385 -0.014233 -0.304102 -0.045418 0.170614 -0.305075 -0.077535 0.263416 -0.098049 0.066890 0.239368 0.008137 -0.092549 -0.134545 -0.264432 0.361693 0.040941 0.339400 0.272581 -0.074841 -0.338248 0.009058 -0.393678 -0.045834 0.061491 -0.218925 -0.262884 0.166915 -0.036180 0.011209 0.310660 -0.226955 0.072404 -0.313783 -0.238021 -0.326073 -0.082314 0.325346 -0.266291 -0.188022 0.557510 -0.164718 -0.129550 -0.040541 -0.057803 0.172664 -0.128233 -0.000698 0.061013 -0.070152 0.522704 -0.219054 -0.032223 0.321080 -0.045536 0.009964 0.720074 -0.290252 -0.023999 0.026448 0.073378 0.113371 0.107962 0.288946 -0.158733 -0.050371 -0.390974 -0.209501 -0.252748 0.258131 0.216786 0.242727 -0.508988 -0.091284 -0.147311 0.264743 -0.194695 0.086217 0.310690 0.084630 0.051574 -0.676681 0.001763 -0.310173 0.149354 0.348990 -0.287385 0.132662 0.264736 -0.014794 -0.193771 0.328575 -0.014485 -0.337200 -0.398378 -0.137570 0.132232 -0.355317 0.033754 0.077240 -0.122133 -0.374856 -0.099335 0.163445 -0.206579 0.529489 0.195369 -0.021516 -0.297510 -0.081822 -0.167845 0.400082 0.248636 0.135956 -0.093608 -0.082608 0.236586 0.215174 0.187660 0.074303 -0.383365 0.050758 -0.152988 -0.015999 -0.246515 -0.262730 0.068730 0.553742 0.217000 -0.048025 0.418903 0.034791 0.269843 -0.144288 -0.280531 0.138149 0.094767 0.450927 -0.118707 0.036978 -0.389797 -0.104990 0.333233 0.010619 0.128494 -0.227303 0.076610 -0.282424 0.060699 -0.112993 -0.085343 0.246380 0.042123 0.086607 0.305772 -0.200899 -0.409407 0.350699 0.142298 0.009586 0.191754 -0.232738 0.125539 -0.187252 -0.232397 -0.359579 0.265240 -0.109357 -0.537744 0.004610 0.045059 0.209909 -0.238586 0.099893 -0.168487 0.111529 0.185334 -0.188388 0.163491 0.116196 0.370834 0.037601 -0.310661 0.045262 -0.092287 -0.156581 0.145194 0.167411 0.141162
hành_lang -0.282524 -0.431670 0.551988 0.103821 -0.207017 -0.462225 -0.178153 -0.096161 0.223018 0.275923 -0.062519 -0.420119 0.016642 -0.325339 -0.037707 -0.223494 -0.156275 -0.303675 -0.122414 -0.255038 0.424346 0.710283 -0.479835 -0.371850 0.491170 0.348720 -0.445350 0.104891 0.084104 -0.099447 -0.459595 -0.059696 0.130130 -0.309911 0.113425 0.015362 0.169749 0.008710 -0.064426 -0.022110 -0.179252 0.148683 -0.013328 -0.046127 0.185393 0.085083 0.065678 -0.124136 -0.233311 -0.116929 -0.017410 0.164507 -0.405552 0.509323 -0.210335 -0.250082 0.122175 0.190344 0.220360 -0.467198 -0.191636 -0.277102 -0.039130 0.361179 0.503638 0.106570 -0.015015 0.821110 -0.044902 -0.295108 -0.178289 -0.015222 -0.005833 0.185069 -0.182113 0.396125 0.116891 0.075527 0.033488 -0.000732 0.323141 -0.051130 0.405868 -0.122842 -0.109512 0.245465 0.280790 0.421813 -0.513933 -0.126681 0.193941 0.076775 -0.297346 0.085939 0.456090 0.701145 0.180369 -0.334065 0.492517 -0.145067 -0.540329 0.336380 0.006058 0.026527 -0.019972 -0.231515 -0.199583 0.050159 0.029292 -0.462826 0.437205 0.099260 0.428523 -0.228446 -0.119566 -0.073623 -0.376610 0.218882 -0.154655 0.307518 0.190436 0.226413 -0.240260 0.242520 0.359656 -0.224490 0.167998 -0.393123 0.148280 -0.443060 -0.354364 -0.411395 -0.121928 -0.424571 -0.301276 -0.210458 -0.089590 -0.423798 -0.005703 0.731548 -0.191772 -0.277183 0.342883 -0.135915 -0.119059 -0.239137 -0.020778 -0.221149 0.047495 0.297932 0.063125 0.426126 0.037260 -0.107387 -0.134449 -0.256242 -0.034599 -0.164513 0.779575 -0.025975 -0.036186 0.466379 0.150368 0.281565 -0.373288 0.165266 0.067364 0.121856 0.135968 0.206808 -0.259025 -0.617578 0.326556 0.127219 0.424428 0.393777 -0.430112 -0.096204 0.088134 -0.186657 -0.154768 -0.022930 -0.303282 -0.057864 0.247379 -0.200360 0.001314 0.653419 -0.168662 0.193567 0.009810 0.125230 0.049636 -0.093882 -0.052839 0.074616 0.046160 0.023427 -0.232459 0.035671 -0.177766 -0.424512 -0.552756 0.398800 -0.050561 -0.567385 0.254576 0.040845 0.403151 -0.539105 0.129020 0.232194 -0.193818 0.183820 0.151648 0.047661 -0.031907 -0.622554 -0.032549 -0.000660 0.405780 0.091413 -0.128494 -0.111446 0.637914 0.241368 -0.211672 0.275584 -0.214451 0.428265 0.204505 -0.291252 0.037152 0.421323 0.242747 0.274513 -0.203044 0.053766 0.123068 0.180439 0.372755 0.305161 0.458975 -0.085456 -0.302669 -0.856264 0.331664 0.124036 0.639868 0.744063 0.430609 -0.533918 -0.643762 0.472048 -0.285085 -0.018338 -0.183309 -0.445686 -0.008892 -0.266799 0.146589 -0.473577 0.520949 -0.114547 0.168280 0.214298 -0.206929 0.246565 0.095024 -0.067838 0.089547 0.305244 0.100932 0.290293 -0.513458 -0.218060 -0.809607 0.644100 -0.013480 -0.284860 -0.726069 -0.354162 -0.029454 -0.165114 -0.555873 -0.267644 -0.587148 0.299350 -0.187761 -0.058979 0.201961 0.012808 -0.608992 0.176970 0.090245 0.207931 -0.511535 -0.782768 -0.158835 0.208342
10 -0.043900 0.446568 -0.023945 -0.102561 -0.202473 0.370090 -0.199267 0.003868 0.101856 0.015237 0.212004 0.110478 0.360826 -0.054015 -0.099494 -0.214396 -0.134759 -0.061817 -0.034175 -0.126755 -0.167770 -0.220876 -0.200380 -0.078595 0.175023 -0.446295 -0.161559 0.287073 -0.172068 0.268133 0.045408 0.097897 -0.015281 -0.012731 -0.163663 -0.055346 -0.217871 -0.219482 -0.073444 -0.025878 0.291014 -0.180341 -0.122047 0.088468 0.097191 -0.434020 0.052392 0.098514 -0.122680 -0.224970 -0.140232 -0.001028 0.073691 0.006892 -0.321712 -0.257644 0.228370 0.377500 0.089855 -0.340815 -0.087218 -0.230556 0.113129 -0.015601 -0.353096 -0.062948 0.131194 -0.393513 -0.084944 0.456465 -0.023835 0.330455 0.119570 -0.247975 -0.057964 -0.026336 0.112486 0.485637 -0.078926 0.522219 0.121012 0.039285 0.074709 -0.387927 0.222192 0.084917 0.007027 -0.063478 0.324917 0.329685 -0.095466 0.148866 0.104916 -0.027036 0.218056 -0.177338 -0.162207 -0.030567 0.098858 -0.195802 -0.119914 -0.086099 0.172473 0.269682 -0.300573 -0.123025 0.148527 -0.043186 -0.020905 0.038786 0.083010 0.216324 0.023662 -0.214860 -0.031972 0.196144 -0.203913 -0.028873 0.218981 -0.148523 0.108194 0.223081 -0.059571 -0.135494 -0.163974 -0.245279 0.366795 0.095245 0.265084 0.281929 -0.070230 -0.272433 0.052174 -0.340090 -0.078870 -0.075751 -0.237819 -0.242102 0.077080 -0.047240 0.016245 0.256385 -0.268469 0.115642 -0.287711 -0.188712 -0.224256 -0.110373 0.326518 -0.203815 -0.165027 0.510822 -0.132266 -0.106218 0.035767 -0.026193 0.136556 -0.120372 0.050119 -0.019638 -0.066904 0.503554 -0.251692 -0.066835 0.258037 -0.003282 -0.002977 0.616664 -0.329753 -0.013031 0.010559 0.057108 0.099897 0.158663 0.269991 -0.084623 -0.043532 -0.378604 -0.211688 -0.248228 0.217384 0.176194 0.219697 -0.429420 -0.081883 -0.113905 0.187050 -0.187328 0.128808 0.269940 0.035255 0.021178 -0.618972 0.050164 -0.292276 0.099713 0.346804 -0.260808 0.107251 0.201881 0.011450 -0.146734 0.201561 0.042815 -0.358320 -0.347648 -0.162653 0.235417 -0.258682 -0.011701 0.090289 -0.112382 -0.330163 -0.135580 0.226037 -0.197517 0.543789 0.192842 0.025533 -0.254920 -0.053442 -0.106979 0.335121 0.180533 0.170422 -0.059755 -0.088951 0.166532 0.160647 0.182584 0.071782 -0.394947 -0.024492 -0.149010 -0.006648 -0.276212 -0.249194 0.070508 0.512168 0.230610 -0.051394 0.334741 0.065624 0.264127 -0.066032 -0.241398 0.156143 0.126315 0.383840 -0.049264 0.032191 -0.382763 -0.178904 0.266279 0.051136 0.103314 -0.219152 0.075923 -0.300134 -0.001240 -0.148748 -0.084428 0.226493 0.016940 0.118777 0.312210 -0.164742 -0.291553 0.297312 0.086475 -0.003039 0.151716 -0.206340 0.122395 -0.199749 -0.272435 -0.308147 0.312344 -0.109027 -0.510309 0.003302 0.023403 0.174801 -0.245567 0.110005 -0.171515 0.084455 0.178773 -0.100537 0.140322 -0.001317 0.353359 -0.023904 -0.266148 0.104845 -0.011751 -0.145367 0.049530 0.222351 0.107551
nhà_bếp 0.213788 -0.378144 0.351878 0.177455 -0.099020 -0.099162 -0.388243 -0.265303 0.266701 0.038321 0.279873 -0.297723 -0.112984 -0.187473 0.118703 -0.279783 -0.184647 -0.322277 -0.025847 -0.408647 0.138180 0.686705 -0.330806 -0.200461 0.540229 0.534953 -0.380118 -0.109174 0.032568 -0.139637 -0.388458 0.010833 0.439124 -0.423165 0.007857 -0.065354 -0.012356 0.143825 0.044794 -0.230214 -0.267956 0.312242 0.289888 0.041401 0.030271 0.330411 -0.040773 -0.159337 -0.082218 -0.076172 0.409661 -0.271216 -0.311956 0.496328 -0.587426 -0.147281 0.214009 0.209249 0.125962 -0.116782 -0.560545 -0.476654 -0.353164 -0.025557 0.391257 0.067957 0.449973 0.595447 -0.176665 -0.031811 0.108088 0.028034 -0.152353 0.401225 0.096694 0.142032 0.116816 0.255358 0.200632 0.306978 0.136045 0.118252 0.575595 -0.379562 0.179023 0.202522 0.170362 0.475085 -0.571705 -0.057611 0.239336 0.011753 -0.396658 0.074355 0.258946 0.558814 0.330864 -0.325276 0.495302 -0.173370 -0.451251 0.147949 -0.070629 0.000934 -0.090126 -0.327223 0.121768 0.272147 -0.061309 -0.639912 0.162687 0.232693 0.235995 -0.269563 -0.103284 -0.156037 -0.246463 -0.071342 -0.314266 0.141286 0.161152 0.103910 -0.038270 0.395246 0.238642 -0.340713 -0.120413 -0.295812 0.261157 -0.582970 -0.324686 -0.604782 -0.182808 -0.392929 -0.475758 -0.169259 -0.148610 -0.395714 0.011623 0.426238 -0.348493 -0.245049 0.499566 -0.318780 -0.128628 -0.459547 0.203414 0.002516 -0.320101 0.268064 0.096681 0.584578 0.030102 -0.370956 -0.325472 -0.390665 -0.096200 -0.339474 0.409683 -0.151110 0.143153 0.365626 -0.033063 0.240738 -0.175351 0.089281 0.058571 0.250039 0.428240 -0.007824 -0.201974 -0.574898 0.669100 0.084498 0.399590 0.243890 -0.363608 0.160165 -0.019650 -0.147928 0.156303 -0.045340 -0.225051 0.397969 0.416882 0.129172 -0.110458 0.316893 -0.355816 0.055624 0.190217 0.018259 -0.202083 0.021239 0.044405 0.326497 -0.035533 0.339123 -0.200039 0.184459 -0.053515 -0.668245 -0.167184 0.321038 0.076418 -0.507946 0.152209 -0.161667 0.173731 -0.547889 0.168624 -0.161510 -0.122100 0.136469 0.310125 -0.082413 -0.005293 -0.631093 0.179575 0.108287 0.133449 0.009278 0.062754 0.072481 0.323609 0.138719 -0.298329 0.235098 -0.232463 0.067233 0.478275 -0.053481 0.195801 0.071365 0.044699 0.145149 -0.076941 0.008898 0.230927 0.260845 0.227741 0.264328 0.316602 -0.327414 -0.087209 -0.912540 0.170223 0.243253 0.535151 0.312538 0.540715 -0.498102 -0.709812 0.404872 -0.163182 -0.225166 -0.172498 -0.385223 0.203055 -0.364117 0.144528 -0.554407 0.360358 -0.336265 0.030634 0.058213 -0.143988 0.159666 0.163439 -0.211835 0.231001 0.449965 -0.121963 0.336216 -0.627550 -0.494207 -0.559774 0.735064 -0.274851 -0.421680 -0.208002 -0.375142 -0.037746 -0.114991 -0.633736 -0.121750 -0.431855 0.244570 -0.545401 -0.010473 0.334843 -0.030518 -0.547619 0.421439 0.021416 -0.145705 -0.465781 -0.600434 -0.194041 0.373846
14 0.029151 0.450513 -0.050719 -0.100458 -0.254764 0.388230 -0.272580 0.016326 0.099689 -0.035458 0.217599 0.101191 0.312393 -0.003881 -0.067179 -0.183880 -0.162941 -0.079139 -0.031135 -0.170779 -0.193576 -0.234503 -0.159925 -0.124889 0.168268 -0.479982 -0.152785 0.299607 -0.210326 0.263277 0.059401 0.144967 -0.026009 -0.069146 -0.120784 -0.105724 -0.256016 -0.188140 -0.022566 -0.003920 0.321986 -0.228837 -0.036259 0.132605 0.083186 -0.482805 0.026606 0.178631 -0.166500 -0.258387 -0.178625 -0.016364 0.043808 -0.026709 -0.422476 -0.240676 0.257656 0.416086 0.089175 -0.306158 -0.169753 -0.263975 0.135590 -0.095221 -0.393528 -0.067187 0.192176 -0.460615 -0.105397 0.525711 0.011958 0.308142 0.209084 -0.253008 -0.035302 -0.084647 0.096813 0.463310 -0.080755 0.601830 0.115420 0.065940 0.057606 -0.339018 0.340270 0.106799 0.057916 -0.075035 0.324021 0.338341 -0.124419 0.192541 0.050034 -0.072693 0.172549 -0.164250 -0.162288 -0.079689 0.081633 -0.249319 -0.111665 -0.133898 0.172012 0.225731 -0.347313 -0.104280 0.141158 -0.012697 -0.058154 -0.036450 0.034895 0.311127 0.042648 -0.353039 0.015218 0.246248 -0.277844 -0.048680 0.243244 -0.095658 0.084301 0.273778 0.010188 -0.106944 -0.192378 -0.293438 0.373639 0.017619 0.366416 0.282379 -0.052743 -0.331107 0.035710 -0.392906 -0.086733 0.010703 -0.179402 -0.263192 0.186879 0.036724 0.030787 0.300493 -0.272996 0.073063 -0.292212 -0.233164 -0.306064 -0.111035 0.333749 -0.270489 -0.157546 0.592078 -0.166916 -0.158049 -0.036327 -0.033166 0.153986 -0.178298 0.033726 0.048920 -0.083620 0.538383 -0.277656 -0.060495 0.258391 -0.047264 -0.003931 0.642278 -0.266353 -0.032481 -0.034503 0.065929 0.141668 0.112970 0.287551 -0.110331 -0.020173 -0.310119 -0.183439 -0.259233 0.238056 0.155997 0.229718 -0.484040 -0.074096 -0.111496 0.232061 -0.204465 0.172536 0.269054 0.130332 0.014350 -0.639977 -0.011579 -0.307469 0.083255 0.288253 -0.265208 0.160907 0.252177 -0.015131 -0.180247 0.285117 0.057708 -0.377612 -0.408004 -0.063815 0.192510 -0.273063 0.060700 0.092808 -0.111818 -0.354578 -0.161872 0.217767 -0.255461 0.520669 0.164044 0.010470 -0.291416 -0.120068 -0.144547 0.388766 0.177642 0.118891 -0.013085 -0.024201 0.188154 0.155287 0.169025 0.135408 -0.447763 0.106864 -0.198789 -0.053524 -0.209694 -0.262397 0.081376 0.557128 0.204056 -0.165431 0.428541 0.042971 0.303061 -0.157938 -0.290562 0.131870 0.104803 0.432928 -0.068330 0.005466 -0.357106 -0.129524 0.312310 0.086548 0.096619 -0.188742 -0.005861 -0.285742 0.046747 -0.104728 -0.156492 0.264943 -0.012257 0.110196 0.291404 -0.196795 -0.399633 0.405694 0.051117 -0.017518 0.159129 -0.259073 0.155408 -0.179737 -0.272957 -0.361007 0.278490 -0.112021 -0.474096 -0.017213 0.055483 0.200471 -0.190888 0.116960 -0.123645 0.148109 0.165517 -0.167945 0.140329 0.095196 0.367239 0.018535 -0.267209 0.028571 -0.069720 -0.117262 0.083120 0.141214 0.117113
4 -0.062849 0.436995 -0.014205 -0.128291 -0.194992 0.381328 -0.182891 0.032452 0.147684 -0.044514 0.206682 0.085860 0.297854 0.008144 -0.099809 -0.214889 -0.104500 -0.034002 0.015140 -0.171487 -0.165651 -0.169799 -0.223205 -0.075577 0.112965 -0.388557 -0.164648 0.272934 -0.134152 0.253071 0.033093 0.086756 -0.008427 -0.005774 -0.189561 -0.079403 -0.264085 -0.204388 -0.103834 -0.067303 0.255230 -0.120353 -0.077397 0.064692 0.080212 -0.345137 0.046493 0.101420 -0.122363 -0.245148 -0.035809 -0.037147 0.062581 0.006921 -0.352273 -0.277584 0.206820 0.332631 0.083777 -0.290881 -0.093130 -0.196343 0.084885 -0.029777 -0.316336 -0.063882 0.159838 -0.412271 -0.087788 0.429362 0.019278 0.291296 0.144838 -0.250032 -0.044267 -0.045968 0.118760 0.481568 -0.022958 0.535335 0.129998 0.024837 0.089226 -0.384314 0.221124 0.032636 -0.016190 -0.042500 0.275337 0.262348 -0.084619 0.100476 0.098331 -0.087087 0.162700 -0.169754 -0.124668 -0.065507 0.074695 -0.206869 -0.122420 -0.118521 0.124879 0.263630 -0.272772 -0.121545 0.166365 -0.046581 -0.027420 0.028870 0.070241 0.243597 0.005167 -0.208930 -0.055872 0.196545 -0.167360 -0.023336 0.200935 -0.139747 0.117094 0.191439 -0.034634 -0.085874 -0.203084 -0.210597 0.316176 0.086023 0.250911 0.280773 -0.046038 -0.276858 0.033450 -0.314275 -0.086490 -0.070591 -0.202893 -0.214082 0.060697 -0.069347 0.000233 0.241222 -0.227067 0.100170 -0.264762 -0.202235 -0.188420 -0.061786 0.276899 -0.206458 -0.120503 0.504354 -0.120546 -0.125318 -0.037954 -0.060349 0.159843 -0.093536 0.016415 -0.004825 -0.049297 0.407773 -0.234404 -0.027152 0.270820 -0.024049 -0.008187 0.587447 -0.325776 -0.037931 0.040597 0.098834 0.112817 0.150695 0.237921 -0.040486 -0.015326 -0.350339 -0.248744 -0.232399 0.192570 0.177366 0.179967 -0.362014 -0.045949 -0.048843 0.156886 -0.213208 0.103777 0.236464 0.049769 0.014405 -0.569299 0.025582 -0.266055 0.116575 0.310721 -0.274757 0.127708 0.206074 0.058812 -0.121168 0.201991 0.017083 -0.352435 -0.305077 -0.152279 0.183589 -0.278840 -0.015248 0.090133 -0.140665 -0.282533 -0.104350 0.221034 -0.161822 0.551360 0.198504 0.096335 -0.187014 -0.101058 -0.102664 0.329795 0.214113 0.120187 -0.059748 -0.086395 0.175580 0.179326 0.160571 0.074530 -0.329402 -0.057986 -0.154632 -0.022729 -0.291673 -0.205022 0.053509 0.498455 0.185565 -0.051828 0.278193 0.068584 0.256818 -0.035988 -0.208630 0.144841 0.118803 0.375038 -0.113667 -0.001670 -0.331021 -0.175874 0.223530 0.062609 0.104775 -0.191172 0.103267 -0.227380 -0.022528 -0.118392 -0.058683 0.164035 -0.019175 0.048352 0.279942 -0.165056 -0.289116 0.308180 0.084964 0.001199 0.173525 -0.200408 0.099883 -0.218741 -0.260890 -0.220624 0.262953 -0.068303 -0.466177 0.016698 0.000971 0.141371 -0.175445 0.081231 -0.171412 0.025530 0.172868 -0.123006 0.094413 0.017713 0.364280 0.026114 -0.229982 0.104524 -0.042563 -0.116692 0.100320 0.280358 0.117414
7 -0.006223 0.381768 -0.026691 -0.134437 -0.168890 0.329669 -0.229151 0.052127 0.114195 -0.083952 0.180752 0.046268 0.290522 -0.000535 -0.066331 -0.231662 -0.072255 -0.062151 -0.018615 -0.216746 -0.175601 -0.190696 -0.191082 -0.120056 0.124658 -0.447514 -0.103082 0.258244 -0.180783 0.321114 0.041341 0.126479 0.015600 -0.047206 -0.153767 -0.092903 -0.228749 -0.127598 -0.057046 -0.055159 0.268871 -0.171948 -0.071768 0.102471 0.132704 -0.349668 0.067850 0.083661 -0.177112 -0.258117 -0.085534 -0.001165 -0.065852 -0.015266 -0.417736 -0.264999 0.226465 0.290098 0.080892 -0.306423 -0.154696 -0.254059 0.130204 -0.069446 -0.341451 -0.051909 0.188887 -0.397317 -0.168425 0.413057 0.009452 0.259133 0.279985 -0.259499 -0.115251 -0.060829 0.077676 0.445885 -0.087754 0.528889 0.236771 0.075566 0.046846 -0.365183 0.179551 0.068749 -0.003438 -0.042985 0.338086 0.270608 -0.104198 0.144304 0.072310 -0.081044 0.131783 -0.123357 -0.183764 -0.024460 0.119552 -0.257249 -0.126830 -0.074619 0.145808 0.194525 -0.312939 -0.107623 0.128719 -0.084124 -0.060549 0.047278 0.089040 0.226430 0.080968 -0.248277 -0.113890 0.192771 -0.328507 -0.059531 0.262732 -0.079784 0.069475 0.235485 0.006573 -0.035494 -0.197325 -0.212019 0.329586 0.030289 0.218865 0.279550 -0.054225 -0.285147 0.034768 -0.354594 -0.060503 -0.060782 -0.168777 -0.237403 0.150111 -0.045653 0.022431 0.257115 -0.160608 0.079762 -0.285300 -0.142792 -0.272792 -0.117508 0.337178 -0.234587 -0.062025 0.539255 -0.140925 -0.168649 -0.117200 -0.059751 0.172588 -0.136009 0.107595 0.026858 -0.019713 0.471070 -0.152256 0.033467 0.302045 0.004394 -0.052391 0.616496 -0.280121 -0.092088 -0.002774 0.090226 0.089710 0.076055 0.258906 -0.028645 -0.110827 -0.363652 -0.221331 -0.220906 0.163039 0.197746 0.175205 -0.461394 -0.030847 -0.119922 0.217767 -0.201096 0.132866 0.269214 0.061098 0.031035 -0.583041 -0.056092 -0.242709 0.118995 0.339815 -0.310731 0.168863 0.271660 -0.001610 -0.145018 0.246523 0.034408 -0.303090 -0.309640 -0.095514 0.144969 -0.287516 -0.011396 0.140814 -0.075313 -0.363253 -0.101194 0.255855 -0.146308 0.504903 0.168882 0.016647 -0.183743 -0.092019 -0.102049 0.352887 0.140055 0.096884 -0.030588 -0.072136 0.231544 0.228411 0.235228 0.072489 -0.351243 0.029096 -0.145554 -0.016546 -0.191456 -0.236735 0.108455 0.533932 0.127881 -0.017968 0.397997 0.075320 0.249978 -0.090330 -0.266349 0.093874 0.147679 0.386034 -0.040333 0.012433 -0.407696 -0.174350 0.282607 -0.011870 0.147193 -0.199159 0.077974 -0.270954 -0.004036 -0.043113 -0.072755 0.184568 -0.015943 0.097776 0.320621 -0.246361 -0.413056 0.337904 0.104591 0.013865 0.116740 -0.225014 0.128421 -0.187812 -0.242041 -0.246189 0.270456 -0.071545 -0.456202 -0.046169 -0.025490 0.149811 -0.164391 0.107502 -0.189704 -0.003701 0.178165 -0.155760 0.070286 0.115652 0.385917 0.004869 -0.259599 0.044560 -0.035195 -0.119510 0.091712 0.157845 0.134156
13 0.035806 0.372330 -0.083349 -0.086351 -0.235229 0.383313 -0.243126 -0.068896 0.117381 -0.055678 0.220329 0.089469 0.313909 -0.082513 -0.012389 -0.260536 -0.127909 -0.144863 -0.033669 -0.222551 -0.191234 -0.179347 -0.147709 -0.134897 0.213614 -0.422439 -0.219552 0.279834 -0.206015 0.322076 0.053106 0.091508 0.017263 -0.099037 -0.175306 -0.068354 -0.238200 -0.152969 -0.040169 -0.007429 0.321940 -0.198714 -0.037890 0.164884 0.160275 -0.481636 0.037559 0.109154 -0.185245 -0.257404 -0.135224 -0.075617 0.056406 -0.003441 -0.465562 -0.248351 0.258990 0.439127 0.086095 -0.356290 -0.191349 -0.298732 0.158774 -0.091213 -0.343770 0.024915 0.263428 -0.424527 -0.172334 0.561125 -0.025149 0.312830 0.269795 -0.253038 -0.088295 -0.086168 0.055901 0.494307 -0.061693 0.586992 0.151474 0.068709 0.069414 -0.357688 0.339990 0.131529 0.056073 -0.033729 0.328926 0.343892 -0.103525 0.209895 0.083561 -0.047610 0.233637 -0.173339 -0.191594 -0.014885 0.116414 -0.264394 -0.135874 -0.074323 0.168436 0.165542 -0.346562 -0.035464 0.139470 -0.006618 -0.005034 -0.086753 0.019623 0.370254 0.043738 -0.350043 -0.051359 0.244132 -0.359640 -0.030839 0.286725 -0.074924 0.058231 0.317926 -0.017668 -0.076044 -0.237571 -0.304287 0.313032 0.085075 0.338965 0.302688 -0.068797 -0.360094 0.073143 -0.423767 -0.097879 -0.065716 -0.197874 -0.272487 0.152677 -0.013104 -0.033972 0.281116 -0.293611 0.067257 -0.280329 -0.209447 -0.265075 -0.143181 0.263400 -0.297933 -0.151798 0.616640 -0.226438 -0.221154 -0.061159 -0.051527 0.143846 -0.162174 0.126929 0.039252 -0.042345 0.545303 -0.215306 -0.061240 0.303337 -0.051915 -0.013394 0.615526 -0.200147 -0.050520 -0.026767 0.063566 0.127686 0.107763 0.297803 -0.092222 -0.112881 -0.329098 -0.199586 -0.292581 0.267114 0.163774 0.257151 -0.427164 -0.056815 -0.125019 0.225635 -0.233697 0.187042 0.255953 0.122642 0.013986 -0.654147 0.004881 -0.327330 0.129345 0.296621 -0.260670 0.186286 0.270095 -0.086811 -0.231864 0.236839 0.060755 -0.381649 -0.427894 -0.063354 0.227937 -0.315562 -0.005046 0.150559 -0.167927 -0.409154 -0.159108 0.259011 -0.202403 0.528116 0.135898 -0.019608 -0.224091 -0.139716 -0.137084 0.365090 0.161392 0.118903 0.005353 -0.056514 0.175441 0.154735 0.189175 0.143900 -0.445399 0.077959 -0.207269 -0.027306 -0.228073 -0.283266 0.119339 0.569130 0.237352 -0.147576 0.535841 0.081770 0.314719 -0.147569 -0.362491 0.150058 0.169125 0.394477 -0.029617 0.004563 -0.393057 -0.163307 0.313832 0.112956 0.106084 -0.201035 0.012838 -0.279126 0.066740 -0.091875 -0.115267 0.207908 -0.078634 0.170908 0.272118 -0.169945 -0.375676 0.354208 -0.036614 0.029888 0.133290 -0.272911 0.171143 -0.198070 -0.340498 -0.340778 0.370437 -0.127298 -0.492851 -0.033418 -0.009996 0.214623 -0.229604 0.084568 -0.114171 0.075830 0.156456 -0.173703 0.109357 0.073635 0.384856 -0.058764 -0.301523 0.043793 -0.133544 -0.145982 0.048255 0.089869 0.191821
khu 0.113980 -0.254354 0.401710 0.350597 -0.089550 -0.173521 -0.133249 0.342023 -0.732330 -0.042089 -0.445609 -0.386853 0.803322 -0.468487 -0.176299 0.175615 -0.065152 -0.298688 -0.691830 0.186165 0.215375 0.112232 0.260875 0.256245 0.846586 0.245935 -0.361932 -0.371452 0.272923 0.342523 -0.495053 0.146775 0.236749 0.075752 -0.034775 0.369114 0.479326 -0.137956 -0.040240 0.225063 -0.308522 0.065114 -0.592147 -0.240063 0.115157 -0.588639 -0.021140 -0.228758 -0.390148 0.387102 -0.307339 0.525943 -0.472715 0.401167 0.303712 -0.321556 0.653962 0.414858 0.254769 -0.797987 0.108097 -0.008011 0.306673 -0.058942 0.362257 0.212844 -0.181136 0.405156 -0.239497 -0.082074 -0.225629 0.058136 -0.159107 -0.188089 -0.005879 0.576008 0.062191 -0.129495 0.179299 -0.079967 0.448534 -0.199357 -0.067779 0.197449 -0.170756 0.373232 0.474727 0.400009 -0.515047 0.144073 0.348568 -0.172369 0.279231 0.368120 0.771753 0.523066 0.157866 0.270780 0.281823 -0.159049 -0.724430 0.920553 0.293494 0.421066 -0.519861 -0.264062 -0.087849 0.056053 0.008173 0.133885 0.497552 -0.442135 0.525609 -0.042049 -0.050601 -0.232165 -0.518091 0.348895 0.058285 0.136088 0.281781 0.474472 -0.756694 -0.187319 0.247650 0.109525 0.425929 -0.032510 -0.006243 -0.128023 -0.308904 -0.214652 0.373431 0.038733 -0.126379 -0.247888 0.528337 -0.315033 -0.226699 0.480125 0.287270 0.025841 -0.052116 0.059510 -0.318293 -0.116799 -0.073094 -0.009435 0.734533 0.401670 -0.014079 -0.065311 0.017702 -0.257533 0.235940 0.043659 0.213673 -0.419581 0.662509 -0.081642 -0.141052 0.744872 0.565500 -0.013326 -0.216632 0.442285 -0.435113 -0.424232 0.168968 0.077134 -0.597805 -0.090328 -0.015496 0.053773 0.001042 0.734284 -0.341183 0.171131 -0.088527 -0.392210 -0.010795 -0.114179 0.058114 0.073661 0.248794 -0.282713 0.021095 0.473162 0.527677 -0.151346 -0.028834 -0.266865 -0.490214 0.039744 0.155458 -0.274815 0.589051 0.398730 -0.448966 -0.102751 0.111804 -0.329377 -0.554419 0.813560 0.046855 -0.412582 -0.052675 0.069826 0.634582 -0.258783 -0.122418 0.325886 -0.609393 -0.363900 0.640701 -0.388870 0.352178 -0.461392 -0.539989 0.344936 0.575669 0.449470 0.592885 -0.415828 0.462191 -0.318070 0.081431 0.013128 -0.273503 0.598206 -0.056820 -0.270373 0.103369 0.231341 0.361598 0.525081 -0.363704 -0.001646 -0.205035 0.260834 -0.104557 -0.042593 0.160082 -0.485279 -0.011727 -0.628405 0.123816 0.128280 -0.075625 1.111555 0.177898 -0.504594 -0.506715 0.947494 -0.077658 0.255268 -0.541718 -0.318594 -0.367994 -0.249728 0.316423 -0.139883 0.515147 0.012681 0.399812 0.005664 -0.553571 0.483152 -0.231109 -0.283009 -0.043977 0.224167 -0.462881 0.667083 -0.809205 -0.699566 -0.823200 1.056995 -0.160553 -0.247619 -0.278904 -0.056755 0.416552 -0.286178 -0.251469 0.247850 -0.520134 0.448305 0.495185 0.273469 -0.197121 0.081304 -0.469890 0.280057 0.166137 0.775715 -0.524289 -0.810837 -0.388921 0.422720
trở_lại 1.074826 0.462360 -0.284033 0.123406 0.396786 0.150618 -0.487525 -0.541588 -0.196141 -0.368230 0.351073 0.142404 -0.190644 -0.089580 0.246273 -0.452792 0.321333 -0.339242 -0.285630 -0.095273 -0.255144 -0.141565 0.756491 -0.107630 0.056839 0.050086 -0.534310 -0.583155 -0.403283 -0.312602 0.282474 0.195321 0.353481 0.380582 -0.536575 0.046710 -0.237999 0.826645 -0.140471 0.283319 0.228099 -0.362193 0.483804 0.103959 -0.003597 -0.328107 -0.340854 0.246173 -0.310819 0.148358 -0.007750 -0.644100 0.400223 -0.155490 -0.148175 0.348559 0.533363 -0.178230 0.183150 0.010743 -0.287666 -0.002847 0.637563 -0.458470 -0.236306 0.285088 0.305146 -0.606861 -0.087584 0.002578 0.601653 0.356325 -0.090587 -0.207494 -0.406068 -0.254207 0.085769 0.195300 -0.198907 0.005475 0.298150 0.455538 -0.532051 0.098834 0.396550 0.611097 0.344690 -0.053177 0.253269 -0.114035 0.275236 0.619213 0.229262 0.125647 -0.253433 -0.414982 0.277928 0.338269 -0.035956 -0.504100 -0.097313 -0.166300 -0.092154 -0.216835 -0.155382 0.117908 -0.023204 0.388143 0.218237 0.255463 -0.180100 -0.472864 0.084799 0.506113 -0.142705 0.220329 -0.299470 -0.561653 0.317825 -0.257833 -0.013568 -0.288010 0.561155 0.378084 -0.266731 -0.229348 0.021288 -0.112551 -0.150207 0.442591 -0.109405 -0.122783 0.119547 0.133604 -0.388772 -0.513622 0.002813 0.353968 0.477823 -0.381358 0.219290 -0.183462 0.006084 0.077983 -0.080626 -0.095962 0.068787 0.130797 -0.407312 0.044555 0.507075 0.064888 0.106594 -0.361106 0.171729 0.410182 -0.329340 0.055816 -0.014651 0.375359 0.208145 -0.369921 -0.372222 -0.156427 0.432499 0.024783 -0.017464 0.219458 0.210085 0.050433 0.017977 0.082819 0.313493 -0.525136 -0.066241 0.255838 0.217327 -0.494282 0.279643 0.334936 -0.286010 0.132554 0.229122 0.180082 -0.049492 0.052172 -0.025007 -0.387342 0.419865 -0.268109 0.122057 -0.314541 0.063570 -0.231888 0.314862 -0.019547 -0.344422 -0.323614 0.178633 0.430926 -0.035935 -0.163266 0.289831 0.152934 0.322312 0.304530 0.200144 0.349873 0.030242 0.278545 -0.152135 -0.546586 0.213717 0.023264 0.275735 0.118988 0.003509 -0.337184 0.161166 0.212848 -0.374369 0.023849 -0.504724 -0.179530 -0.519906 0.325150 0.209926 -0.084404 0.202117 -0.531670 0.135808 -0.497933 0.554457 -0.499270 0.034354 -0.225494 0.351276 0.263692 0.336082 0.401924 -0.045692 0.319505 -0.355889 0.152436 0.343310 -0.005587 -0.193501 0.366765 -0.567063 -0.576958 -0.096669 -0.244783 0.005532 -0.478567 0.265113 0.036421 -0.126115 0.254040 -0.319982 -0.029897 -0.114829 0.135606 -0.737683 -0.402365 0.017841 -0.542647 0.249534 -0.177027 -0.153376 -0.362390 0.118238 -0.166256 0.304034 -0.281849 0.261176 -0.355793 0.227893 0.037038 -0.275795 -0.033679 0.186469 -0.218435 -0.163198 -0.194111 -0.359102 0.093461 0.281553 -0.546152 -0.158619 -0.359442 0.262028 0.017525 -0.090393 -0.471936 -0.346581 0.237773 0.037240 0.204331 -0.465217 0.650964
3 -0.156275 0.225824 -0.114442 -0.173316 0.135503 -0.079240 -0.299880 0.307334 -0.070717 0.116757 0.151979 -0.655050 -0.053398 0.173312 -0.160771 -0.163089 0.237137 0.101025 0.021211 0.003480 0.197814 -0.100604 0.357408 -0.141045 -0.134288 0.303477 0.271749 -0.796210 -0.032353 -0.156109 0.437430 0.368650 0.236981 0.693660 -0.623548 -0.135632 -0.003113 -0.121297 -0.042572 0.221402 -0.240739 -0.577512 0.089787 0.098809 -0.009167 0.265114 -0.528166 0.220434 0.156695 -0.101389 -0.082465 -0.194162 -0.403848 -0.233791 0.164781 0.055525 -0.154945 -0.264556 0.337013 0.180008 -0.140430 0.032217 -0.176662 -0.083686 0.052807 0.136085 -0.571693 0.580568 0.088306 -0.608122 -0.052264 -0.004965 -0.590812 0.416384 -0.123275 -0.181439 0.713565 -0.272830 -0.052002 0.249221 -0.179950 -0.422500 -0.168287 0.461285 0.378004 0.053976 -0.274528 -0.515310 0.072695 0.391263 -0.133205 -0.352104 -0.352457 -0.316827 0.233463 0.216955 -0.354431 -0.044887 0.479334 -0.073513 -0.162375 -0.103674 0.002907 -0.315701 0.172919 -0.523105 0.064907 0.245803 0.215216 -0.115716 0.237490 -0.776355 -0.345722 0.067961 0.225985 -0.216796 0.221683 -0.137507 -0.419429 0.063833 0.402204 -0.157858 0.043998 -0.387771 0.384183 0.130779 -0.065346 -0.264679 -0.658191 -0.206685 -0.013049 -0.021690 -0.582427 -0.128344 -0.497734 0.273607 -0.279800 -0.002087 0.307013 0.304662 -0.032067 0.341158 0.146749 -0.106132 0.167116 -0.393258 -0.136063 0.270971 0.160153 0.529179 -0.213554 -0.589865 -0.043110 0.205803 0.332512 -0.345786 0.045873 0.140297 -0.013191 -0.090070 -0.358873 -0.027527 0.310417 0.206708 0.102437 0.257284 -0.091751 -0.430299 -0.500470 -0.080368 -0.096901 -0.044094 -0.194897 -0.028826 -0.131670 -0.237003 -0.109923 -0.266212 0.177087 -0.039071 -0.017065 -0.328122 0.121441 -0.127721 0.042216 -0.336706 -0.366111 0.118542 -0.510745 0.151851 -0.045840 -0.343551 0.089039 0.085887 0.197109 0.361867 0.056061 0.254843 -0.251982 0.093351 0.019765 -0.528651 0.308297 -0.043398 0.473480 -0.034070 0.198556 0.343417 0.412513 0.335498 -0.548019 -0.068460 -0.168655 -0.017369 -0.477973 0.050827 -0.387186 -0.108820 -0.455545 0.200419 -0.325191 -0.592657 -0.411514 0.341881 -0.027973 -0.055411 -0.003266 -0.014029 -0.234701 -0.054610 -0.010022 0.310446 0.132350 0.304379 0.069296 0.175232 0.053773 0.110320 -0.007160 -0.004487 0.425887 0.063328 0.229989 -0.133759 0.249930 0.408031 -0.192781 0.164260 -0.056944 -0.022517 0.246820 0.329202 0.151422 -0.299700 -0.262112 -0.068813 0.030093 0.063798 -0.313513 0.272710 -0.256269 -0.089670 0.059195 0.549126 0.012399 -0.116222 0.185863 0.278584 -0.166792 0.575914 0.209504 -0.179800 0.918882 -0.318722 0.576268 0.604782 -0.179428 -0.244218 -0.087634 0.351369 0.060837 -0.038659 0.224522 -0.455681 -0.031788 0.238775 0.404987 -0.048704 -0.254876 0.378616 0.083108 -0.467025 -0.111287 -0.151608 -0.202237 0.136325 -0.431724 0.149030 -0.075920 -0.325172
