57 300
. 0.136028 -0.765474 0.335378 1.073983 0.009950 0.296919 0.681921 0.000506 0.152702 0.065447 -0.050307 0.435795 0.031110 0.471814 -0.383235 -0.114945 -0.139074 0.306033 -0.169709 -0.962378 -0.150045 0.752778 -0.111522 -0.009848 -0.652641 -0.057753 0.094712 0.397679 0.001311 0.033088 -0.256904 0.018024 -0.008067 0.083263 -0.335732 -0.560740 0.216709 0.269095 -0.741474 -0.110601 0.550369 0.616454 0.395788 -0.144101 0.116247 0.006427 -0.106563 0.153069 0.210109 0.164605 0.027603 0.127885 -0.024529 0.267329 -0.070803 0.044380 0.228908 -0.622155 -0.201939 0.006856 0.684148 -0.580355 -0.040444 -0.324448 0.108827 -0.144924 0.188535 0.152309 0.284584 -0.204272 0.087023 0.195337 0.238493 -0.298802 0.105947 -0.105214 0.169902 0.090014 0.047193 0.212810 -0.801606 -0.159684 -0.089219 -0.392009 -0.148320 0.441983 -0.213029 -0.482205 0.679635 -0.432888 0.236977 0.005309 -0.584100 0.047008 -0.290349 0.625105 0.125281 0.194107 0.237156 -0.326563 0.279456 0.476112 -0.525108 -0.209203 0.196613 0.551096 0.415225 -0.205980 0.233536 0.019644 -0.300205 0.301777 0.043554 0.426243 0.700409 0.522812 0.009705 -0.113673 -0.393218 -0.449482 0.996159 -0.113643 0.416073 0.207252 -0.042559 0.104660 0.055647 -0.208111 0.426695 -0.102168 0.192143 0.090747 -0.239955 -0.325157 -0.576505 0.127702 -0.211963 0.798437 0.656461 0.096451 -0.428465 -0.130728 0.483725 -0.104668 0.426861 -0.062616 -0.437043 -0.629345 -0.097806 -0.029292 0.189983 -0.239997 -0.382544 0.196871 -0.136754 -0.038232 0.771601 -0.292610 0.276916 -0.247570 -0.289816 0.233839 -0.235622 0.230509 -0.060041 -0.264867 0.101417 0.032474 0.145939 -0.450735 -0.338108 0.838373 -0.592206 0.283367 -0.593707 0.054893 -0.487861 -0.113587 -0.209332 0.125296 0.139146 0.370790 0.365095 0.110113 -0.535269 -0.430248 0.362676 0.133350 0.452680 0.338142 0.367476 -0.212631 -0.262426 0.486584 -0.167536 -0.532967 -0.677789 0.010970 0.257563 -0.237760 0.060433 -0.125335 0.250115 0.072471 0.424023 0.517048 0.692400 -0.200963 0.161965 -0.431815 0.262620 0.574867 -0.230624 -0.168006 -0.444013 0.005390 0.231932 0.021723 -0.047580 0.668643 -0.221858 0.233754 0.148254 0.623550 0.299923 0.272722 -0.125142 0.666528 0.537974 -0.407532 0.346926 0.527431 0.324654 -0.090856 0.179942 0.065771 0.019005 0.133734 -0.393766 0.142197 0.309881 -0.110335 0.560271 -0.192596 0.109948 0.556450 -0.090211 -0.197556 0.725795 0.379323 -0.177338 -0.368387 0.536912 -0.148381 0.291650 -0.514240 -0.470837 0.864638 0.621746 -0.284949 0.168282 -0.002678 0.925784 -0.430472 -0.265942 -0.045614 -0.482045 0.446423 0.013101 -0.624642 0.245271 0.059944 0.275146 -0.351401 -0.038254 0.271703 -0.297903 0.137469 -0.078610 -0.365744 -0.198459 -0.273705 -0.272843 -0.682025 0.125727 -0.420783 0.265271 0.459255 -0.077945 0.524474 0.472594 -0.098570 -0.123487 0.080408 -0.109943 -0.448481 0.662736 0.016380 -0.621294 0.186169
đến 0.062630 0.021952 -0.230024 0.015436 -0.101381 -0.230701 0.529161 -0.002147 -0.422963 0.404533 -0.474376 0.230556 -0.092726 -0.637157 -0.700999 0.285598 -0.234555 0.497400 0.564813 -0.897567 -0.173828 0.477833 -0.691789 -0.391924 -0.491973 -0.205264 0.419348 0.346837 -0.074590 -0.045203 -0.064283 -0.335366 -0.706675 -0.533082 -0.627170 0.095286 -0.710512 0.475947 -0.094271 -0.664082 -0.067935 0.165467 0.667421 -0.115519 -0.171805 0.719885 0.042813 0.806892 0.577427 0.206195 0.246584 0.072966 0.129729 -0.065656 -0.164176 -0.239348 0.647379 0.740577 0.389102 -0.833324 0.093461 -0.329020 -0.134297 0.054228 -0.278627 0.144074 0.104331 0.206370 -0.762086 0.104115 -0.557310 0.393062 0.115442 -0.487931 0.008781 -0.115131 -0.029277 0.098847 0.431956 0.322058 0.281740 0.401346 0.358203 0.003210 0.754429 -0.094104 -0.017295 -0.642304 0.174583 -0.235456 -0.135651 0.028843 -0.219248 -0.163768 -0.246337 0.047245 0.181935 0.377916 0.480795 0.008901 0.368230 -0.081210 0.232227 -0.136872 0.608243 0.005963 0.565078 0.662336 0.083006 0.470704 -0.724896 -0.231098 0.581098 -0.377203 -0.657432 0.604323 0.224453 0.545413 0.588193 -0.031569 -0.412240 -0.338138 -0.754669 -0.113081 0.508725 0.067677 -0.059452 -0.180106 0.167739 -0.043411 -0.058533 0.527354 -0.428590 -0.325095 -0.587726 0.643893 -0.246927 0.582892 0.799733 -0.543625 -0.356003 0.142192 -0.316201 -0.180448 -0.604245 -0.376205 0.030633 -0.149903 -0.235727 -0.338038 0.644009 0.094417 -0.333813 0.526341 0.625324 0.837592 -0.420966 0.167255 0.107891 0.297414 -0.098579 0.371215 0.582143 -0.125532 -0.002234 -0.255208 -0.040122 0.189974 -0.308039 -0.410257 -0.208084 0.246024 0.100671 -0.137130 0.537452 0.494261 0.352661 -0.409068 0.169774 -0.425222 0.316221 0.480050 -0.102419 0.088938 -0.370708 -0.175850 -0.695593 -0.270552 -0.332598 0.035305 0.314651 0.154300 -0.194004 0.195304 -0.617877 -0.618894 -0.323864 -0.706046 0.288787 -0.366816 0.839884 -0.727562 0.637917 0.117057 0.546329 0.493954 0.884127 0.577307 -0.141019 0.422220 -0.077885 -0.415053 -0.907140 -0.477100 -0.303557 0.582534 -0.273743 -0.271119 0.651763 0.744378 -0.352001 -0.728380 0.076986 0.223137 0.875234 0.854641 0.708964 -0.202879 -0.109511 -0.157231 -0.163828 -0.101342 0.016649 -0.216095 -0.278789 -0.449913 0.137047 -0.116775 -0.366403 0.075617 -0.606953 0.319527 0.116162 -0.541965 0.644661 0.667481 -0.192093 -0.060351 -0.139761 0.149273 0.009766 -0.345822 0.414574 -0.671479 -0.269631 -0.292394 -0.434070 0.616040 0.218492 -0.297785 -0.414599 -0.520272 -0.103515 0.513226 0.038083 0.207126 0.387830 1.035734 0.299324 0.685555 0.017085 -0.179626 0.382847 -0.282485 -0.236553 -0.036877 0.198396 0.026406 -0.352527 0.156915 0.155980 -0.098942 0.138398 0.202976 0.954027 -0.007024 -0.158210 0.115996 -0.255659 -0.275343 0.635622 -0.408833 -0.220088 0.219813 0.022250 0.057149 -0.176137 0.221155 0.237057 0.212982
đi 0.584073 -0.125601 0.540544 0.510050 0.843340 0.206191 0.415386 0.222446 0.029048 -0.030753 0.107373 0.175931 -0.248516 -0.026142 -0.349343 -0.159872 -0.469237 0.744692 -0.226763 0.133545 0.308674 0.132361 -0.035861 0.158678 0.168359 -0.030822 -0.536263 0.108148 0.128455 -0.406952 0.094571 0.314612 -0.133356 -0.499444 0.287585 0.578950 -0.349206 0.124046 0.399075 -0.122777 -0.268381 0.520144 -0.298722 -0.187039 -0.011752 0.102030 0.707156 0.250221 -0.496226 -0.534811 -0.657389 0.297391 -0.217748 0.251746 0.166073 0.622244 -0.469245 -0.800950 -0.597575 0.024662 0.189064 -0.448784 0.360028 0.281350 0.542441 -0.113631 0.732964 0.169432 -0.304697 0.033466 -0.326634 -0.365901 0.658965 0.565016 -0.119961 -0.508199 0.232039 -0.154501 -0.423925 -0.267373 -0.211851 -0.096974 0.379554 0.094577 0.783956 -0.541593 -0.425438 -0.603259 -0.271177 0.804472 -0.352138 0.161683 -0.449670 0.340483 -0.395993 0.426004 -0.516196 -0.228994 -0.096910 -0.362557 -0.478245 0.131319 -0.525524 0.025541 -0.143487 0.431032 0.390259 -0.047538 -0.093527 1.097830 0.124319 0.063670 -0.113604 0.409387 -0.016369 0.010606 -0.182060 -0.351954 0.582641 0.239978 0.112796 0.420657 -0.664510 -0.331694 0.636500 -0.070806 0.089057 0.742736 0.204944 -0.451917 0.190997 0.420893 0.259798 -0.127156 -0.051874 -0.058361 0.232173 0.685617 0.707307 -0.044192 0.306952 -0.848769 0.940782 -0.280334 0.289453 0.156339 -0.548088 -0.383878 0.098663 0.045554 -0.208373 -0.102307 -1.062587 -0.785492 -0.184085 0.027856 -0.207234 -0.168940 -0.255400 -0.045226 0.383418 -0.071519 -0.042940 -0.184854 0.060711 -0.145353 0.241857 0.940871 0.294385 0.085670 -0.376692 0.372461 0.425128 -0.391374 -0.077775 -0.066720 0.136738 0.154997 -0.180952 -0.030534 0.250224 -0.112545 0.303352 0.178739 0.323653 0.224402 0.135509 -0.464669 0.448705 0.036396 0.101978 -0.020147 -0.353571 -0.304085 -0.213058 -0.409641 -0.424200 0.035645 -0.569121 -0.316260 0.300543 -0.162645 -0.441658 0.097930 0.209706 -0.325995 0.518097 -0.390785 0.393806 -0.140772 -0.420113 0.035260 0.557757 0.025692 -0.354677 -0.239606 -0.715554 0.128182 0.443500 0.086463 -0.171072 0.537775 1.113609 -0.125858 -0.042960 0.090110 -0.403596 0.330967 -0.030050 -0.684035 0.434078 -0.123103 0.158404 0.623828 0.059789 -0.116733 0.168547 0.310675 -0.006488 0.399212 0.501403 -0.059409 -0.236172 -0.126585 0.374132 0.416183 -0.014735 -0.090562 0.656763 1.313771 -0.402228 0.246184 -0.095732 0.285429 0.320998 -0.273952 0.336538 -0.366179 -0.132326 -0.217619 -0.097939 0.145101 0.337902 -0.699005 -0.148046 0.073103 -0.294518 0.754157 0.604186 -0.946566 0.648297 -0.091941 0.099324 -0.837352 -0.251931 0.099581 0.512775 0.203373 0.447450 -0.438931 0.291471 -0.245797 -0.405231 -0.147574 0.022154 -0.867262 0.129544 -0.071806 -0.132549 -0.273322 -0.182465 -0.139967 0.125224 -0.585397 -0.066993 -0.303003 0.510884 -0.068832 -0.204448 0.252171
? -0.817618 0.194022 -0.234199 -0.411071 -1.085171 0.806067 -0.046363 0.861217 -0.056632 0.193471 0.101507 -0.354738 0.596997 -0.399614 0.010754 0.009395 0.195789 -0.211556 0.055498 0.354063 0.358163 -0.956125 0.857278 -0.176048 0.478290 0.102639 -0.335670 -0.224767 0.556182 -0.363070 0.223517 -0.304464 -0.276192 -0.215100 -0.059577 0.011949 0.523618 -0.317858 -0.902354 0.228618 -0.428344 -0.737180 0.541693 -0.781364 0.014902 -0.077091 0.079917 -0.262026 -0.525998 -0.990510 1.004961 -0.558393 -0.203957 0.201955 0.138186 0.630072 -0.411451 -0.564079 -0.278317 0.644567 -0.584883 1.236632 0.278603 0.702880 -0.041710 -0.069030 -0.542757 -0.672448 0.337464 -0.265043 -0.526453 0.164368 -1.176733 0.298540 -0.467767 0.253955 -0.447455 -0.072029 -0.096405 -0.104597 0.000100 0.070646 -0.123373 -0.134256 -0.266991 0.507476 0.129939 1.467885 -0.048343 -0.444499 0.104638 0.640147 0.696291 0.112498 0.263102 -0.421469 -0.468072 0.319626 -0.282356 0.415823 -0.137219 -0.016345 0.663905 -0.075523 -0.420929 -0.235408 -0.078141 -0.673902 0.033006 -0.161805 0.742360 0.030562 0.416734 0.005272 0.741386 -0.428526 -0.152609 0.168671 -0.147359 -0.190126 0.255447 0.047667 0.304848 0.056301 0.464181 -0.869720 -0.133496 -0.289033 0.320128 0.659770 0.450960 -0.505742 0.226167 -0.342958 0.190764 -0.020798 -0.632203 0.099290 -0.422696 -0.431220 -0.097643 1.145555 0.493529 -0.281779 -0.305908 0.742676 0.292834 0.650316 0.895690 -0.051334 -0.259039 0.286622 0.358069 0.261424 0.501408 -0.370985 0.333258 0.598838 0.006660 0.686675 0.614921 0.196790 0.249052 -0.395230 0.216279 0.066251 -0.278787 -0.199490 0.592526 0.040215 0.873624 -1.273679 -0.148713 0.399549 -0.764715 -0.208097 0.316160 -0.059735 -0.026616 -0.412526 0.395350 -0.240855 -0.043540 0.285461 0.083143 -0.398036 0.440801 -0.214543 0.055497 -0.363575 0.259504 0.343121 -0.243044 0.204774 1.013355 0.163588 -0.417842 0.178642 -0.347358 0.106391 0.091683 0.310908 0.256359 0.364108 -0.009369 -0.627474 -1.218886 0.079911 -0.039425 1.028705 0.007576 -0.361265 0.843538 0.210631 0.066162 0.358483 -0.006352 0.426423 0.007895 -0.810691 -0.310083 0.453783 -0.550901 -0.937272 -0.111344 -0.271010 0.333979 -0.766969 -0.243831 0.351100 -0.082264 0.043751 -0.047674 0.378145 -0.346500 0.409154 0.421405 0.754957 0.082276 0.236852 -0.629748 -0.741830 -0.039173 0.296540 -0.543425 -0.662149 -0.279940 -0.130094 -0.226099 -0.384750 -0.011826 0.291150 -1.087084 0.100105 -0.130635 0.130804 -0.857232 -0.105951 -0.579691 0.922960 -0.496143 0.730947 -1.272291 1.097859 0.185957 0.564893 0.646811 -0.639799 0.025378 0.490586 -0.088175 -1.049537 0.083193 -0.389132 -0.149641 0.538328 -0.226859 -0.906251 -0.095374 0.551289 -0.807847 0.110946 -0.074762 0.109677 -0.117264 0.395120 0.106658 -0.417786 0.343037 0.439977 -0.705644 0.153185 0.476419 0.664622 0.095570 0.654219 -0.211378 0.688932 0.222388 0.135753
ở -0.048826 0.760367 -0.077903 -0.691689 -0.390718 0.343151 0.200545 0.314694 0.389278 0.767929 0.090220 -0.222930 0.085204 0.158398 0.534338 0.418607 0.224609 -0.234413 0.198215 0.471800 0.307894 0.191742 0.344906 0.071809 0.687344 -0.126044 -0.107698 -0.116543 0.424524 -1.034425 0.369936 -0.312484 -0.209344 0.591289 0.741623 0.386165 0.495286 -0.361317 -0.177025 0.273904 -0.127160 -0.528509 0.148462 -0.394896 0.306295 -0.771869 -0.216499 -0.195386 0.414575 -0.588219 0.910767 -0.003099 -0.450552 -0.257569 -0.327317 -0.025704 -0.138175 0.430825 -0.203387 -0.254618 -0.554780 1.220121 0.444782 -0.146893 -0.509631 -0.386670 -0.800489 0.040356 0.000216 -0.234446 -0.833253 -0.765006 -0.045769 -0.829307 -0.131429 -0.485610 -0.141382 0.102825 0.371868 -0.371667 -0.349977 -0.272031 0.103582 -0.244736 -0.543980 0.220497 -0.021834 -0.039578 0.198194 -0.253616 -0.027398 0.020787 0.361311 -0.337001 0.116944 -0.422265 -0.136167 0.047938 -0.966972 0.340337 0.148791 -0.869457 0.757966 -0.410469 -0.057925 -0.400477 0.094723 -0.190612 -0.803084 -0.296278 0.765196 0.101305 -0.091141 0.208331 0.358008 -0.581232 -0.090258 0.403923 -0.065875 -0.146483 -0.381037 -0.452752 0.344646 0.074522 0.299900 -0.250557 1.200893 -0.926446 -0.748097 0.318078 0.594940 -0.435092 0.235703 -0.524539 0.053314 -0.039779 -0.345295 0.145922 -0.844734 -0.660812 0.989144 0.599776 -0.007519 0.558899 0.215490 0.645991 -0.610874 0.038012 0.613535 0.826376 -0.031321 -0.010566 -0.113853 0.891799 0.386230 -0.188775 -0.414167 -0.238570 0.477207 0.175090 0.026700 0.465616 -0.520328 -0.653759 0.850385 0.281195 -0.102851 -0.277446 0.474512 -0.166896 0.793502 -0.027213 0.469748 0.284477 -0.160683 0.132100 -0.133815 0.477751 -0.274552 -0.778460 -0.674202 -0.011586 -0.610283 0.755452 0.343809 0.373672 0.749614 0.367610 -0.282644 0.291753 -0.517250 0.206351 -0.593011 -0.186122 0.462572 -0.250286 0.182590 -0.386199 -0.043661 -0.020114 -0.250628 0.348850 0.588961 0.173248 -0.280833 -0.476896 -0.823230 0.197271 -0.089248 0.359386 0.873799 -0.190699 -0.053841 0.103547 -0.391412 -0.290873 -0.223579 0.160340 -0.353174 -1.117686 -0.442235 0.068652 -0.058252 -0.176959 -0.442309 -1.080282 -0.223514 -0.061325 -0.498342 -0.046410 0.434556 -0.220594 -0.219697 0.665815 -1.044272 -0.087992 0.829306 -0.017283 -0.320429 -0.148383 0.037555 -0.605853 -0.861484 0.053295 0.374378 -0.493887 -0.055394 -0.349065 -0.420745 -0.410659 0.029414 0.740189 -0.757622 -0.603782 -0.406620 0.090893 -0.711201 -0.294239 -0.835992 -0.094627 0.248928 0.934423 -1.136268 0.288458 0.417017 0.495613 0.245038 -0.060364 -0.667244 0.225495 -0.083853 -0.280795 0.130246 -0.411344 -0.269374 0.180082 -0.346407 -0.086919 -0.229342 -0.260586 -1.118997 0.481142 -0.069661 0.514076 -0.172897 0.645096 -0.362482 -0.308585 0.614416 0.074756 -0.233183 0.397420 0.405238 -0.269486 -0.480829 0.415198 -0.990967 -0.026691 0.166006 -0.232641
đâu -0.185848 0.002228 0.150399 -0.378621 0.281977 0.923344 -0.847017 -0.294632 -0.002314 -0.153521 -0.053753 0.172253 0.762400 -0.676039 -0.297440 -0.367732 0.549931 -0.567287 0.558204 0.386296 -0.107765 -0.348051 0.408210 -0.696979 0.534569 0.119869 -0.882767 -0.298813 0.500775 -0.953438 0.647686 -0.131522 -0.191498 0.086154 0.200170 -0.166912 0.078040 0.451473 -0.285504 -0.224562 0.202528 -0.720460 0.794318 -0.383089 -0.731053 -0.648707 0.328320 -0.268600 0.083869 -0.051005 0.030390 0.152473 -0.073830 -0.280241 0.218506 0.215345 -0.002108 -0.044821 -0.155653 -0.298720 -0.299999 1.048122 0.350906 0.210808 0.048560 -0.565592 -0.786843 -0.322588 -0.047102 0.271258 -0.001044 -0.368917 -0.680594 0.273829 -0.264592 -0.697939 -0.460358 0.205180 0.362220 0.352692 -0.897110 0.011728 0.293649 0.318044 0.384674 0.142012 0.425807 1.068640 -0.468522 -0.203013 0.235707 0.172555 0.164796 -0.040299 0.658846 -0.385203 0.220424 -0.183159 -0.551573 0.124875 0.500380 -0.870309 1.006045 -0.262586 -0.940277 -0.260377 -0.411716 -0.309987 -0.457113 -0.202268 0.324920 0.642716 0.075494 -0.298103 0.444523 0.028572 0.651984 -0.219240 -0.787011 0.575055 -0.012736 -0.397220 0.570349 -0.542681 0.901716 -0.025339 0.472555 -0.040585 0.141722 0.298085 0.115771 0.056067 0.169333 -0.044243 0.717239 -0.312316 -1.066585 -0.493962 -0.765302 -0.471840 0.427526 0.870180 0.059736 0.212083 -0.676480 -0.054343 -0.153156 0.269260 0.352294 -0.389093 -0.596103 0.569869 -0.738848 0.237927 0.219802 -0.993841 0.365829 0.340674 -0.008527 0.005650 0.225820 -0.182216 -0.189563 -0.380500 0.380761 0.255294 -0.646176 0.270606 0.734704 0.385889 1.049541 -0.865758 0.516017 -0.166315 -0.752027 0.528504 0.618760 -0.551953 0.087593 0.364779 -0.133403 -0.658035 -0.249014 0.629432 0.267830 -0.377095 0.605667 -0.246944 -0.556546 -0.512360 0.421899 0.277405 0.256360 -0.098594 0.709059 -0.239113 0.058826 0.858002 0.401975 0.049395 -0.359546 0.238424 0.699556 0.594245 -0.670652 -0.964555 -0.924769 0.572748 -0.794444 0.643503 -0.251810 0.462207 0.035086 0.656181 0.058022 -0.225311 0.644552 -0.471647 -0.109341 -0.889582 -0.061627 0.692930 0.319243 -1.192133 -0.368026 -0.158857 0.107386 -0.274288 -0.132658 -0.502201 -0.239190 0.036089 0.160488 0.123103 -0.726588 0.421877 -0.012490 -0.248217 0.266891 -0.470147 -0.171833 -0.097005 0.265906 0.653075 -0.071399 -0.268379 -0.305059 -0.545395 -0.701935 -0.427913 -0.330818 0.602837 0.071878 0.065316 0.225813 -0.563532 0.076173 -0.068044 -0.271857 0.881141 -0.196061 0.200991 -0.676111 1.028779 0.444380 -0.271919 -0.132786 -0.525923 0.127467 0.584712 -0.148503 -0.101726 -0.010914 0.192086 0.452248 0.506183 0.453294 -0.431502 0.067630 0.233575 -0.924808 0.457135 -0.123159 0.514172 -0.343508 0.471213 -0.147651 0.333051 0.464159 0.198435 0.349584 0.419704 -0.026243 -0.078087 -0.172492 0.807033 -0.583030 0.174830 0.559393 0.108386
Sandra -0.208594 0.168091 -0.428835 0.329740 0.219742 -0.435432 -0.110431 0.035166 0.110073 -0.599618 0.341388 0.531682 0.005214 0.282237 0.017278 0.324917 0.080420 0.046547 -0.549942 0.064615 -0.410262 0.225013 -0.358167 0.342464 -0.436535 -0.074180 -0.358923 0.053878 0.017157 0.495981 -0.445816 -0.011486 0.322046 0.205747 0.254258 -0.362057 -0.029474 -0.518403 0.582817 0.444067 -0.040379 0.278240 -0.321379 -0.037802 0.176661 -0.440073 -0.043287 -0.336856 -0.012669 0.125405 -0.475349 -0.268263 0.077520 0.059646 -0.444244 -0.286438 0.214197 -0.322693 0.290446 0.305527 -0.448027 0.056142 -0.306181 -0.042457 -0.021243 -0.036623 0.352957 -0.117030 -0.067418 -0.074284 0.309495 -0.133264 -0.006448 0.184165 0.462124 -0.248175 0.114916 -0.089841 -0.695945 -0.081097 0.179366 0.205506 -0.451646 0.228740 -0.099681 0.168417 0.063841 0.382669 -0.427533 -0.327163 0.063308 0.093108 0.170412 -0.624835 0.553034 -0.161326 -0.269750 -0.256584 0.206041 -0.097904 -0.264041 0.446092 -0.447595 0.351769 0.227523 0.267112 -0.217614 0.009473 0.330117 -0.043879 -0.339524 -0.667270 -0.479579 -0.487793 -0.339494 0.065745 0.071628 -0.371793 -0.070687 0.153565 0.244062 0.233377 0.605742 0.292544 -0.174352 -0.515121 -0.201995 0.191990 0.381223 -0.600233 0.236400 -0.079550 -0.346696 0.727164 0.320142 0.084825 0.437826 -0.245970 0.151519 0.353839 -0.084757 0.270249 -0.575137 0.078444 0.527582 0.248057 0.283760 0.098297 -0.731414 -0.053317 0.087313 -0.454454 0.840353 -0.637611 -0.415495 -0.283694 0.054395 -0.223015 -0.235518 -0.093211 -0.167500 -0.096837 0.157629 0.823592 -0.250329 -0.141430 -0.089019 -0.347445 -0.266800 -0.164354 -0.805905 -0.014534 0.056500 -0.061160 0.351630 -0.599729 -0.034900 0.094172 0.236278 0.650254 0.053158 -0.216684 0.032669 -0.517880 0.779286 -0.275600 -0.323093 0.249139 -0.257250 -0.302568 -0.022430 -0.698284 0.134256 0.246903 0.006210 0.067750 0.272952 -0.526569 -0.067261 0.493387 -0.095767 0.621279 -0.132315 -0.143780 -0.464073 -0.052977 0.208292 -0.176303 -0.027957 -0.123134 0.004721 0.361112 0.143254 -0.028535 0.383360 -0.123697 0.049101 0.002126 -0.055532 0.606997 0.195770 -0.125728 -0.697889 0.444753 0.179858 -0.208375 -0.051275 -0.203661 0.258326 0.329746 0.027494 0.090498 0.190507 -0.177687 0.673843 0.528693 -0.412792 0.099952 0.408912 -0.137881 0.108689 -0.419803 -0.428371 0.169456 -0.208503 -0.253243 -0.152749 0.380181 0.072488 -0.377128 0.526864 -0.416308 0.182045 0.067521 -0.127856 0.540805 0.040940 0.318089 0.132366 0.091456 -0.265621 -0.173704 0.158528 -0.152239 0.010159 -0.047337 -0.367444 -0.064993 -0.357479 0.152557 -0.165837 0.202319 0.240616 0.335508 0.487317 -0.414910 0.046027 -0.246663 -0.142473 0.231241 0.251828 0.063699 -0.004207 -0.826878 -0.044544 0.163058 -0.213652 -0.061772 -0.579894 0.057526 0.296783 0.105394 -0.508355 0.291938 0.387044 -0.379004 -0.293485 -0.147217 0.025987 -0.126837
Daniel 0.059379 -0.413284 -0.045563 0.591581 0.127036 -0.623775 0.007975 0.013199 -0.197305 -0.634251 0.338668 0.336547 0.098753 0.435360 0.189757 0.029306 -0.147648 0.206089 -0.059875 0.102003 -0.656068 0.325533 -0.553180 0.290593 -0.591036 -0.004689 -0.304008 0.047100 0.232229 0.335819 -0.373258 0.358019 0.267338 0.123639 0.357755 -0.245979 -0.179163 -0.720827 0.776515 0.304014 -0.307865 0.322952 -0.584959 -0.231454 0.418738 -0.259531 -0.158697 -0.267064 -0.004912 0.182943 -0.432966 -0.009632 0.277249 -0.141516 -0.324194 -0.777291 0.505495 -0.060788 -0.005352 -0.050267 -0.334043 0.069992 -0.231981 -0.264248 0.000342 -0.280704 0.513496 -0.161953 0.122089 -0.094641 0.354971 -0.328693 -0.180960 0.291539 0.572783 0.169790 0.081006 -0.214573 -0.880402 -0.005880 0.200430 0.260622 -0.418309 0.048565 -0.499423 0.127136 0.128156 0.088957 -0.486764 -0.509159 0.356553 -0.112187 0.220549 -0.359750 0.373078 0.088623 -0.193471 -0.293126 0.198076 -0.022900 -0.172326 0.436395 -0.111599 0.334745 0.312903 0.239744 -0.434401 -0.062523 0.463645 0.258323 -0.015442 -0.604587 -0.430582 -0.265912 -0.048146 -0.254941 0.224319 -0.497261 -0.405095 -0.236962 0.196268 0.303515 0.604254 0.116748 -0.352214 -0.374757 -0.177544 0.161413 0.294866 -0.789136 0.291319 0.063735 -0.416887 0.670395 0.462346 -0.039072 0.170735 0.126093 0.129251 0.211224 -0.155299 0.154545 -0.329282 0.144376 0.457665 -0.098282 0.298349 0.310599 -0.351259 -0.143966 0.012349 -0.500778 0.920796 -0.474913 -0.239626 -0.207288 0.400023 0.172581 -0.254135 -0.027354 -0.245587 -0.314201 0.221731 0.648699 -0.117905 0.235272 0.166116 -0.374184 -0.201662 -0.255025 -0.566476 -0.053068 0.049098 0.018413 0.741358 -0.730273 -0.476327 0.336958 0.379872 0.219035 0.312897 -0.086971 0.306898 -0.619684 0.578481 -0.283686 -0.333869 0.214325 -0.382462 -0.592145 0.077962 -0.316773 0.339629 0.351596 -0.232533 0.306485 0.601056 -0.198237 0.147588 0.646759 -0.121665 0.576260 0.258523 -0.413833 0.065339 0.195228 0.027342 0.066388 0.397963 0.006554 0.110610 0.406006 0.090495 -0.064181 0.220273 0.276739 0.336002 -0.168304 -0.005901 0.757347 0.340908 -0.217320 -0.838874 0.245225 0.133062 -0.242404 -0.246492 -0.421902 0.479726 0.291873 0.077609 0.285418 0.149964 -0.453103 0.516445 0.455114 -0.562805 -0.249827 0.415948 -0.367856 -0.057610 -0.520117 -0.170889 0.392873 -0.010787 -0.181317 -0.356179 0.414624 0.143917 -0.353560 0.382728 -0.200839 0.178940 0.042870 -0.177173 0.349226 -0.064987 0.375146 0.474608 0.012697 -0.107094 -0.202481 0.007684 0.122890 0.054392 -0.093464 -0.348957 -0.303313 -0.553580 -0.160451 -0.543616 0.390478 0.166795 0.297686 0.260967 -0.185959 0.343606 -0.025734 -0.260113 0.253296 0.190241 -0.100576 0.250636 -0.861971 -0.120076 -0.034350 0.069810 0.019657 -0.230827 -0.163509 0.096778 -0.455867 -0.654050 0.494536 0.088175 -0.696756 -0.041832 0.061320 0.406062 -0.119251
John -0.194985 0.014605 -0.162443 0.414609 0.249962 -0.544870 -0.155475 -0.069435 0.229444 -0.502132 0.322205 0.574469 -0.079459 0.321612 -0.052515 0.313680 0.134237 0.110172 -0.422999 -0.124315 -0.369864 0.261532 -0.431003 0.359720 -0.399437 -0.060190 -0.389155 0.042119 0.077548 0.458646 -0.413465 -0.003190 0.219269 0.137951 0.302940 -0.374970 -0.071363 -0.685663 0.517507 0.410019 -0.260914 0.133482 -0.192402 -0.050621 0.082658 -0.465115 -0.032564 -0.136335 0.043266 0.127722 -0.525071 -0.167626 0.110391 -0.031982 -0.459407 -0.388342 0.284796 -0.247946 0.185254 0.261904 -0.344505 -0.072887 -0.598843 0.096685 0.066055 -0.145534 0.550779 -0.038449 -0.137246 -0.131334 0.373758 -0.404752 0.073699 0.051596 0.555059 -0.297198 0.091860 -0.111545 -0.693352 -0.107672 0.155758 0.163466 -0.530301 0.254413 -0.084345 0.018749 0.210804 0.357811 -0.318885 -0.387803 0.029962 0.165855 0.043021 -0.613134 0.524721 -0.077859 -0.158250 -0.197858 0.195059 0.060779 -0.248366 0.262700 -0.589674 0.209894 0.279462 0.249307 -0.105670 0.152134 0.365593 0.036428 -0.461930 -0.732002 -0.512777 -0.444428 -0.143436 -0.078709 0.171115 -0.422648 -0.170450 0.174719 0.184269 0.009212 0.648910 0.352406 -0.240188 -0.460232 -0.291598 0.079564 0.296973 -0.567410 0.188635 0.069529 -0.398560 0.706637 0.313003 0.202818 0.439791 -0.214161 0.395303 0.251928 -0.262713 0.226613 -0.518283 0.035381 0.488996 0.373041 0.419889 0.015587 -0.706194 -0.217893 0.057065 -0.340612 0.868034 -0.536988 -0.425561 -0.311877 -0.018596 -0.170024 -0.261934 -0.103508 -0.163875 -0.100976 0.204938 0.706343 -0.233955 -0.419610 -0.059651 -0.295200 -0.192990 -0.031413 -0.758168 0.207068 -0.081770 -0.161907 0.278705 -0.688486 -0.122278 0.070315 0.405369 0.626594 0.268744 -0.174199 0.059410 -0.649760 0.764173 -0.182551 -0.237802 0.225926 -0.258344 -0.361463 0.022943 -0.574759 0.086712 0.147648 0.051525 -0.007068 0.243559 -0.671638 -0.055849 0.512487 0.029854 0.609442 -0.172651 -0.067920 -0.386104 0.215453 0.215127 -0.328875 0.175837 -0.080041 -0.063111 0.346436 0.036603 -0.154929 0.349546 -0.111205 -0.047529 -0.163031 -0.046062 0.742242 0.046914 -0.053331 -0.415666 0.484826 0.265560 -0.121688 0.041054 -0.409302 0.226139 0.397278 -0.005765 0.150095 0.212512 -0.331060 0.654155 0.587335 -0.378802 0.158164 0.394144 -0.272932 0.109214 -0.295281 -0.410993 0.192668 -0.405735 -0.140669 -0.267059 0.352897 0.184504 -0.332520 0.326361 -0.393653 0.158936 0.081931 -0.193646 0.521057 -0.095797 0.339251 0.185033 0.200836 -0.390547 -0.438747 0.143962 -0.153427 0.133361 -0.152612 -0.145596 0.036478 -0.404351 0.057834 -0.224573 0.236435 0.236452 0.238652 0.448749 -0.292546 0.131999 -0.187626 -0.194487 0.348833 0.168567 0.127536 0.005982 -0.781140 -0.089433 0.021021 -0.316299 -0.014847 -0.463748 0.203395 0.359153 -0.035967 -0.616274 0.242195 0.364773 -0.394159 -0.212509 0.031485 0.106590 -0.108143
Mary -0.304583 0.095760 -0.201436 0.263868 0.246417 -0.439359 -0.019995 -0.120301 0.311722 -0.372361 0.314089 0.354338 -0.075323 0.308084 -0.036032 0.341364 0.058440 0.123908 -0.599570 -0.119026 -0.272405 0.262360 -0.311826 0.416982 -0.221473 0.003139 -0.388229 0.043148 -0.013503 0.441344 -0.481175 0.024661 0.254740 0.190932 0.322706 -0.538363 0.101940 -0.479495 0.498313 0.550502 0.024808 0.072835 -0.163312 0.079367 0.077631 -0.569626 0.030243 -0.142551 0.070994 0.133047 -0.403349 -0.253025 0.119689 0.120484 -0.564419 -0.181697 0.211147 -0.351672 0.230538 0.335500 -0.398079 -0.193402 -0.539866 0.110896 0.049801 0.029973 0.549218 -0.163396 -0.066394 0.039155 0.332951 -0.290862 0.036490 0.145116 0.480232 -0.350040 0.131972 -0.033048 -0.648463 -0.115707 0.208262 0.014445 -0.552662 0.227320 0.038278 0.162776 0.235619 0.339863 -0.300310 -0.379201 0.062431 0.215784 0.231747 -0.483461 0.399835 -0.242410 -0.277468 -0.189583 0.209823 0.059172 -0.390655 0.396041 -0.642373 0.215832 0.165137 0.356043 -0.144293 0.124258 0.206986 -0.077789 -0.488247 -0.653941 -0.524025 -0.507693 -0.075717 -0.123932 0.123311 -0.450793 -0.017920 0.318357 0.212919 0.075998 0.502659 0.285124 -0.304765 -0.530929 -0.343876 0.025632 0.364312 -0.434849 0.136026 -0.060082 -0.127507 0.767062 0.261889 0.199230 0.526597 -0.388433 0.286113 0.289272 -0.178416 0.290406 -0.542693 0.142192 0.411893 0.293570 0.363302 0.064027 -0.830814 -0.114386 0.200839 -0.236370 0.770351 -0.599751 -0.434380 -0.235241 -0.090248 -0.296278 -0.298866 -0.149689 -0.089274 -0.062716 0.141925 0.884763 -0.183839 -0.518871 -0.103992 -0.368677 -0.198317 0.093880 -0.719675 0.018498 -0.188790 -0.160685 0.267738 -0.578675 -0.176811 -0.194637 0.400496 0.654829 0.160311 -0.264683 -0.069137 -0.702659 0.828204 -0.123622 -0.311535 0.324896 -0.272697 -0.287970 -0.032605 -0.482506 0.163157 0.159805 0.130326 0.076791 0.240434 -0.644534 0.041811 0.353057 -0.009763 0.583008 -0.270157 0.024698 -0.561687 0.167090 0.362598 -0.389337 -0.004048 -0.206786 0.092712 0.213796 -0.034466 -0.173157 0.288474 -0.186758 -0.136862 -0.067097 0.206128 0.573993 0.010847 0.018817 -0.496453 0.611929 0.306038 -0.160452 0.034769 -0.403142 0.235212 0.367197 -0.252929 0.065212 0.101291 -0.302636 0.704650 0.529974 -0.434194 0.298310 0.412952 -0.158781 0.158022 -0.299538 -0.368921 0.045940 -0.355144 -0.154014 -0.126589 0.202443 0.137279 -0.322339 0.166765 -0.352325 0.095681 0.067907 -0.263406 0.524065 -0.118941 0.221001 0.197034 0.070716 -0.333950 -0.281456 0.250768 -0.037501 0.202079 -0.153614 -0.180774 -0.023715 -0.439366 0.074632 -0.099987 0.108540 0.193006 0.177798 0.514935 -0.356808 -0.040219 -0.139063 -0.205573 0.318592 0.169443 0.234433 0.021589 -0.706667 0.033560 0.070667 -0.259182 0.041668 -0.487244 0.172434 0.378931 0.142353 -0.513840 0.231469 0.304329 -0.354204 -0.299047 0.068619 -0.016912 -0.227873
phòng -0.033923 -0.336730 0.309869 -0.337761 -0.150629 -0.299221 0.096352 -0.265639 0.483531 0.912371 0.126663 -0.232000 0.237612 0.596593 0.475214 -0.324239 -0.571825 -0.165821 0.056874 0.576901 0.395861 -0.033175 0.058721 0.091629 -0.437008 0.234690 0.298200 0.921617 -0.435738 0.303218 -0.312986 -0.367826 0.622015 -0.012244 0.509388 -0.334123 0.580646 0.580450 0.201523 -0.184823 0.578138 -0.618435 -0.550789 1.057246 0.701975 0.175682 0.388843 -0.157908 -0.184434 -0.211009 -0.258619 0.269927 0.445089 0.463392 0.277475 -0.103423 -0.528328 0.206029 0.240043 -0.387616 0.829623 -0.472991 0.080601 0.009320 0.582830 -0.168390 -0.050797 -0.704836 -0.003067 -0.091268 -0.061378 0.701428 0.274733 0.425706 0.395545 0.082893 0.201920 -0.205306 0.124239 0.718355 -0.022098 -0.333711 -0.902568 0.160647 0.805261 -0.299161 -0.670317 -0.826661 0.907053 0.236878 -0.229196 0.161419 0.314741 -0.288472 0.253180 0.312637 -0.648306 0.379453 0.521333 0.666557 -0.023067 -0.535771 -0.413853 -0.057507 0.022629 0.483509 0.155242 1.022708 -0.146469 -0.660136 -0.086191 0.138289 -0.581323 0.216844 0.681215 -0.302117 -1.388307 -0.184534 -0.323226 -0.319672 0.015241 0.956679 -1.021633 -0.269890 0.256573 0.582834 -1.009173 0.359649 -0.222037 0.066612 -0.350285 -0.013586 0.157867 0.015923 -0.473914 0.168600 0.855468 -0.336775 -0.275799 -0.344121 -0.172184 -1.295236 0.441589 0.210747 -0.550889 -0.198976 0.612149 0.284509 -0.343662 -0.485929 0.558769 -0.140335 -0.165596 -0.276952 0.127142 -0.584046 -0.469372 0.064362 0.422774 -0.316165 -0.814784 -0.265279 0.081331 0.004157 -0.075616 -0.088615 -0.090888 0.524447 -0.513210 0.569872 0.070544 -0.002001 -0.517881 0.227890 0.208400 0.467712 -0.365501 0.613534 -0.181769 -0.107907 -0.134778 0.789525 -0.218840 0.154524 -0.517936 0.126747 -0.077273 0.253963 0.391547 0.699364 -0.270562 0.071580 0.085656 -0.326075 -0.069006 0.286072 0.783846 0.487884 0.391598 0.248754 -0.085915 -0.491952 -0.581445 0.114056 0.444233 -0.418115 0.797579 0.657004 0.361390 0.236565 0.407311 0.533361 0.603984 0.163841 -0.492686 0.433018 0.298828 0.078285 0.439736 -0.344834 0.704326 -0.207452 0.338111 -0.023555 -0.292268 0.834210 -0.018515 -0.043863 0.527481 0.227577 0.434641 -0.445392 -0.290293 0.262931 0.375832 -0.625109 0.453663 -0.244349 0.713680 0.171203 0.538305 0.098773 -0.141988 -0.234801 -0.233900 0.265352 0.177764 0.397740 0.047238 -0.477847 -0.283735 -0.055472 0.180312 0.760525 -0.057508 -0.328322 0.970554 -0.202372 -0.041491 -0.291308 -0.344925 -0.354180 0.498467 -0.079249 -0.689425 -0.648205 0.188174 -0.101318 0.431823 -0.115750 0.725098 0.703302 0.264350 -0.089355 -0.364792 0.082338 0.027298 1.184150 -0.157364 0.335222 0.024072 -0.724864 -0.000036 -0.539506 0.382791 -0.326390 0.266586 0.254195 0.561818 -0.009959 0.378229 0.331540 0.256949 0.558014 -0.279183 0.203027 0.315778 0.229569 -1.182366 0.297075
ngủ -0.356469 0.426655 -0.080360 0.224015 -0.075744 0.389743 -0.150180 -0.642153 -0.530815 -0.206661 -0.337371 -0.694146 -0.980161 -0.068444 -0.172757 0.067298 0.207463 -0.495727 0.141073 0.212081 -0.166708 0.006018 0.181049 -0.271578 -0.066607 -0.352775 0.358056 -0.140922 -0.079019 -0.074273 -0.071701 0.336830 -0.525729 0.200937 -0.839300 0.227874 -0.319435 0.290846 0.318656 0.746592 0.113810 0.491331 -0.604706 0.402101 -0.702264 0.720213 -0.246960 0.426062 0.525036 -0.255300 -0.004970 0.315110 0.246062 0.067818 -0.189501 0.078112 -0.051803 -0.006416 0.614997 0.190985 0.568633 -0.550019 -0.349957 0.556459 -0.194219 0.290000 0.284072 0.773216 0.254996 0.230488 0.399031 0.290471 0.373980 0.170719 -0.068912 0.520320 0.087580 0.266478 0.011003 0.049345 0.327275 -0.111542 0.190604 0.285084 0.306938 0.274981 -0.047826 0.161708 0.145775 0.402807 0.489360 0.240612 -0.038116 0.845687 -0.481147 -0.394823 0.464662 0.112661 0.712880 -0.211503 -0.054874 0.485072 -0.264321 0.206661 0.121743 0.350975 0.506222 -0.392736 -0.514227 0.104849 -0.254947 -0.087819 0.177064 -0.272906 -0.494223 0.550135 -0.187014 0.144563 -0.170774 0.659607 0.754508 0.099364 -0.197571 -0.112355 -0.007200 -0.152690 -0.585603 1.009749 -0.433599 0.193298 -0.310737 -0.149733 0.125906 -0.106045 -0.537930 0.677915 -0.318221 0.718359 0.028657 0.079331 -0.120600 -0.385460 0.011455 0.006354 -0.693935 -0.587237 -0.567948 -0.579953 -0.021772 -0.009113 0.279614 0.037611 0.075016 0.094691 -0.660316 0.766756 0.597990 -0.500793 -0.256942 -0.248113 0.316696 -0.290354 -0.622366 0.455148 0.076215 0.189066 0.222780 -0.044296 0.011010 0.242152 -1.020063 0.473151 0.342788 0.181834 0.126174 0.138261 -0.311284 0.381518 -0.091090 0.049703 -0.467936 0.469674 0.246772 -0.423665 -0.606247 0.315690 -0.200425 -0.367241 0.072932 -0.117220 -0.731670 0.375051 -0.581085 0.019281 0.119711 -0.029853 -0.490650 -0.045421 -0.573661 0.268381 -0.106677 0.548760 -0.544459 -0.409322 -0.002772 0.403783 0.158444 -0.766826 0.357383 -0.353814 -0.657710 0.349701 0.036352 0.017455 -0.108992 -0.348570 -0.117656 0.235771 0.105961 -0.005761 0.056556 -0.366157 -0.116898 -0.270261 -0.552649 -0.333522 0.014865 0.489774 -0.586936 -0.097591 -0.494602 -0.138177 0.920702 -0.271508 1.005902 -0.139458 -0.282446 -0.174701 -0.236245 0.444989 -0.693152 0.519707 0.441328 0.326504 0.069913 0.309718 0.206001 -0.179561 0.511909 0.945580 -0.146601 -0.637601 -0.044003 -0.534698 0.237554 -0.331720 0.320290 -0.830559 -0.398820 -0.789753 0.648884 -0.111949 0.690052 0.010294 0.253549 -0.324246 -0.156071 -0.243740 -0.133809 -0.278414 -0.043650 -0.421391 -0.867725 0.069058 0.461754 0.093530 0.452184 0.826121 0.256971 0.110072 0.044222 -0.072211 -0.400663 0.573006 0.306041 0.054075 0.002723 -0.136900 -0.191464 0.051887 0.387273 0.495681 -0.016477 -0.229235 -0.221468 -0.282469 0.498517 -0.364091 -0.446860 -0.500225
tắm -0.474946 0.340304 -0.010778 0.260184 0.166257 0.269068 -0.073917 -0.369093 -0.706090 -0.097575 -0.418070 -0.785932 -0.925268 0.374032 0.138924 0.220494 -0.114473 -0.574272 0.196403 0.257948 -0.032709 0.024942 0.061502 0.178149 0.128997 -0.214606 0.375250 -0.064257 0.141078 0.002193 -0.280701 0.417074 -0.362326 0.529883 -0.710687 0.103010 -0.031300 0.287020 0.549619 0.739936 0.459667 0.492796 -0.698523 0.454923 -0.615252 0.663087 -0.158220 0.284819 0.568121 -0.163309 0.118070 0.436512 0.178677 0.093315 -0.120980 -0.060143 0.020260 0.085009 0.480344 -0.022049 0.585407 -0.499468 0.005968 0.527837 -0.312258 0.164721 0.336946 0.595849 0.382271 0.254430 0.319924 0.203240 0.336815 0.558516 -0.145958 0.674709 0.220959 0.221799 0.112914 -0.062768 0.516101 -0.573701 0.333166 -0.181772 0.324602 0.295807 -0.210415 0.108274 0.148553 0.479857 0.719077 0.285435 0.097096 0.868567 -0.642387 -0.453776 0.387043 0.145393 0.627804 -0.369489 -0.353455 0.936335 -0.188012 0.516334 -0.119706 0.606868 0.412316 -0.563304 -0.749268 0.177025 -0.138487 0.023058 0.221537 -0.267585 -0.124383 0.404335 -0.237487 -0.108503 -0.135340 0.274329 0.860651 0.556189 -0.537354 -0.365179 -0.101062 -0.239278 -0.565388 0.876830 -0.243401 0.259001 -0.341032 -0.309024 0.599495 0.129674 -0.841472 0.342039 -0.164807 0.640081 -0.228764 0.012757 0.102645 -0.292402 -0.060405 0.491532 -0.679659 -1.153250 -0.501693 -0.308694 -0.124405 -0.156327 0.435697 0.007142 -0.057498 0.091351 -0.317155 0.734929 0.508912 -0.662413 -0.477857 -0.546884 0.278345 -0.038994 -0.524609 0.783817 0.097731 0.499579 0.418415 0.032874 0.122694 0.236196 -0.855914 0.348433 0.368588 0.238379 0.196569 0.251612 -0.501077 0.384884 -0.212803 0.049504 -0.663518 0.265338 0.099655 -0.376854 -0.498827 0.433398 -0.304035 -0.272315 0.018012 -0.187777 -0.725756 0.797086 -0.184162 -0.124494 0.404715 0.313800 -0.382425 0.134881 -0.399334 0.103113 -0.095035 0.373635 -0.527815 -0.558525 -0.099563 0.188078 0.237112 -0.445980 0.286479 -0.220034 -0.181938 0.470018 -0.237924 0.153680 -0.071210 -0.353978 0.232825 0.313801 0.460247 -0.246872 0.087543 -0.386290 -0.351397 -0.117161 -0.733639 -0.576139 -0.212651 0.383378 -0.482055 0.107121 -0.647427 -0.366660 0.782426 -0.130086 1.022277 -0.217545 -0.544684 -0.222836 -0.114040 0.507814 -0.772790 0.549523 0.384350 0.217202 0.409939 0.193115 0.262663 -0.234247 0.370577 1.118069 -0.285619 -0.599239 -0.026185 -0.592241 0.123223 -0.374858 0.305967 -0.861376 -0.273289 -0.929700 0.753892 0.240109 0.797320 0.307977 0.187558 -0.196381 -0.383947 -0.458143 -0.338682 -0.210048 -0.055667 -0.530140 -0.844213 0.153467 0.371513 0.217371 0.267409 1.025767 0.184865 0.008112 0.155702 -0.003316 -0.148049 0.503544 0.418102 0.102987 0.173929 -0.103117 0.097403 -0.261972 0.248550 0.621629 -0.006810 -0.029396 -0.548984 -0.644608 0.137167 -0.184401 -0.229838 -0.638939
vào 0.333432 0.195286 0.097802 -0.074601 0.554429 -0.184867 -0.220642 -0.778758 0.545496 0.832786 -1.137729 -0.420068 0.612986 -0.256534 0.095646 0.338249 -0.153965 -0.342512 0.419168 -0.186857 0.693112 0.407172 -0.569774 0.103246 -0.156596 -0.144769 0.317557 0.261776 -0.589723 0.786465 -0.088422 0.392565 -0.328924 0.126706 -0.478235 0.506052 0.053849 0.402947 0.211510 0.237128 0.194994 -0.169697 -0.065033 -0.478714 -0.428587 1.071630 -0.422480 -0.005108 -0.268474 -0.045048 0.476670 -0.338537 -0.157451 0.547062 0.208767 -0.035371 0.037157 0.559698 -0.052575 0.014864 -0.091144 -1.152288 0.210673 -0.049224 0.446843 -0.543713 -0.709996 -0.181967 0.055099 -0.066016 -0.157098 0.007426 -0.207032 0.217410 -0.132911 0.742118 0.458985 -0.114260 0.336059 -0.143871 0.175186 -0.118604 0.316873 -0.415811 -0.076816 -0.005191 -0.589620 -0.763754 0.669835 0.346891 0.647495 0.502303 0.373842 0.131116 -0.386065 0.111897 0.875920 -0.075007 0.056980 0.579453 0.159111 0.676362 0.188988 0.375144 -0.330057 0.419412 -0.245259 0.184094 -0.424940 0.362863 -0.066162 -0.417934 0.716047 -0.043213 -0.375672 0.139085 0.763570 -0.274230 0.686837 -0.648522 0.420533 0.207606 -1.068133 0.529341 0.505806 0.053223 -0.339770 0.199596 0.667661 0.525495 -0.998207 0.195559 0.710969 -0.760089 -0.121989 0.097678 -0.217212 -0.016806 -0.495683 0.023030 0.270640 -0.362874 -0.849198 0.524151 -0.636414 -0.775875 0.297400 -0.207853 -0.600307 0.289242 1.235004 0.296085 -0.528383 0.150654 0.493477 0.664749 -0.162333 0.285152 -0.459520 0.330091 0.666903 0.522410 -0.218550 0.056895 0.401077 0.437023 0.235243 -0.354010 -0.661602 0.395392 0.128103 0.030855 0.106108 0.060898 0.593436 0.542865 -0.659636 -0.758597 0.487966 -0.727255 -0.442234 0.832893 -0.471747 0.664733 -0.628727 -0.529617 -1.016570 -0.610361 -0.316519 0.162481 -0.306101 0.907240 0.577021 -0.198774 0.017699 0.239733 0.489307 -0.266787 -0.040547 -0.013223 0.270425 -0.367314 0.196917 -0.282467 0.403609 0.561332 0.333093 0.887580 0.078792 0.743106 -0.350952 -0.784491 -1.074220 -0.516593 0.354057 0.655341 0.254941 -0.052178 0.520820 0.799661 0.284849 -0.419912 0.355788 -0.117370 0.758422 -0.150652 0.840647 0.421474 -0.418127 -0.077838 0.088813 -0.675708 -0.295350 -0.454439 -0.021303 -0.401830 -0.544454 -0.367415 -0.379391 0.281605 -0.755571 0.674072 0.469410 -0.680689 -0.082481 0.434281 -0.650522 0.394027 -0.780157 0.769812 -0.304183 -0.026385 0.426153 -0.006985 0.531786 0.045720 0.476154 -0.126081 0.128052 -0.887349 -0.577900 -0.092047 0.321436 0.028269 -0.024912 -0.216384 -0.294537 -0.403130 0.158806 -0.243968 -0.073112 -0.053217 -0.407886 -0.431280 -0.537145 0.417224 -0.937626 0.240028 -0.217639 -0.587459 0.579044 0.016060 0.856970 -0.705233 0.393454 0.143655 -0.780822 0.352487 0.723968 -0.566682 0.264978 -0.443803 0.403460 0.429838 0.152943 -0.499036 -0.620244 0.223726 -0.237436 0.494246
đã 0.228743 -0.894302 0.578234 0.119936 0.683617 0.462599 0.092656 -0.210586 0.166188 -0.166934 0.728745 -0.295630 -0.481360 0.472033 -0.348709 -0.350940 -0.279527 0.046860 -0.065262 -0.259341 0.182726 0.115453 0.153035 0.209915 -0.481944 0.450589 -0.529351 0.198311 -0.431228 -0.184630 -0.084435 0.342915 -0.083190 -0.409472 0.392292 -0.087809 0.015787 0.537110 -0.129602 -0.371209 0.467576 0.068980 0.007098 -0.168002 -0.906813 0.192695 -0.357157 0.507388 0.295373 0.355477 -0.299600 -0.370926 -0.323552 0.716412 -0.844755 0.542159 -0.044354 0.263693 -0.530119 -0.259420 -0.066504 -0.811244 -0.224075 0.146064 -0.019108 0.000423 0.841874 0.529575 -0.064793 0.354796 0.371191 0.094520 0.354219 -0.074904 -0.103574 -0.241117 -0.280771 0.511321 0.179625 0.044599 -0.020135 0.008481 0.468786 0.091307 0.568642 -0.232890 -0.172225 -0.246088 0.234812 0.109719 -0.007598 0.161011 0.280116 0.396511 -0.741360 0.255709 -0.036767 0.450543 0.215891 -0.098621 -0.064612 -0.274813 -0.329491 -0.456887 -0.112301 0.164851 0.827448 0.040118 0.239321 0.214501 -0.273848 0.117807 -0.133246 -0.061709 -0.355958 0.421886 0.189947 0.354829 -0.104643 0.140591 0.162353 -0.261026 -0.603371 -0.504506 0.136083 0.033048 -0.318506 -0.372710 -0.318154 0.037875 0.014728 0.068469 0.212407 0.694351 -0.250567 0.237335 0.792541 0.395582 0.639385 -0.470751 0.211556 -0.225444 0.938351 -0.462082 -0.291705 0.059585 -0.343609 -0.481915 -0.263552 -0.024654 -0.181564 0.474058 -0.479298 -0.158715 0.147041 -0.208694 -0.035779 0.268708 0.519806 0.019018 0.125720 -0.209040 0.278633 0.008657 -0.288581 -0.486929 0.718793 0.455284 -0.234770 0.164339 -0.354983 0.475551 -0.295365 0.016933 0.266921 -0.350426 0.075351 0.012644 0.468513 0.512298 0.215014 0.208268 0.421554 0.247586 0.633134 0.135614 -0.086676 0.155692 0.746612 0.004953 -0.240635 0.164170 -0.571213 -0.122092 -0.095663 0.070848 -0.849067 -0.442671 -0.317463 -0.955658 -0.113414 -0.282454 0.164898 -0.193532 0.092525 0.485863 0.301480 0.123811 0.186520 -0.979259 0.136741 -0.408449 -0.114222 -0.205753 -0.195909 -0.365793 -0.812315 -0.085597 0.112188 -0.230768 -0.549279 -0.093383 0.588323 0.084174 -0.282287 0.166617 -0.200188 0.282776 0.338792 0.217534 -0.735172 -0.136799 -0.462017 0.228908 0.236977 -0.433762 0.437413 0.773882 -0.184285 0.543120 0.333527 -0.091118 -0.040592 -0.299407 -0.018138 0.391391 -0.305786 0.033704 0.634673 0.105924 -0.690753 0.895682 0.135072 0.081937 0.114061 -0.272846 -0.094324 -0.015498 0.776201 -0.052899 0.439304 -0.558678 1.078504 -0.427554 -0.346023 -0.124043 -0.077411 0.463096 0.053972 -0.312958 0.654674 -0.550254 0.255720 -0.137284 -0.004149 -0.372533 0.121098 0.477266 -0.250050 -0.279550 -0.329769 0.461588 -0.481824 -0.219172 1.022360 -0.545527 0.129959 -0.267247 -0.193289 0.447543 0.124940 0.099944 0.445790 -0.821883 -0.367020 -0.131504 0.423615 0.182832 -0.734439 -0.224373
2 0.078009 -0.075059 0.414262 0.214568 0.175929 0.291504 0.307672 0.084498 -0.080835 -0.156916 -0.260868 0.159226 -0.098446 0.437649 -0.149769 -0.381473 0.121999 0.088014 0.029928 -0.636436 0.092137 0.275080 -0.170987 -0.044060 -0.373963 -0.215847 0.262357 0.433832 -0.103214 0.039437 0.008965 -0.168930 0.189085 0.167630 0.078959 -0.275113 0.142212 0.425765 -0.433680 0.006412 0.089303 0.239262 0.028268 0.031677 -0.087070 0.547137 -0.116030 0.387853 -0.097335 0.144028 -0.000217 0.054858 -0.109196 0.083691 -0.004764 -0.295721 -0.202522 -0.042658 -0.204511 -0.386854 0.580424 0.062621 0.131946 -0.542509 -0.264994 0.357779 -0.383101 0.289652 0.281531 -0.583358 -0.051251 0.538283 -0.009824 -0.499147 0.482021 0.382910 -0.228236 0.342023 0.176854 0.320209 -0.560730 -0.197363 0.423835 -0.038625 0.014612 0.416414 -0.013340 -0.039881 0.198014 0.111018 -0.461890 -0.038504 -0.519701 -0.351131 -0.116512 0.326485 0.021900 0.276967 0.209313 -0.096181 -0.069123 0.617705 -0.046881 -0.076392 0.373668 0.550095 0.229998 0.268317 0.048119 -0.016874 -0.244971 0.430804 -0.068371 0.150721 0.368499 0.288805 0.248318 -0.265134 -0.046596 -0.503401 0.208800 -0.094813 0.083897 -0.174777 0.028756 0.201167 0.011753 0.268991 0.408006 0.070819 -0.332791 -0.080873 -0.077773 -0.542354 -0.574890 0.496880 -0.318843 0.200614 0.479692 -0.141517 -0.114821 -0.214911 0.283127 -0.212504 -0.025009 0.197150 -0.089770 -0.028775 -0.021096 -0.322210 -0.325375 -0.287389 -0.116295 0.297205 -0.172369 -0.091675 -0.089590 -0.492227 0.446007 -0.398292 -0.095871 0.179809 -0.218852 0.100796 -0.257043 -0.069649 -0.163822 -0.007668 0.242811 0.252293 -0.164993 0.718764 -0.067484 -0.054927 -0.467527 0.109925 -0.038278 0.248674 -0.389714 0.019793 0.336635 0.149054 0.012413 0.014127 -0.325147 0.140141 0.429439 -0.165669 0.133516 0.214608 -0.205019 -0.034152 -0.131500 0.083251 -0.078504 0.014910 -0.424560 -0.099746 -0.261756 -0.467271 -0.438981 -0.247909 0.159574 0.055311 0.497744 -0.096198 0.216883 0.151135 0.011667 -0.379120 0.004059 -0.301252 -0.041938 -0.113778 0.274329 -0.454390 -0.058639 0.385646 -0.260043 0.054872 0.331907 0.195656 0.460093 0.105381 -0.252560 -0.168853 0.158267 0.090715 0.401235 -0.087076 0.384350 0.099064 -0.135565 0.256378 0.161914 0.236737 -0.309701 -0.331843 -0.149454 -0.080848 0.184398 0.311589 -0.013765 -0.140486 -0.051005 0.562458 0.257763 -0.064619 0.479682 0.158122 -0.156358 -0.372972 0.169804 0.128958 -0.130481 0.012440 0.040130 0.347249 0.432345 -0.395771 0.297677 -0.150546 -0.053141 -0.264122 -0.046858 0.062136 -0.368378 0.186725 0.314471 -0.283144 0.195599 0.106909 0.005342 0.371249 -0.329190 -0.392565 -0.252749 0.368712 0.341936 -0.189842 0.495143 -0.323323 -0.236195 0.031435 -0.041748 -0.140926 0.203464 0.141741 0.252569 -0.018020 0.299399 -0.019855 0.606700 0.013417 0.003631 0.298418 0.656135 -0.121692 -0.379490 -0.120775
chuyển 0.856772 -0.811743 0.657913 0.318846 0.285934 0.528302 0.280101 -0.276231 -0.048670 -0.261683 0.685907 -0.179143 -0.263953 0.113273 0.079065 -0.661396 -0.291364 0.753984 -0.466530 -0.500237 0.438412 0.340356 0.206280 0.135711 0.206573 0.626352 -0.379399 -0.516259 -0.355904 -0.056363 0.093811 0.652477 0.007839 -0.308781 0.382351 0.415270 0.124931 0.309803 -0.420492 -0.922582 0.056943 0.519036 -0.167469 -0.535633 -0.034359 -0.142121 0.169102 0.056973 -0.657032 0.316460 -0.124813 0.078151 0.022440 0.150636 -0.176555 0.654629 -0.026740 -0.215209 -0.996499 0.127078 -0.164493 -0.484209 0.292977 -0.314972 0.198739 0.132383 0.464594 0.001220 0.022319 0.364034 0.507638 -0.183281 -0.123031 -0.254414 -0.524829 0.161442 0.160135 -0.461793 -0.385060 -0.507181 -0.431637 -0.302259 0.217505 0.028400 -0.402565 -0.558743 0.185312 -0.639752 -0.648053 0.633212 -0.347761 -0.249507 0.084514 1.135594 -0.555931 0.713762 0.064733 -0.419106 -0.191334 -0.525073 -0.599592 -0.156541 -0.283400 -0.494933 -0.490007 -0.297085 -0.355709 -0.245740 0.409714 0.812589 0.427089 0.708420 0.510928 0.491308 0.050700 -0.143516 0.622002 0.449041 0.560414 0.053790 -0.439257 -0.235813 -0.243921 -0.546579 -0.449983 0.137282 0.125800 -0.599592 -0.555444 -0.165647 0.069525 0.474068 0.608125 0.299609 0.290745 -0.675034 0.034186 -0.054598 0.424703 0.348256 0.195664 -0.548150 0.869802 -0.577227 0.563941 0.219104 -0.604800 -0.368394 0.382493 0.765127 -0.729795 0.322962 -0.832862 -0.426137 -0.149190 0.445682 0.049390 0.613314 0.112423 -0.041337 0.748103 -0.272732 0.184688 -0.465548 0.184077 -0.178828 0.502889 0.439700 -0.132776 -0.107979 0.230327 -0.210958 -0.401817 -0.291706 0.155930 0.107793 -0.073668 -0.452003 0.264574 -0.276857 0.755805 -0.278687 0.727154 0.076813 0.497411 0.409348 0.126163 0.173477 0.635314 -0.032788 0.345616 -0.166155 0.279918 0.072084 -0.334005 0.028989 -0.217236 0.472309 0.015479 -0.666642 0.109446 -0.590898 -0.266698 -0.168922 0.380741 0.438914 0.102291 -0.504916 0.283307 -1.074831 0.045285 -1.019563 0.243538 -0.108234 -0.349035 0.024625 -0.600123 -0.277198 -0.103469 -0.031453 -0.102320 0.677826 0.458824 0.001613 0.067064 -0.142435 -0.488728 0.506494 0.187781 -0.267194 -0.342227 0.220180 -0.486398 -0.133641 -0.503641 -0.532958 0.144827 0.506675 -0.570959 0.117707 0.725778 0.113742 0.333659 -0.442251 0.134397 0.093814 -0.042491 -0.420443 0.084184 0.809219 -0.223751 1.055461 0.172581 0.382597 0.267388 -0.049113 -0.232410 -0.426172 1.024525 -0.326395 0.510142 0.338852 0.963391 -0.528727 -0.509920 0.252534 -0.128223 0.263987 0.042926 -1.014348 0.245617 -0.393808 -0.145937 -0.391864 -0.448267 0.115002 -0.287810 0.034460 0.235949 -0.665909 0.313202 0.197817 0.025030 0.374040 -0.462837 -0.735418 0.308866 -0.293443 -0.269613 -0.083332 -0.790672 -0.647280 0.339447 -0.576531 -0.048115 -0.195851 1.079989 0.038145 0.259591 0.149852
vườn -0.259182 0.060443 0.235187 0.142696 0.544557 -0.407866 -1.062910 -0.427811 -1.029890 0.042344 0.998937 -0.104470 -0.600213 0.704541 0.747567 -0.665737 -0.183726 -0.114875 -0.195560 -0.857333 0.010235 -0.445809 -0.228727 0.433963 -0.478474 -0.296059 0.914728 -0.870748 0.321937 0.392872 -0.781379 -0.699459 -0.544422 -0.264956 0.257623 -0.364286 -0.373104 0.493719 -0.918683 -0.931931 -0.737659 -0.250572 -0.809795 0.770685 -0.054478 -0.226917 0.300322 0.111454 0.149742 1.240659 0.156137 0.347096 0.754160 -0.034552 -0.256790 -1.476678 0.630933 1.019369 0.353952 -0.702112 0.172999 0.578528 -0.845550 0.346966 -0.389956 -0.022556 0.147119 -0.609748 -0.772292 -1.199431 0.856726 0.140878 -0.856577 -1.121611 0.743806 0.801376 -0.533894 -0.635688 -0.019854 0.273570 -0.639044 -0.005093 -0.858008 -0.018054 -0.290616 -1.362337 0.543510 0.101683 -0.080270 0.854999 -1.481755 -0.399803 -0.224653 0.901109 0.135653 0.363387 -0.114157 0.726655 0.349866 0.570069 -0.030749 -1.486866 -0.248280 -0.259958 0.509413 -0.695594 0.104930 0.422293 -0.036891 -0.407775 0.153083 0.199925 0.991360 0.121825 0.220833 1.256605 -0.391596 0.672480 0.300739 -0.233495 -0.398867 -0.508691 -0.224091 -0.313989 -0.120111 0.574144 0.061807 -0.019022 -0.061797 0.236716 -0.278848 0.831365 0.317815 -0.231749 0.161039 0.078795 -0.432466 -0.180016 -0.453179 0.086142 -0.385228 -0.829802 0.076726 -0.275245 0.165336 0.430059 0.592728 -0.742476 0.150522 -0.790194 -0.706418 -0.295216 0.022598 0.572705 -0.102745 0.622484 -0.337141 -0.395066 0.645926 -0.182571 0.335074 -0.235067 0.512096 -0.793751 0.063191 0.320255 -0.162788 0.331400 -0.361560 -0.145522 -0.372135 0.135135 0.049460 -0.049604 0.779471 0.484290 0.439002 0.881733 0.040869 0.058650 0.386417 0.262752 0.808414 0.418953 -0.442580 1.087308 0.486826 0.322414 0.727960 0.625346 -0.069487 -0.291529 -0.082798 -0.017779 0.465659 -0.225348 0.100598 0.383381 -0.296140 0.288677 0.948719 -0.585073 -0.474207 -0.709015 0.414958 0.075138 0.028018 -0.320263 0.262241 0.333894 -0.126650 -0.416741 -0.611532 -0.031104 -0.186217 -0.434363 0.173722 -0.169542 -0.541372 0.163658 0.354202 0.282621 -0.521971 -0.324870 -0.471126 0.114920 -0.080947 -0.234012 0.513610 0.577293 0.188554 0.013370 0.078519 -0.647248 0.268293 -0.495722 0.096345 -0.304369 -0.362735 -0.145866 -0.540265 0.463051 -0.396502 -0.139566 0.095891 -0.577338 0.220296 -0.025806 -0.363541 0.138772 0.528364 -0.703713 0.055938 0.140423 0.164105 0.245649 0.384260 0.207697 1.143044 0.485486 -0.012796 0.179057 0.309183 -0.517777 -0.053321 0.779897 0.380728 0.662693 0.302702 0.345288 -0.083516 0.231738 -0.526873 0.549876 0.037345 0.300801 0.553719 -0.108152 0.393222 0.275993 0.604346 -0.829659 -0.423328 1.226966 -0.603551 -0.575915 0.151105 -0.462294 -0.060867 0.528825 -0.089248 0.013909 0.503614 0.525421 0.270375 0.315099 0.387950 -0.178783 0.753842 0.067311
8 0.016958 -0.133935 0.448805 0.250052 0.170353 0.164643 0.342751 0.161218 -0.199683 -0.116916 -0.279245 0.111843 -0.188958 0.568561 -0.156595 -0.398242 -0.019616 0.045715 0.078809 -0.542176 0.039016 0.247173 -0.336891 0.018891 -0.182866 -0.271830 0.293403 0.369776 -0.047321 -0.022809 0.127079 -0.013815 0.085646 0.205338 0.159732 -0.306188 0.139480 0.296164 -0.316378 0.025514 0.007093 0.211726 0.007339 0.009836 -0.101704 0.497374 -0.042753 0.397120 -0.015699 0.174268 -0.065738 0.113956 -0.040279 -0.077733 0.081200 -0.370733 -0.097614 -0.061948 -0.256455 -0.367141 0.591382 0.082945 0.049759 -0.401234 -0.356215 0.180998 -0.194533 0.178332 0.447266 -0.637262 -0.091474 0.373086 -0.154654 -0.511995 0.480116 0.410887 -0.091460 0.294887 0.164838 0.252487 -0.501215 -0.245854 0.442772 -0.135983 0.066057 0.436559 0.035292 -0.022305 0.216137 0.109441 -0.419917 -0.011885 -0.409604 -0.230178 -0.146677 0.336751 -0.064733 0.360774 0.233187 0.042597 -0.117613 0.520405 -0.051668 -0.041024 0.356824 0.630191 0.197984 0.234186 0.021811 0.102065 -0.310854 0.500165 -0.008607 0.206077 0.502376 0.251901 0.276002 -0.364095 -0.103863 -0.527870 0.208169 -0.017824 0.113530 -0.288287 0.077637 0.212914 -0.010229 0.263636 0.394615 0.155622 -0.393884 -0.057572 -0.046777 -0.508928 -0.584864 0.545635 -0.368765 0.271137 0.459645 -0.310745 -0.246148 -0.212164 0.275280 -0.252055 -0.046448 0.077657 -0.007359 -0.116756 -0.087145 -0.568831 -0.323392 -0.199549 -0.118727 0.215044 -0.219463 0.041858 -0.002151 -0.493541 0.411113 -0.352919 -0.253580 0.150091 -0.385204 0.126380 -0.234345 -0.084779 -0.193844 -0.137482 0.300590 0.247479 -0.085529 0.728618 -0.002865 -0.049175 -0.322515 0.065708 -0.201430 0.314995 -0.274399 -0.085206 0.524719 0.136425 -0.035087 -0.102496 -0.304565 0.191594 0.407298 -0.207838 -0.029189 0.129607 -0.252335 0.069468 -0.110860 0.108666 -0.027767 0.073235 -0.290738 -0.103011 -0.173626 -0.489758 -0.383380 -0.166986 0.190168 -0.031352 0.554753 -0.053887 0.223127 0.086229 0.207486 -0.519316 0.051293 -0.293660 -0.075148 -0.136827 0.218972 -0.433044 -0.083060 0.409460 -0.118654 0.111546 0.311072 0.253201 0.448328 0.026180 -0.272727 -0.170888 0.116584 -0.048552 0.482223 -0.123343 0.311840 0.074087 -0.030117 0.258759 0.253548 0.365773 -0.385696 -0.295434 -0.163612 -0.258064 0.138905 0.283049 0.111047 -0.070790 -0.068238 0.676757 0.165407 -0.120283 0.459637 0.205758 -0.268333 -0.538398 0.180353 0.128865 -0.238271 0.009704 -0.048153 0.319541 0.592000 -0.402167 0.287321 -0.067276 0.010301 -0.107327 0.186191 0.065918 -0.259806 0.179788 0.207283 -0.370550 0.015736 0.094772 -0.182630 0.376459 -0.408737 -0.329023 -0.052505 0.454158 0.216115 -0.125324 0.429855 -0.534759 -0.338805 0.105842 0.058291 -0.224925 0.176153 0.189398 0.301278 0.071820 0.227954 -0.043014 0.514818 -0.007242 -0.110491 0.179876 0.624258 0.036023 -0.281235 -0.286706
văn_phòng -0.594785 -0.117807 0.254122 -0.661987 0.058938 -0.752437 -0.593729 -0.360000 -0.477238 0.421731 0.421830 -0.387468 -0.494417 0.216094 0.299799 -0.256526 -0.145998 -0.393397 0.155499 -0.145295 -0.208725 -0.101397 0.167395 0.303486 0.232545 -0.502385 0.541904 -0.101757 0.314125 0.123299 0.087102 -0.301297 -0.532988 -0.311916 -0.005199 -0.336880 -0.282518 0.165056 -0.141761 -0.361631 -0.430067 -0.530463 -0.762777 0.786319 0.155900 0.114052 0.066659 0.594741 0.060025 0.277047 0.192140 0.281712 0.393614 -0.078103 0.569167 -0.449202 0.125533 0.658351 0.388948 0.192407 0.307686 -0.046142 -0.896325 0.705957 0.232633 -0.361894 0.333741 -0.297729 0.062278 -0.273041 0.272888 0.470155 -0.119407 -0.319878 -0.108408 0.364511 0.025549 -0.185585 0.208356 0.083508 -0.368258 -0.198235 -0.816281 -0.132040 0.097608 -0.559827 0.464231 -0.439313 0.274426 0.691660 -1.310323 0.065936 0.223888 1.104322 0.025100 -0.021670 -0.035819 0.723679 0.421895 1.272755 -0.087107 -1.203230 0.087225 -0.211971 0.034518 -0.404171 0.070910 0.674542 -0.129296 -0.626002 0.078608 0.342159 0.638104 -0.047263 0.003610 0.295471 -0.462720 0.539157 -0.088257 0.151308 -0.196374 0.159274 -0.332193 -0.518358 -0.184079 0.889407 -0.768758 0.246981 -0.705611 0.177731 -0.670978 0.243976 0.288668 -0.070656 0.294896 0.292937 -0.143190 0.070434 -0.433424 -0.281397 -0.417765 -0.968158 0.235289 -0.147244 -0.739461 0.268189 0.193007 -0.392208 0.257541 -0.463876 -0.281022 0.128214 0.236099 -0.212882 -0.498877 0.601072 0.026966 0.023451 0.252311 -0.222355 -0.195031 -0.357111 -0.559444 -0.728607 0.053766 0.128285 0.143091 0.111247 -0.175862 0.432442 0.125019 -0.127281 -0.154056 -0.233198 0.246781 0.377237 -0.249265 0.778449 0.057197 -0.294247 0.365173 0.479245 -0.142973 -0.093742 -0.546830 0.878493 -0.385958 0.237201 -0.000986 0.297289 -0.604992 -0.178869 0.030504 -0.267858 0.106592 0.061258 0.723541 -0.128772 0.281508 0.297946 0.482233 -0.039303 -0.539757 -0.198043 0.290679 -0.003506 0.173835 -0.268201 0.462791 -0.042734 0.000897 0.081050 0.098201 0.289931 -0.161605 -0.009432 -0.120202 -0.217346 -0.381807 -0.355320 0.269914 -0.289402 -0.282308 -0.570538 -0.297097 0.657315 -0.009979 -0.030566 -0.197694 0.332030 -0.119315 -0.191177 0.488617 0.000528 0.573271 -0.592155 0.073090 -0.188127 0.121138 -0.070817 -0.031346 0.561467 0.100035 0.018087 -0.411512 -0.214606 0.055505 -0.020914 -0.231148 -0.246204 0.124284 -0.488747 -0.178304 0.395162 0.036856 0.154586 0.369193 -0.637473 0.447376 0.319334 0.066102 0.137826 0.721271 0.067937 -0.369287 -0.300128 0.395656 0.030505 0.272109 0.316589 -0.090366 0.065006 -0.628874 0.306710 -0.257065 0.329752 0.542231 0.471704 -0.349046 0.341654 0.387321 -0.820441 -0.592478 0.947071 -0.223693 -0.518619 -0.038828 -0.473807 0.191408 0.720922 -0.087414 0.180205 -0.102725 0.003094 -0.003367 0.511841 0.393810 -0.067318 -0.107547 -0.032745
5 0.108378 -0.167955 0.480302 0.174640 0.102042 0.306890 0.432777 0.067117 -0.109590 0.031261 -0.321015 0.026964 -0.179885 0.428524 -0.168467 -0.417290 -0.046770 0.066909 0.050232 -0.520348 0.032042 0.281247 -0.235203 -0.067892 -0.233634 -0.239358 0.295107 0.419840 -0.172014 -0.011908 0.064291 -0.022191 0.165104 0.166569 0.121611 -0.320959 0.284976 0.421687 -0.327238 0.130500 0.126872 0.204910 -0.003097 0.114020 -0.142678 0.516996 -0.039274 0.440474 0.013251 0.113611 -0.033805 0.074576 0.018990 -0.021436 -0.020986 -0.282149 -0.192372 -0.095364 -0.260271 -0.347538 0.602392 -0.048339 0.094358 -0.387255 -0.209984 0.282792 -0.282915 0.168670 0.442873 -0.507628 -0.099749 0.416486 -0.150821 -0.421681 0.414682 0.449866 -0.063529 0.391975 0.162313 0.287645 -0.391937 -0.238639 0.347743 -0.077892 0.144476 0.519395 -0.028012 -0.196689 0.271649 0.121990 -0.274632 -0.019865 -0.394778 -0.268637 -0.107804 0.308326 -0.074247 0.291810 0.206041 0.061006 -0.108673 0.568684 -0.130044 -0.019085 0.301622 0.632571 0.189166 0.249920 -0.032734 0.074836 -0.299555 0.552715 -0.136632 0.140333 0.479183 0.251532 0.235774 -0.344498 -0.139546 -0.490948 0.247906 0.019291 0.039848 -0.306349 0.073770 0.144279 -0.047325 0.289101 0.393929 0.217200 -0.453371 -0.187928 -0.011183 -0.553784 -0.569492 0.612984 -0.355588 0.173513 0.392947 -0.192773 -0.213970 -0.295994 0.287317 -0.150841 -0.149499 0.043108 -0.054463 -0.129100 -0.152347 -0.465344 -0.163331 -0.181123 -0.137421 0.150667 -0.245582 0.100918 -0.063470 -0.489463 0.460662 -0.394678 -0.181363 0.146359 -0.392373 0.143207 -0.118577 -0.073445 -0.221340 -0.142736 0.285609 0.304176 -0.110093 0.690498 -0.033079 0.017717 -0.336398 0.107542 -0.237998 0.102609 -0.229286 -0.067290 0.424766 0.180917 -0.098223 -0.091917 -0.356127 0.118821 0.385533 -0.284833 0.004065 0.176560 -0.251040 0.131360 -0.156432 0.076889 -0.093311 0.052610 -0.288377 -0.031318 -0.122479 -0.479863 -0.376332 -0.138104 0.105955 -0.016349 0.461482 -0.036474 0.363922 0.030449 0.143623 -0.494462 0.056063 -0.300165 -0.057691 -0.154781 0.158176 -0.438347 -0.071094 0.417405 0.028228 0.066530 0.269088 0.214428 0.469895 0.104427 -0.185655 -0.218832 0.124566 -0.019510 0.509683 -0.171471 0.228235 0.102631 -0.090116 0.156870 0.244028 0.286486 -0.395520 -0.337662 -0.177411 -0.220486 0.127584 0.275444 0.157288 -0.134776 -0.010852 0.705876 0.253036 -0.175349 0.460294 0.240780 -0.350681 -0.516442 0.216913 0.112750 -0.202142 -0.064703 -0.002044 0.298879 0.496798 -0.647029 0.365741 -0.053411 0.002971 -0.092335 0.203487 -0.074581 -0.233659 0.115672 0.212098 -0.412935 0.201444 0.066069 -0.136184 0.355810 -0.377197 -0.401107 -0.113805 0.586086 0.233614 -0.086851 0.394055 -0.407724 -0.249070 0.079531 0.146143 -0.091011 0.206233 0.292305 0.357064 0.082428 0.305955 -0.031783 0.536188 0.085128 -0.135976 0.213505 0.615656 0.058851 -0.496356 -0.293571
Phòng 0.696268 -0.219823 -0.033527 0.055710 -0.257520 0.063165 0.113100 -0.347029 0.962673 0.501387 0.083216 0.338417 0.887264 -0.259768 0.230220 0.128693 -0.151839 0.371439 -0.042079 0.291531 0.622327 0.192814 0.033311 -0.093647 -0.520520 0.776921 -0.471722 0.333769 -0.641076 0.694109 -0.176935 -0.258403 0.569444 -0.186166 0.094682 0.363714 0.480831 -0.003870 0.179573 -0.390381 0.377576 0.012685 0.194633 -0.283396 0.644022 0.053613 0.152870 -0.739078 -0.513191 -0.416492 -0.161518 -0.153050 0.130443 0.267898 0.032684 0.608682 -0.200006 -0.251553 -0.179592 0.107657 -0.050089 -0.554359 0.708168 -0.295495 0.898395 -0.188151 -0.518066 -0.326087 -0.507441 0.384638 0.012252 -0.080279 0.262457 0.550265 -0.220846 -0.379866 0.198198 -0.632046 -0.407768 0.118056 0.131099 0.221641 -0.547018 0.226589 -0.142171 -0.543228 -0.562936 -0.627084 0.245026 -0.219568 0.628502 0.160377 0.072911 -0.672756 0.633089 0.559762 0.042760 -0.705419 -0.087837 -0.193855 0.092609 -0.053276 -0.618727 -0.016294 -0.419315 -0.044873 -0.319544 0.276652 0.309606 -0.102150 0.216962 -0.416813 -0.428280 0.232939 -0.132682 -0.603442 -0.254129 0.056055 0.190340 -0.174589 -0.220626 0.412944 -0.464209 0.601544 0.150509 -0.117212 -0.198208 -0.338199 -0.145493 -0.215982 0.331702 0.208926 -0.224278 0.172374 0.214655 -0.568595 0.799308 -0.556629 0.065823 0.354892 0.178675 -0.357501 -0.121192 0.077542 0.354748 0.192138 0.423147 0.207746 -0.371110 0.694932 0.461844 -0.127524 -0.176358 -0.237479 0.492362 -0.544730 -0.510038 0.768405 -0.125779 0.264403 -0.010387 -0.006556 0.603624 -0.167899 0.133314 -0.261735 -0.046132 0.285969 -0.747807 -0.071866 0.197714 -0.430636 -0.397264 0.055174 0.111270 0.137307 -0.006181 -0.439308 0.176008 0.013347 -0.294347 0.311070 -0.028505 0.429370 0.101228 -0.723924 -0.237443 0.073829 0.298022 0.142964 0.483083 -0.300316 0.311089 -0.014688 -0.314028 0.017470 0.322311 0.256862 0.389567 0.522758 0.267887 -0.387951 -0.349458 0.254245 0.064177 0.045791 0.312926 0.331951 -0.017700 0.577642 -0.004888 -0.012712 0.470233 -0.112746 -0.304659 0.849759 0.243640 -0.422742 0.262353 0.364314 0.118157 -0.087481 0.310880 0.239340 0.657986 0.363528 0.187502 0.334494 0.151771 0.011067 0.524090 -0.169734 -0.596430 -0.260282 -0.727642 -0.458512 0.593445 -0.051332 0.306171 0.215794 0.467767 -0.377776 -0.334090 -0.563668 -0.320803 -0.176550 -0.506593 0.434636 -0.403508 -0.203589 0.121426 0.787099 0.370443 0.495456 0.347672 0.018761 0.403138 0.176294 -0.479479 -0.048590 -0.729733 -0.425553 0.070214 -0.353225 -0.876027 -0.439476 -0.031614 -0.230109 0.115502 -0.191689 0.492489 0.498665 0.727431 -0.429640 -0.134954 0.261526 -0.747161 -0.115564 -0.189866 -0.053463 -0.084453 0.296861 0.735719 -1.219644 -0.120331 0.038253 -0.248774 0.401236 0.024255 -0.441423 0.036821 -0.448577 -0.283416 0.329080 0.209411 -0.167946 -0.048371 0.035567 -0.525852 0.760706
11 0.075184 -0.204494 0.480426 0.259057 0.155226 0.195688 0.426063 0.145716 -0.150340 -0.019954 -0.295799 0.071849 -0.178567 0.506819 -0.173539 -0.419937 -0.089421 0.117925 0.078142 -0.561944 0.006020 0.246778 -0.296128 -0.007330 -0.245971 -0.310214 0.291033 0.415241 -0.074668 -0.075285 0.034886 0.016629 0.095489 0.144293 0.146626 -0.314163 0.159440 0.357962 -0.312271 0.140539 0.022870 0.225586 0.007952 0.066771 -0.073159 0.507869 -0.025120 0.382145 -0.012875 0.140805 0.011768 0.088024 -0.060395 0.003261 0.065463 -0.379908 -0.138620 -0.089023 -0.249234 -0.431298 0.599970 0.050100 0.045709 -0.450297 -0.307496 0.227199 -0.194846 0.139949 0.425273 -0.618217 -0.165697 0.365127 -0.168723 -0.428708 0.488706 0.458583 -0.053914 0.363144 0.217458 0.296258 -0.475455 -0.227698 0.404530 -0.132692 0.078191 0.493874 -0.005899 -0.125045 0.264181 0.124336 -0.413646 -0.047234 -0.355568 -0.194371 -0.252461 0.310642 -0.041227 0.381430 0.238448 0.021565 -0.119680 0.541722 -0.006434 -0.015565 0.356772 0.634936 0.206492 0.273655 -0.030157 0.134548 -0.283664 0.498484 -0.031303 0.157605 0.530440 0.260876 0.221474 -0.375222 -0.115177 -0.550640 0.246263 0.013600 0.058502 -0.283006 0.082658 0.217342 -0.001767 0.360397 0.508390 0.166248 -0.374712 -0.087863 -0.001121 -0.614008 -0.560745 0.562926 -0.414604 0.275778 0.435344 -0.247763 -0.217496 -0.266154 0.284689 -0.171540 -0.084172 0.052855 -0.049259 -0.058711 -0.059622 -0.519519 -0.201127 -0.182257 -0.152238 0.217055 -0.166116 0.064671 0.033660 -0.499591 0.421184 -0.310549 -0.228592 0.152528 -0.395054 0.116642 -0.202312 -0.013951 -0.140907 -0.175554 0.305534 0.250371 -0.089175 0.756778 0.028688 -0.008209 -0.304051 0.058926 -0.271208 0.243692 -0.319099 -0.174059 0.438067 0.184125 -0.019985 -0.068167 -0.377926 0.164694 0.392575 -0.247774 -0.030613 0.156038 -0.227161 0.134586 -0.086691 0.073818 -0.059526 0.050942 -0.248867 -0.012570 -0.194736 -0.469930 -0.369565 -0.166245 0.204445 -0.044329 0.536245 -0.047790 0.301192 0.139033 0.182125 -0.450553 0.018129 -0.251434 -0.075608 -0.096314 0.160164 -0.427646 -0.077098 0.451278 -0.052134 0.095370 0.290557 0.264240 0.414240 0.063343 -0.184583 -0.213291 0.111174 -0.029879 0.505400 -0.198833 0.320547 0.110919 -0.050363 0.233915 0.204454 0.308931 -0.403599 -0.336072 -0.197825 -0.244720 0.073687 0.238991 0.133077 -0.052240 0.057687 0.689784 0.218575 -0.108158 0.477325 0.269092 -0.323009 -0.512080 0.182879 0.062799 -0.184957 -0.118811 -0.040680 0.330298 0.562190 -0.506367 0.316962 -0.018539 -0.021556 -0.086225 0.234083 0.057688 -0.298173 0.161779 0.276026 -0.419212 0.087525 0.099285 -0.168523 0.320127 -0.441472 -0.304116 -0.012920 0.456137 0.268586 -0.185484 0.451352 -0.528462 -0.281563 0.137539 0.126953 -0.230737 0.286310 0.244309 0.340747 -0.012119 0.288364 -0.029915 0.613470 0.076391 -0.122391 0.138454 0.610981 0.068022 -0.338470 -0.259431
hành_lang -0.551295 -0.297992 0.371706 -0.652374 0.182074 -0.899916 -0.651914 -0.276484 -0.401020 0.481543 0.367673 -0.356003 -0.524983 0.348947 0.302103 -0.209011 -0.208442 -0.401533 0.291354 -0.154762 -0.174750 -0.064217 0.030841 0.403810 0.317012 -0.448101 0.578522 -0.110383 0.378476 0.123490 -0.019622 -0.182565 -0.493796 -0.134694 0.051311 -0.306946 -0.209058 0.063363 0.000861 -0.325889 -0.306916 -0.561320 -0.588276 0.841766 0.126058 0.181838 -0.015365 0.590772 0.212882 0.433101 0.206468 0.310948 0.167165 -0.162728 0.647382 -0.583195 0.243193 0.827760 0.235696 0.044511 0.246863 -0.077574 -0.915330 0.648541 0.255397 -0.442800 0.449772 -0.331665 0.138952 -0.262066 0.187629 0.289638 -0.055959 -0.216047 -0.143702 0.477150 0.116739 -0.089598 0.397732 -0.023195 -0.153075 -0.322350 -0.728207 -0.275900 -0.025886 -0.495351 0.453086 -0.537605 0.409804 0.629495 -1.156978 -0.011866 0.299746 1.195177 -0.119079 0.021948 0.159039 0.809441 0.373948 1.192703 -0.087210 -1.139604 0.154396 -0.163919 -0.068096 -0.433293 0.091296 0.710529 -0.207634 -0.567568 0.052373 0.321820 0.630561 -0.065409 0.122781 0.186702 -0.460145 0.523707 -0.181818 -0.084663 -0.186798 0.229262 -0.464948 -0.533726 -0.334630 0.979851 -0.741054 0.139192 -0.673999 0.261883 -0.687858 0.172847 0.508456 0.015957 0.196049 0.136593 0.022363 -0.002984 -0.473109 -0.318335 -0.468956 -0.811265 0.105488 0.047759 -0.757311 0.013255 0.217737 -0.220581 0.253339 -0.538683 -0.089637 0.227105 0.280962 -0.089434 -0.250989 0.557606 0.055861 0.133358 0.181091 -0.323699 -0.355907 -0.176569 -0.555446 -0.667614 -0.025981 0.127261 0.358821 -0.057055 -0.140742 0.500806 0.235792 0.028951 -0.192349 -0.162241 0.292415 0.281614 -0.363878 0.719210 0.055976 -0.355289 0.306459 0.445701 -0.153458 -0.118744 -0.603682 0.866319 -0.529250 0.225807 -0.084424 0.257489 -0.579092 0.041050 0.174793 -0.418141 0.178324 0.173588 0.840321 -0.106153 0.371361 0.209176 0.468079 -0.110944 -0.392207 -0.279022 0.200296 0.119408 0.116660 -0.086305 0.428188 -0.084299 0.067668 0.153509 -0.100930 0.318401 -0.141492 0.096974 -0.004792 -0.236410 -0.308231 -0.478589 0.021034 -0.362017 -0.284520 -0.394017 -0.234927 0.527392 -0.001881 -0.081019 -0.189081 0.463912 -0.164291 -0.175024 0.434191 -0.008745 0.471977 -0.532808 0.045391 -0.251815 0.125303 -0.122520 -0.064529 0.571390 0.188632 0.152882 -0.274900 -0.133013 -0.016771 -0.079733 -0.252054 -0.286817 -0.045719 -0.444642 -0.069342 0.306617 0.007222 0.028602 0.373243 -0.595985 0.552945 0.290120 0.150423 0.142026 0.792635 0.212081 -0.369275 -0.185750 0.423834 -0.058711 0.172107 0.319274 -0.102003 0.064299 -0.604196 0.304656 -0.431143 0.451439 0.487409 0.466176 -0.391182 0.253427 0.304143 -0.715402 -0.433452 0.985257 -0.189354 -0.494696 0.014306 -0.468814 0.394059 0.625469 -0.123551 0.064826 -0.057868 0.000920 -0.192580 0.298443 0.156292 0.075032 0.008114 -0.000546
1 0.060453 -0.186255 0.524760 0.252718 0.149194 0.179060 0.366448 0.051283 0.007592 0.020157 -0.321837 0.051179 -0.164934 0.499136 -0.163557 -0.376841 -0.013091 0.091967 0.071421 -0.560657 0.089802 0.254692 -0.284924 -0.005171 -0.209416 -0.255643 0.282764 0.399213 -0.144575 -0.010780 0.042551 -0.006584 0.118964 0.197474 0.128491 -0.311278 0.209865 0.345745 -0.322816 0.184893 0.063955 0.181985 0.071203 0.087837 -0.098695 0.474827 -0.066073 0.362981 -0.002511 0.152099 -0.017220 0.056854 -0.053588 0.026702 0.037221 -0.319807 -0.153011 -0.106884 -0.248949 -0.362201 0.630675 -0.047948 -0.006272 -0.442595 -0.240189 0.227034 -0.193839 0.168842 0.399966 -0.572215 -0.128403 0.277294 -0.085494 -0.447385 0.502272 0.408506 -0.049134 0.357630 0.215851 0.262471 -0.482822 -0.261378 0.359287 -0.084164 0.056107 0.458156 0.007375 -0.119892 0.354707 0.081726 -0.342949 0.007082 -0.371745 -0.223019 -0.206193 0.313521 0.017917 0.329577 0.239778 0.031853 -0.098301 0.532432 -0.116355 -0.052900 0.324094 0.646639 0.213541 0.295861 -0.051293 0.047406 -0.307190 0.432081 -0.082429 0.176263 0.542895 0.195610 0.230897 -0.382729 -0.105304 -0.479334 0.234492 -0.031977 0.042698 -0.187551 0.056422 0.226450 -0.044562 0.308090 0.473429 0.216455 -0.413284 -0.074226 0.020341 -0.567001 -0.558551 0.569166 -0.312913 0.213123 0.442121 -0.224769 -0.226656 -0.246584 0.230391 -0.176150 -0.083561 0.092134 -0.012244 -0.092782 -0.129336 -0.478277 -0.160431 -0.153080 -0.151401 0.251020 -0.198152 0.018541 -0.010369 -0.485747 0.386856 -0.319747 -0.214464 0.148902 -0.414454 0.149749 -0.200029 -0.154668 -0.144658 -0.203853 0.264589 0.326171 -0.093648 0.785602 -0.059627 -0.017712 -0.345356 0.073298 -0.294648 0.168341 -0.283773 -0.116260 0.406125 0.230459 -0.032018 -0.058793 -0.377927 0.155854 0.400494 -0.226221 -0.005239 0.177454 -0.242792 0.154510 -0.106589 0.047865 -0.043968 0.056600 -0.247069 -0.069394 -0.190513 -0.443476 -0.374968 -0.150496 0.130521 0.010490 0.478290 0.032901 0.315956 0.075538 0.180062 -0.460013 -0.004817 -0.274248 -0.092253 -0.157535 0.180299 -0.413871 -0.119903 0.406662 -0.043424 0.128114 0.257802 0.270577 0.503154 0.135196 -0.158306 -0.199584 0.161049 -0.012348 0.458417 -0.156807 0.305161 0.087501 -0.085270 0.188430 0.224040 0.324914 -0.361040 -0.296960 -0.174931 -0.241716 0.103729 0.285364 0.138630 -0.081885 -0.056425 0.698272 0.170614 -0.108234 0.480167 0.253311 -0.382880 -0.472817 0.206844 0.083814 -0.171250 -0.099543 -0.009594 0.292527 0.523490 -0.477526 0.268264 -0.119554 0.041565 -0.141348 0.217467 -0.018836 -0.270310 0.145124 0.248217 -0.432040 0.095443 0.119794 -0.188748 0.282761 -0.390046 -0.285594 -0.116682 0.452713 0.255941 -0.178766 0.401864 -0.434869 -0.253508 0.088139 0.094781 -0.228678 0.208032 0.274746 0.371431 0.012042 0.329367 -0.018181 0.580035 0.010535 -0.096368 0.120329 0.606993 0.066978 -0.402555 -0.249186
10 0.118874 -0.243323 0.538638 0.228363 0.139198 0.197776 0.422348 0.050553 -0.047287 0.067021 -0.301437 0.029819 -0.223648 0.457304 -0.249322 -0.438126 -0.091647 0.143086 0.062166 -0.606049 0.020362 0.218086 -0.288239 -0.037059 -0.221884 -0.287089 0.284146 0.386942 -0.194156 -0.063147 0.036922 0.009766 0.066953 0.086630 0.138309 -0.353834 0.200178 0.398710 -0.367426 0.186645 0.047380 0.192152 0.091840 0.156706 -0.138160 0.492057 -0.009636 0.420175 0.047721 0.168757 0.015440 0.067954 -0.008041 -0.034819 0.024145 -0.320261 -0.129582 -0.121276 -0.259040 -0.393077 0.655226 -0.033572 -0.051028 -0.409523 -0.236842 0.272881 -0.167615 0.144600 0.434117 -0.573364 -0.147018 0.292053 -0.170564 -0.477451 0.485708 0.420835 -0.031343 0.420223 0.263967 0.312620 -0.472796 -0.197222 0.330430 -0.073661 0.088617 0.489958 0.040249 -0.189614 0.360387 0.105146 -0.417041 -0.051248 -0.365424 -0.171650 -0.249626 0.333646 0.018664 0.398558 0.252502 0.073271 -0.105616 0.435539 -0.123414 -0.062270 0.360018 0.598187 0.225303 0.328821 -0.057911 0.082213 -0.374462 0.512813 -0.067666 0.155489 0.544467 0.291761 0.201362 -0.329800 -0.122257 -0.454906 0.217301 -0.067292 0.054861 -0.247370 0.059723 0.252550 -0.005296 0.351592 0.482053 0.285450 -0.414284 -0.080077 0.003940 -0.645909 -0.562336 0.629204 -0.402730 0.208221 0.467669 -0.232322 -0.290905 -0.308893 0.265524 -0.191672 -0.106639 0.116871 -0.017436 -0.162118 -0.128936 -0.545009 -0.154335 -0.102228 -0.179220 0.224245 -0.218965 0.125013 0.009163 -0.509841 0.465445 -0.311450 -0.244856 0.130071 -0.476497 0.059594 -0.178872 -0.161400 -0.190859 -0.262390 0.262499 0.314040 -0.076709 0.820061 -0.015663 0.002391 -0.325561 0.083300 -0.307361 0.133143 -0.270453 -0.154922 0.442355 0.215433 -0.038666 -0.083365 -0.423734 0.158196 0.443940 -0.273827 -0.015417 0.190223 -0.225641 0.139110 -0.145415 0.049456 -0.061651 -0.008016 -0.261411 -0.012259 -0.143342 -0.481640 -0.313020 -0.154401 0.123093 -0.013676 0.466512 0.051333 0.353982 -0.014136 0.185238 -0.525871 -0.051726 -0.267243 -0.099821 -0.127315 0.099841 -0.464018 -0.145223 0.431901 -0.006684 0.105856 0.177386 0.304035 0.512125 0.117618 -0.108893 -0.201578 0.140089 -0.010667 0.535346 -0.245496 0.274760 0.138190 -0.043356 0.130417 0.182706 0.326852 -0.379741 -0.324822 -0.232812 -0.284947 0.074115 0.247456 0.160025 -0.070675 0.000134 0.741384 0.220584 -0.175647 0.515937 0.276092 -0.432552 -0.537404 0.239420 0.072942 -0.153098 -0.171192 -0.056978 0.331738 0.564585 -0.551242 0.308580 -0.097229 0.030025 -0.132789 0.319327 -0.015695 -0.213744 0.180754 0.288254 -0.482156 0.144257 0.126323 -0.217185 0.310772 -0.434277 -0.316317 0.020887 0.460893 0.247555 -0.160277 0.393811 -0.518103 -0.305327 0.229363 0.189360 -0.236507 0.272334 0.317795 0.346911 0.055204 0.340683 -0.001637 0.621278 0.042436 -0.138322 0.156347 0.624175 0.103606 -0.459032 -0.321112
nhà_bếp -0.538625 -0.577440 0.378868 -0.420068 -0.119525 -0.489535 -0.422480 -0.183979 -0.469365 0.381485 0.448184 -0.603516 -0.689321 0.710043 0.347068 -0.314770 -0.441867 -0.527180 0.518176 0.371827 -0.147947 -0.334653 0.217659 0.284797 0.147236 0.077232 0.367611 0.134232 0.264390 -0.159405 -0.210436 0.042232 -0.186792 0.125818 0.136378 -0.320317 0.078969 0.159655 0.321290 -0.127602 0.284503 -0.456423 -0.470009 1.111924 0.053196 0.241436 0.036140 0.287599 0.611510 0.243507 0.113155 0.620585 0.153719 -0.161863 0.375462 -0.410269 0.166250 0.784864 0.243709 -0.427444 0.575192 -0.013245 -0.564648 0.573650 -0.019346 -0.198020 0.703409 -0.158994 0.281700 0.135655 0.186513 0.302104 0.158140 0.308592 -0.105516 0.501012 0.065084 0.091094 0.493668 0.317248 0.417884 -0.487899 -0.494322 -0.147491 0.280064 -0.232330 0.101356 -0.249778 0.545082 0.263527 -0.305561 -0.089878 0.535644 1.052180 -0.449607 -0.053456 0.096441 0.855591 0.606082 0.476796 -0.174791 -0.817136 0.101399 -0.117091 -0.155314 -0.201695 0.363533 0.527121 -0.366838 -0.480731 -0.068328 0.338790 0.092562 -0.122493 0.513596 -0.161006 -1.024686 0.429834 -0.771128 -0.067481 0.029679 0.573614 -0.705632 -0.764398 -0.448089 0.728372 -0.894448 0.195118 -0.921525 0.277087 -0.202207 -0.092664 0.528708 0.468455 -0.443941 0.021279 0.419749 0.040058 -0.339070 -0.533400 -0.394165 -0.663730 0.425889 0.248257 -0.874684 -0.609275 0.182848 0.250668 0.308235 -0.719766 0.154431 0.355806 0.271855 0.159348 0.168482 0.075831 0.246550 0.188423 0.147784 -0.491131 -0.780065 -0.310322 -0.203571 -0.168313 -0.254393 0.108181 0.586735 0.106866 -0.086364 0.523239 0.093116 0.104432 -0.308633 0.197939 0.330818 0.118169 -0.455112 0.938905 -0.126853 -0.208779 -0.068432 0.400262 0.116506 -0.406182 -0.541374 0.763455 -0.304631 0.349061 0.041018 0.072668 -0.499118 0.519874 0.138396 -0.492455 0.321354 0.461770 0.551915 0.445444 0.354153 0.096175 0.101491 -0.166998 -0.348295 -0.398634 0.137956 0.112399 0.033758 0.134258 0.463477 -0.283684 0.269548 0.743667 0.207045 0.540124 -0.501715 0.194298 0.299303 -0.107114 0.078996 -0.982335 -0.107587 -0.454569 -0.328387 -0.302871 -0.641434 0.366489 -0.288211 -0.253466 0.049856 0.540324 -0.480057 -0.180481 0.346296 0.036708 0.437930 -0.578931 0.268658 -0.195830 0.365411 0.026307 -0.116696 0.269943 0.220058 0.519922 0.107645 0.024331 0.092912 -0.076387 0.138141 -0.310661 -0.448796 -0.090741 -0.037732 0.031498 -0.178951 -0.500296 0.376312 -0.693590 0.275222 0.084265 0.498396 -0.069662 0.803841 0.578396 -0.299693 -0.267773 0.454368 -0.423610 -0.127735 0.185686 0.075796 0.036410 -0.400140 0.345447 -0.272752 0.523574 0.780831 1.020979 -0.341836 0.423470 -0.282485 -0.494304 -0.283122 0.911241 0.363973 -0.356553 0.559679 -0.297106 0.401777 0.259155 0.035916 0.350400 0.050083 0.060726 -0.810479 -0.057472 0.174219 0.328657 -0.208022 -0.336058
14 0.150825 -0.269047 0.514163 0.248491 0.163434 0.205766 0.463971 0.016620 -0.082068 0.026237 -0.309670 0.026692 -0.190752 0.432465 -0.220382 -0.432329 -0.095997 0.192601 0.023686 -0.617914 -0.014306 0.328732 -0.260505 -0.040489 -0.334336 -0.267208 0.294317 0.477958 -0.179825 -0.048116 -0.058617 0.028854 0.138426 0.095551 0.145572 -0.329159 0.179912 0.469007 -0.337995 0.132361 0.118277 0.212609 -0.037726 0.180264 -0.062371 0.511328 -0.019488 0.461999 -0.035784 0.135793 0.019774 0.105479 0.025624 0.054789 -0.034447 -0.350502 -0.152932 -0.075996 -0.247805 -0.425867 0.642975 -0.079497 -0.005881 -0.492649 -0.187435 0.321643 -0.179651 0.126451 0.409817 -0.500507 -0.115482 0.440237 -0.101171 -0.415152 0.507161 0.468438 -0.044553 0.403700 0.184893 0.339479 -0.475434 -0.223709 0.277053 -0.044428 0.114275 0.528919 -0.038587 -0.304696 0.284992 0.120296 -0.404802 -0.070553 -0.357271 -0.181747 -0.252747 0.326614 -0.028828 0.344660 0.274493 0.028074 -0.142973 0.563321 -0.058772 -0.043648 0.403360 0.618758 0.170494 0.358195 -0.029536 0.126661 -0.328377 0.484126 -0.084763 0.118220 0.511383 0.288097 0.149592 -0.315900 -0.084063 -0.486468 0.251071 -0.001629 -0.025070 -0.295049 0.022688 0.210506 -0.074988 0.372232 0.463287 0.138528 -0.408875 -0.082631 0.045118 -0.590954 -0.589841 0.586876 -0.398658 0.245408 0.443352 -0.167080 -0.215459 -0.381929 0.303562 -0.114666 -0.129047 0.038748 -0.100223 -0.064302 -0.084139 -0.423435 -0.095504 -0.187448 -0.185209 0.159651 -0.223482 0.109443 0.015022 -0.480314 0.447460 -0.400074 -0.155535 0.127439 -0.362094 0.141815 -0.141266 -0.059825 -0.136976 -0.129957 0.223397 0.284387 -0.155026 0.739291 -0.072333 0.018977 -0.285488 0.142365 -0.294454 0.129862 -0.291746 -0.165234 0.404355 0.237593 0.010002 -0.095798 -0.400519 0.133585 0.361447 -0.223171 0.039893 0.210829 -0.192403 0.108409 -0.100536 0.068603 -0.134548 -0.017268 -0.213705 0.009764 -0.122601 -0.472742 -0.352940 -0.209355 0.150562 -0.010836 0.511368 0.010191 0.413915 0.092788 0.138018 -0.457075 0.015721 -0.230905 -0.091427 -0.122269 0.095877 -0.378815 -0.074814 0.411894 -0.002392 0.114364 0.276631 0.215761 0.425674 0.153837 -0.127671 -0.165583 0.099008 0.026893 0.511488 -0.220582 0.282027 0.145610 -0.059313 0.122454 0.247138 0.225102 -0.428465 -0.353177 -0.178076 -0.176266 0.120959 0.275766 0.152498 -0.092026 0.097417 0.711530 0.297446 -0.153825 0.535955 0.280430 -0.338945 -0.471842 0.245878 0.098225 -0.134212 -0.170902 -0.005730 0.309702 0.567219 -0.657078 0.324398 -0.076455 0.063789 -0.136553 0.156638 -0.009939 -0.294561 0.187903 0.286586 -0.478005 0.216425 0.121870 -0.102826 0.254752 -0.422549 -0.351346 -0.043866 0.545106 0.271252 -0.172459 0.445945 -0.460915 -0.212928 0.121154 0.158995 -0.192179 0.313725 0.239149 0.332507 -0.034980 0.340062 -0.031161 0.608087 0.158458 -0.121381 0.140727 0.650468 0.062845 -0.471345 -0.227544
4 0.074992 -0.241445 0.533327 0.201541 0.160715 0.201469 0.382034 0.000686 0.002882 0.087792 -0.308845 -0.010458 -0.217882 0.476357 -0.242967 -0.421332 -0.098712 0.077878 -0.013785 -0.568084 0.068892 0.236386 -0.272288 0.009630 -0.163484 -0.248202 0.248636 0.417254 -0.237638 -0.023224 0.039514 0.095556 0.083141 0.154098 0.216371 -0.350183 0.254292 0.399808 -0.340036 0.169213 0.108103 0.123906 0.049406 0.148875 -0.140572 0.445282 -0.016775 0.410216 -0.053883 0.133577 0.022842 0.047259 -0.001769 0.001940 0.011679 -0.264135 -0.162539 -0.119672 -0.294687 -0.308900 0.613403 -0.081461 -0.120719 -0.391572 -0.226940 0.235522 -0.147816 0.058972 0.519541 -0.525398 -0.094890 0.328696 -0.219576 -0.452950 0.445672 0.451392 0.037108 0.382618 0.230247 0.271899 -0.489426 -0.276425 0.275533 -0.063716 0.122520 0.544690 -0.002460 -0.188896 0.333840 0.132041 -0.436607 -0.001845 -0.222204 -0.133302 -0.268097 0.306588 0.018604 0.408790 0.282110 0.111780 -0.197755 0.468077 -0.086586 -0.088541 0.310255 0.627662 0.136854 0.356787 -0.059009 0.124163 -0.402139 0.518864 -0.030397 0.130090 0.596056 0.253814 0.194010 -0.322578 -0.085884 -0.455879 0.247112 -0.015317 0.025740 -0.297691 0.037319 0.203577 -0.116582 0.320123 0.444893 0.290964 -0.470413 -0.094930 0.126115 -0.587336 -0.589673 0.587418 -0.390452 0.155775 0.394656 -0.249090 -0.264249 -0.352805 0.262118 -0.170449 -0.120878 0.088959 -0.008230 -0.131800 -0.155443 -0.538670 -0.104786 -0.050608 -0.182145 0.103626 -0.245905 0.130050 0.043464 -0.469468 0.429733 -0.371959 -0.202198 0.140833 -0.486069 0.105188 -0.173718 -0.176746 -0.158414 -0.277505 0.208637 0.354854 -0.053975 0.752257 -0.072283 0.021271 -0.309148 0.106710 -0.357164 0.097353 -0.221999 -0.199338 0.481336 0.254241 -0.043939 -0.114323 -0.341280 0.146191 0.383887 -0.229788 -0.029373 0.191123 -0.239936 0.145487 -0.064177 0.021414 0.005149 0.013305 -0.169791 -0.014373 -0.113537 -0.518885 -0.363839 -0.177121 0.112127 -0.008551 0.445229 0.041261 0.336646 0.022575 0.183625 -0.573095 -0.032127 -0.289559 -0.081353 -0.108967 0.108136 -0.415664 -0.141498 0.426550 -0.011718 0.070835 0.218609 0.318446 0.501109 0.077388 -0.112100 -0.186566 0.138206 -0.027387 0.500458 -0.213098 0.239205 0.094337 -0.036674 0.148047 0.257265 0.321411 -0.421970 -0.236845 -0.222098 -0.263268 0.130002 0.291225 0.224181 -0.090289 -0.039053 0.738560 0.188444 -0.159874 0.477586 0.279220 -0.418158 -0.484984 0.245884 0.155728 -0.123757 -0.139724 -0.061043 0.224394 0.611961 -0.617032 0.269998 -0.052945 0.133093 -0.113304 0.285576 -0.029524 -0.210809 0.116248 0.249723 -0.532941 0.147704 0.076411 -0.243837 0.275397 -0.486330 -0.309261 -0.024769 0.526469 0.199751 -0.175129 0.377338 -0.532129 -0.268879 0.209951 0.201086 -0.200130 0.221558 0.229847 0.350845 0.079779 0.308517 0.050879 0.647159 0.080867 -0.150521 0.123847 0.601637 0.148869 -0.485186 -0.321341
7 0.013664 -0.236340 0.517155 0.266428 0.178211 0.172160 0.419713 0.069529 -0.143024 -0.023791 -0.280270 0.025940 -0.260336 0.539662 -0.216026 -0.416669 -0.074761 0.113428 0.011422 -0.594743 0.039947 0.354202 -0.336952 0.000684 -0.171568 -0.284660 0.307212 0.434759 -0.082790 -0.116868 0.067804 0.091025 0.039966 0.166287 0.227280 -0.314096 0.130373 0.374635 -0.346431 -0.000055 0.042172 0.128714 -0.036851 0.069638 -0.092747 0.445136 -0.000745 0.522460 -0.081272 0.136174 -0.037856 0.132683 0.018539 0.018388 0.021046 -0.345801 -0.117999 -0.040700 -0.274592 -0.368384 0.617121 -0.055548 -0.107400 -0.373114 -0.304030 0.161352 -0.048801 0.080231 0.474992 -0.557807 -0.070578 0.405411 -0.144653 -0.545313 0.498113 0.414766 -0.009232 0.302852 0.168618 0.252029 -0.568094 -0.318308 0.321377 -0.077505 0.184861 0.481004 0.013323 -0.171848 0.235952 0.139819 -0.490759 0.029668 -0.283075 -0.086642 -0.270392 0.301462 -0.098584 0.412850 0.299916 0.124939 -0.174386 0.449755 -0.005410 -0.132892 0.394243 0.671634 0.185441 0.333807 0.003720 0.196681 -0.357615 0.515560 0.044899 0.181394 0.592506 0.265824 0.204844 -0.322231 -0.053907 -0.465493 0.229444 -0.041962 0.023762 -0.372361 0.082128 0.210912 -0.157928 0.268227 0.357347 0.136228 -0.452046 0.000704 0.075938 -0.512209 -0.636382 0.590856 -0.414026 0.340810 0.481824 -0.359140 -0.275019 -0.336262 0.361536 -0.227967 -0.131945 0.044907 -0.082452 -0.132626 -0.061330 -0.545660 -0.207473 -0.124726 -0.210567 0.133486 -0.281124 0.118688 0.065494 -0.456575 0.425312 -0.388359 -0.175948 0.123010 -0.395385 0.140691 -0.149776 -0.144545 -0.145007 -0.075581 0.271803 0.282331 -0.100012 0.723300 -0.103095 -0.024067 -0.278835 0.144813 -0.295753 0.248102 -0.219555 -0.200930 0.620192 0.233241 0.012731 -0.141755 -0.296620 0.234170 0.360743 -0.159573 0.017249 0.173963 -0.236761 0.097274 -0.114616 0.094582 -0.042065 -0.021235 -0.204788 -0.113114 -0.118457 -0.542800 -0.376847 -0.217433 0.197462 0.017838 0.598888 0.024019 0.349789 0.095784 0.262351 -0.564174 0.070239 -0.298955 -0.094268 -0.166026 0.106523 -0.364485 -0.163083 0.384360 -0.045386 0.132412 0.316790 0.279554 0.486897 0.041189 -0.243005 -0.071597 0.106819 -0.054376 0.438015 -0.159137 0.248318 0.084242 0.014353 0.227988 0.352063 0.289705 -0.396382 -0.189882 -0.194264 -0.203613 0.176259 0.348221 0.225183 -0.083939 -0.028635 0.751564 0.208196 -0.177364 0.514413 0.268247 -0.322606 -0.494455 0.178926 0.150698 -0.217874 -0.101884 -0.090599 0.219255 0.684177 -0.536819 0.258467 -0.060785 0.163588 -0.076884 0.178908 0.047369 -0.198090 0.278011 0.215731 -0.476048 0.075259 0.037593 -0.196305 0.189090 -0.456947 -0.295944 -0.013453 0.583674 0.194224 -0.142162 0.384898 -0.560580 -0.336567 0.151781 0.123627 -0.281472 0.184136 0.105561 0.324102 0.115889 0.258168 -0.021781 0.544342 0.061023 -0.137681 0.148208 0.687991 0.122343 -0.345764 -0.243903
13 -0.015852 -0.319569 0.562247 0.326115 0.164946 0.135903 0.528221 -0.002686 -0.047260 0.104502 -0.300184 -0.013487 -0.254168 0.519804 -0.266923 -0.328374 -0.122475 0.181960 -0.015743 -0.761293 -0.005812 0.392576 -0.291223 0.078024 -0.289289 -0.287757 0.241836 0.551144 -0.147274 -0.100282 -0.069063 0.056033 0.049118 0.139237 0.176444 -0.462709 0.190800 0.435710 -0.354384 0.154526 0.159290 0.148650 0.013703 0.150505 -0.051552 0.401000 -0.023425 0.527855 -0.040947 0.091664 0.114353 0.063260 0.102091 0.097257 -0.067321 -0.321340 -0.093510 -0.104133 -0.201622 -0.417260 0.740005 -0.124982 -0.183596 -0.477493 -0.293402 0.248705 -0.059802 0.121036 0.452343 -0.461942 -0.075469 0.391391 -0.118673 -0.462136 0.525380 0.390583 0.025788 0.402351 0.245432 0.349242 -0.663740 -0.356280 0.212050 -0.116777 0.192415 0.585190 0.015483 -0.255279 0.309549 0.050326 -0.509665 0.047211 -0.237903 -0.166557 -0.365638 0.224083 0.025657 0.445669 0.409364 0.057038 -0.244539 0.585018 -0.003783 -0.106758 0.430477 0.758463 0.176174 0.408154 -0.057121 0.121655 -0.457545 0.468668 0.020470 0.046110 0.673841 0.317320 0.160746 -0.316024 -0.065709 -0.430854 0.291885 -0.023986 0.020393 -0.358219 0.008046 0.172110 -0.195284 0.319441 0.497217 0.161079 -0.413569 -0.019630 0.100851 -0.565515 -0.719486 0.621293 -0.481631 0.350504 0.497308 -0.310919 -0.215985 -0.368496 0.305765 -0.076379 -0.148316 0.038176 -0.089607 -0.108530 -0.123948 -0.522143 -0.086107 -0.141041 -0.210190 0.132424 -0.245717 0.140704 0.122819 -0.572659 0.407672 -0.453725 -0.133841 0.128420 -0.431595 0.221950 -0.149636 -0.143130 -0.100760 -0.154591 0.231865 0.242185 -0.130480 0.801122 -0.101647 0.013468 -0.335770 0.197343 -0.431323 0.140016 -0.312399 -0.224433 0.476360 0.326827 -0.002546 -0.126101 -0.332950 0.198386 0.396745 -0.103770 -0.014214 0.149818 -0.190499 0.147282 -0.030852 0.059956 -0.013041 -0.057628 -0.221941 -0.101815 -0.051135 -0.507363 -0.344373 -0.231351 0.172777 0.062633 0.504157 0.066826 0.509955 0.097119 0.187634 -0.479119 0.085155 -0.174823 -0.175692 -0.079560 0.054152 -0.417191 -0.137547 0.379384 0.012786 0.151047 0.300276 0.256724 0.388021 0.153270 -0.138435 -0.088891 0.082514 -0.027686 0.466368 -0.194895 0.214300 0.105874 0.044200 0.150129 0.325773 0.226266 -0.486841 -0.210229 -0.207499 -0.198302 0.096091 0.357577 0.186339 -0.173469 0.081473 0.716911 0.249162 -0.153562 0.580917 0.325535 -0.371311 -0.452233 0.234131 0.052489 -0.129884 -0.244528 -0.218648 0.250659 0.651298 -0.647402 0.230577 -0.074881 0.227413 -0.051306 0.203071 -0.065103 -0.333728 0.240028 0.239432 -0.476702 0.112911 0.044839 -0.161736 0.219061 -0.414437 -0.328629 -0.012344 0.585434 0.156461 -0.196459 0.425440 -0.512916 -0.241073 0.202661 0.272418 -0.259348 0.301544 0.161767 0.314728 0.040311 0.447345 0.147459 0.562553 0.172672 -0.164619 0.035780 0.678621 0.145780 -0.457835 -0.333990
khu -0.557731 -0.697773 0.556108 -0.772761 -0.285822 -1.075094 0.111219 0.106552 0.263882 0.277216 0.334553 0.254399 -0.627784 -0.488333 -0.738718 0.091065 0.235164 0.445511 0.500012 -0.777942 -0.637001 0.328087 0.349842 0.014404 0.276848 -0.738335 -0.055180 0.410865 0.497591 -0.459039 0.540067 -0.386204 -0.599286 -0.725384 -0.410091 -0.301968 -0.776930 -0.341735 0.176297 0.078890 -0.682442 -0.162232 0.362412 0.477325 0.439290 0.219557 -0.228477 1.233804 0.278799 -0.120346 0.144065 -0.002362 -0.545330 -0.133365 0.933034 0.279445 0.027059 0.155352 0.294510 0.237477 0.364683 -0.323171 -1.262180 0.297848 0.554033 0.019436 0.906428 0.685179 -0.174697 0.307924 -0.554210 0.219393 1.057314 -0.056516 -0.409946 -0.621493 0.103990 0.509345 0.617920 -0.043293 -0.385225 0.131828 -0.325610 0.078439 0.155939 -0.076000 0.921942 -0.753876 0.426500 0.108855 -1.680131 0.018485 -0.172207 0.925419 -0.389066 -0.133079 0.454911 0.744628 0.529692 0.825774 0.167401 -0.884471 0.254181 -0.546276 0.159564 -0.402547 0.711083 1.198381 0.243216 -0.597538 -0.257850 0.071781 0.167766 -0.330951 -0.443126 -0.359167 -0.176455 0.668738 -0.218391 0.612199 -0.465350 -0.122737 0.008012 -0.250209 -0.561256 1.331599 -0.767173 0.422440 -0.662707 -0.366133 -0.180245 0.219814 -0.427180 -0.067060 0.506400 0.516313 0.242100 0.562973 0.868869 -0.382499 -0.643786 -0.339181 0.361336 -0.512177 -0.821522 0.895980 -0.426485 0.107603 0.595514 -0.040533 -0.288128 0.359051 0.467911 -0.220006 -0.383376 0.196902 0.175422 0.290925 0.058313 0.014723 -0.722573 -0.251067 -0.808161 -0.855030 -0.637019 -0.707580 0.733604 -0.115321 0.311437 0.460844 0.272684 0.641061 -0.208360 -0.769475 -0.609229 -0.291929 -0.160611 0.459599 -0.376621 -0.313164 0.478406 0.460423 -0.292980 -0.465954 -0.476419 0.706574 -0.745616 0.215830 -0.456214 -0.079984 -0.301776 -0.503583 -0.171062 -0.432331 -0.626857 -0.321603 0.345717 -0.968248 0.294966 0.129663 0.320286 0.187731 -0.087820 0.596376 0.083836 0.416003 0.491991 -0.300292 0.138951 -0.354416 -0.388784 0.417475 0.465599 0.441509 -0.101024 -0.010585 -1.013573 -0.447133 -0.693514 -0.361776 -0.605661 -0.522220 0.255158 -0.018843 0.496962 1.214863 0.284147 0.027754 -0.669472 0.029241 -0.024846 0.311511 0.519439 0.631571 0.044090 -0.447126 0.461403 0.041070 0.174214 -0.200713 0.450901 0.356083 0.062515 0.223799 -0.456124 0.225426 -0.127904 0.007630 0.478725 -0.543968 -0.209237 0.054460 -0.261948 -0.021282 -0.119804 -0.300190 -0.215531 -0.497808 -0.098474 0.885789 0.102394 -0.547331 0.624188 0.136831 -0.635972 -0.657742 0.253536 0.454147 0.682611 0.558708 -0.038455 0.006614 0.000048 -0.009775 -0.438302 0.204080 0.682155 -0.185556 -0.482042 0.051767 0.328510 -0.268389 -0.812206 0.926787 -0.019807 -0.902219 0.275421 -0.444552 -0.148519 0.652235 0.385824 -0.094412 -0.535196 -1.066422 0.120041 0.621163 0.759636 -0.209690 -0.246481 0.228437
trở_lại 0.619551 0.478191 -0.363916 0.042593 0.327396 0.757228 0.601566 -0.002843 -0.050337 0.114572 -0.099541 -0.170388 0.053727 -0.377781 -0.370357 -0.135360 -0.549407 0.653247 -0.436574 0.246269 0.633787 -0.110212 0.166017 -0.253256 0.323069 0.563131 -0.264961 -0.147968 -0.436860 -0.276940 -0.274335 0.269493 -0.116292 -0.260524 -0.084398 0.436118 -0.048986 0.883734 0.079370 -0.217829 0.778520 0.500376 0.472253 0.134759 -0.250276 0.222058 0.799884 -0.264961 0.121984 -0.110235 -0.112762 0.299899 -0.468496 0.356643 -0.187967 1.131142 -0.285344 -0.465644 -0.179229 -0.248645 -0.346483 -0.337297 0.934345 0.165194 0.040907 0.653319 0.299623 -0.218833 -0.477696 0.651173 -0.607312 0.244997 0.269040 0.433614 -0.452169 -0.387410 0.183405 -0.079537 0.001090 -0.036003 0.817094 -0.030966 0.735335 0.221412 0.961860 -0.115110 -0.492883 -0.281948 -0.339145 0.410100 0.362922 -0.138886 0.125540 0.489351 -0.760634 0.120806 -0.440290 -0.230051 -0.100194 -0.994428 -0.432054 0.324281 -0.426889 0.022171 -0.427717 -0.018506 0.293868 -0.105274 -0.433452 0.930036 -0.243104 0.155807 0.119085 0.017260 -0.267740 -0.069476 -0.270160 0.124942 0.916603 0.445117 -0.063177 0.253997 -1.133440 -0.207296 0.356247 -0.325408 0.336185 0.028170 0.168026 0.024622 0.468298 0.169409 0.722704 0.151835 -0.413119 -0.327747 0.514790 -0.295227 0.445857 0.156708 0.336268 -0.052713 0.295418 -0.122512 0.187246 -0.464026 -0.475586 0.139771 -0.197041 0.518961 0.654839 0.358273 -1.184104 -0.170776 0.607215 0.285715 -0.545629 0.017040 -0.342050 0.253004 0.294806 0.305606 0.642816 0.327042 -0.010042 -0.378388 -0.008001 0.584941 -0.134910 0.122013 -0.332294 -0.454250 -0.079026 -0.131117 0.297054 0.298074 0.587969 -0.882142 -0.054911 -0.056212 -0.323546 -0.581339 0.153413 -0.077848 0.262795 -0.069984 -0.400580 -0.194018 0.165587 0.310666 0.366537 0.268961 0.108145 -0.088227 -0.210544 -0.222846 -0.574388 0.472195 -0.270514 -0.855702 0.324553 -0.687413 -0.278821 0.051556 -0.200240 -0.109831 0.528007 -0.005519 -0.524277 -0.427450 -0.087209 -0.493355 0.012001 -0.144689 -0.571990 0.225198 -0.457962 0.258385 1.142732 -0.313107 -0.534074 0.337173 0.541451 0.396093 0.561961 -0.027625 0.072587 0.265873 0.052227 -0.704938 -0.436284 -0.242635 -0.451982 0.232439 -0.532470 -0.400427 0.384911 0.542912 -0.158053 0.674014 0.246092 -0.229230 0.008390 -0.253123 0.932318 0.528393 0.350685 -0.432256 -0.040799 0.938639 -0.555285 0.371694 0.108545 -0.282438 -0.111023 -0.213879 0.244840 -0.129441 -0.108190 -0.505750 0.058632 0.374174 0.170513 -0.007110 0.103808 0.687017 0.072485 0.484066 0.306387 -0.367773 0.885789 -0.371402 0.304233 -0.817980 -0.119014 0.149207 -0.164151 -0.020431 0.465600 -0.396276 -0.018049 0.287112 0.141711 0.090014 0.501912 -0.248774 0.340034 0.304218 -0.667892 -0.789786 -0.087814 -0.136013 0.625199 -0.296933 -0.176082 -0.059477 -0.232481 0.170787 -0.055699 0.193802
3 -0.072430 0.134359 -0.258442 -0.204025 -0.586254 0.644230 0.402892 0.234094 -0.308376 0.499808 0.105187 0.273301 0.634981 0.056859 0.445474 -0.034031 -0.045514 -0.454440 0.316877 -0.034458 0.005435 -0.432493 1.003803 0.057739 0.066148 -0.023092 -0.661227 0.121817 0.493682 -0.498570 0.284395 -0.385991 -0.269362 -0.388849 -0.174889 -0.347804 0.408967 -0.181182 -0.918271 0.179586 -0.429860 -0.281691 0.343774 -0.607573 -0.500962 -0.352120 0.283264 -0.585207 0.315154 -0.731504 0.837265 0.198606 -0.293690 0.092335 0.288129 0.635059 -0.480906 -0.236881 0.019078 0.095671 -0.135785 1.052935 0.552797 0.645845 -0.453972 -0.610722 -0.552635 0.288018 -0.226465 -0.038036 -0.525736 -0.266812 -0.538663 -0.102773 -0.598969 -0.149190 -0.132715 -0.032330 0.421825 0.281552 -0.125380 -0.128003 0.312563 -0.602789 0.263423 -0.133541 0.114185 0.854405 -0.129901 0.076839 -0.008604 0.368633 -0.012931 -0.344364 -0.222219 -0.057076 -0.100654 0.172832 -0.746078 0.459130 -0.058379 -0.574418 0.332204 0.188131 -0.785830 -0.398423 0.303280 -0.284011 -0.177878 0.001070 0.325687 0.731908 0.192478 -0.383091 0.636624 -0.660249 0.659931 -0.154966 -1.008211 -0.152326 0.299216 -0.280468 0.673685 -0.181364 0.431505 -0.253661 0.487918 -0.770845 -0.028769 0.337964 0.447449 -0.224097 -0.383421 -0.431934 0.637840 0.144201 -0.823076 -0.341740 0.046527 -0.074995 0.452034 0.113212 0.558079 0.042566 -0.255086 0.711298 0.247534 -0.010386 0.544001 0.141873 -0.431591 0.370220 -0.238546 0.330272 0.495711 -0.439751 -0.146106 -0.062511 0.009808 0.870445 0.142881 -0.036204 0.085277 -0.433679 0.393792 0.502431 -0.155741 0.560132 0.767917 -0.078757 0.641442 -0.596048 0.066398 -0.274991 -0.778487 -0.255477 -0.016161 -0.022057 0.215543 -0.234153 -0.232403 -0.553307 -0.685352 0.092813 0.114705 0.101706 0.511429 -0.056394 -0.591728 -0.158758 0.000291 0.429664 0.342554 -0.191484 0.420866 0.221926 -0.417896 0.379555 -0.441120 -0.004065 0.317712 0.357932 -0.220930 -0.117447 0.138526 -0.334924 -0.474838 0.265354 0.370205 0.589907 0.619996 0.124626 0.393684 0.517289 0.029227 -0.344527 0.255121 -0.075321 -0.071802 -0.522217 0.258257 0.230402 -0.164567 -0.703983 0.183323 -0.495776 0.080674 -0.515331 0.012420 -0.257716 -0.533163 -0.029498 -0.180817 0.234369 -0.976659 -0.378580 0.220860 0.351196 -0.164958 -0.549695 -0.328931 -0.329742 -0.407333 0.055321 -0.125278 -0.288957 0.098247 0.401934 -0.689919 0.088199 -0.303071 0.424244 -0.666782 -0.528354 -0.426093 0.217052 -1.011469 0.323802 -0.289001 0.687164 -0.014307 0.739101 -0.885291 0.780360 0.691815 -0.334311 0.000198 -0.685935 -0.025190 0.480381 -0.165671 -0.504972 0.165435 0.441115 0.095448 0.670697 0.088575 -0.109295 -0.260130 0.117266 -0.237204 0.268564 -0.084938 0.076201 0.139495 -0.077488 0.308075 0.704435 -0.115973 0.249728 0.030003 0.289265 0.402108 0.231076 0.261078 0.726209 -0.105513 0.656040 0.169609 -0.192976
6 -0.090362 0.185114 -0.276645 -0.214458 -0.547757 0.658512 0.380076 0.200653 -0.303036 0.494603 0.098773 0.271003 0.634109 0.058263 0.465135 -0.039232 -0.014181 -0.458676 0.279824 -0.041294 -0.006501 -0.380610 0.987297 0.035083 0.078504 -0.053441 -0.607768 0.093612 0.518045 -0.525683 0.242593 -0.399095 -0.265230 -0.334148 -0.158881 -0.365071 0.410726 -0.137310 -0.931645 0.205655 -0.400448 -0.294968 0.323315 -0.562584 -0.497038 -0.398014 0.283726 -0.571760 0.346772 -0.682014 0.826551 0.214010 -0.306017 0.118196 0.247454 0.574188 -0.470578 -0.210286 0.044884 0.076043 -0.176043 1.060602 0.534499 0.637043 -0.450328 -0.596432 -0.563481 0.241394 -0.240381 -0.056578 -0.522540 -0.258757 -0.534221 -0.146052 -0.544507 -0.154732 -0.143379 -0.018423 0.411359 0.271280 -0.138304 -0.144398 0.282258 -0.580872 0.263634 -0.110440 0.127530 0.845954 -0.131096 0.077879 0.002452 0.352195 -0.015928 -0.319532 -0.202724 -0.090836 -0.130821 0.165000 -0.770902 0.476380 -0.023795 -0.587139 0.332152 0.183637 -0.772286 -0.394878 0.298017 -0.285013 -0.225132 -0.026648 0.344876 0.723241 0.181150 -0.387753 0.645022 -0.632774 0.650035 -0.174123 -0.992006 -0.138639 0.326040 -0.307092 0.680601 -0.169592 0.435521 -0.253436 0.515849 -0.769563 -0.004068 0.323265 0.429941 -0.237587 -0.334098 -0.434740 0.653868 0.160672 -0.827754 -0.365946 -0.008978 -0.047667 0.461114 0.145847 0.517043 0.083969 -0.253212 0.687739 0.208342 -0.009170 0.524518 0.172102 -0.384452 0.347926 -0.243243 0.362723 0.466558 -0.442399 -0.152462 -0.105932 0.020314 0.840091 0.157626 -0.009372 0.081657 -0.389697 0.433061 0.501519 -0.183522 0.553284 0.786746 -0.051322 0.604930 -0.605297 0.052339 -0.263956 -0.757766 -0.232432 0.001025 -0.050353 0.218168 -0.211383 -0.264835 -0.571352 -0.688348 0.095419 0.104606 0.119009 0.503298 -0.034160 -0.589339 -0.113227 -0.011632 0.418379 0.324486 -0.172420 0.426876 0.192986 -0.389550 0.372547 -0.437229 0.000831 0.297509 0.381363 -0.198988 -0.107585 0.098249 -0.348877 -0.458753 0.266337 0.316196 0.593165 0.646744 0.118489 0.335658 0.480177 0.029794 -0.359966 0.269095 -0.066208 -0.057856 -0.524268 0.260417 0.239410 -0.190317 -0.654138 0.174176 -0.525361 0.090071 -0.509629 0.005727 -0.256756 -0.530552 -0.016090 -0.179311 0.217220 -0.936372 -0.356414 0.210792 0.335656 -0.157103 -0.528594 -0.324412 -0.324947 -0.395720 0.083847 -0.097863 -0.292346 0.142589 0.351341 -0.707217 0.065662 -0.291137 0.377336 -0.664715 -0.550420 -0.446870 0.226239 -0.963872 0.334375 -0.277969 0.660311 0.005802 0.774764 -0.889970 0.782218 0.709266 -0.286683 -0.001853 -0.658563 -0.047172 0.498309 -0.145816 -0.494230 0.163974 0.406289 0.132329 0.673396 0.046312 -0.107778 -0.225772 0.113848 -0.256606 0.301706 -0.088226 0.073295 0.084920 -0.044529 0.280978 0.708580 -0.099439 0.258606 0.054026 0.287782 0.411318 0.250207 0.271718 0.746198 -0.159979 0.627287 0.185375 -0.162697
